digraph Tree {
node [shape=box, style="filled", color="black"] ;
0 [label="shell_weight <= 0.249\ngini = 0.5\nsamples = 2505\nvalue = [1251, 1254]", fillcolor="#ffffff"] ;
1 [label="shell_weight <= 0.155\ngini = 0.379\nsamples = 1346\nvalue = [1004, 342]", fillcolor="#eeac7c"] ;
0 -> 1 [labeldistance=2.5, labelangle=45, headlabel="True"] ;
2 [label="gender_I <= 0.5\ngini = 0.217\nsamples = 777\nvalue = [681, 96]", fillcolor="#e99355"] ;
1 -> 2 ;
3 [label="shucked_weight <= 0.233\ngini = 0.405\nsamples = 234\nvalue = [168, 66]", fillcolor="#efb287"] ;
2 -> 3 ;
4 [label="diameter <= 0.248\ngini = 0.442\nsamples = 197\nvalue = [132, 65]", fillcolor="#f2bf9a"] ;
3 -> 4 ;
5 [label="shucked_weight <= 0.053\ngini = 0.053\nsamples = 37\nvalue = [36, 1]", fillcolor="#e6843e"] ;
4 -> 5 ;
6 [label="gini = 0.0\nsamples = 27\nvalue = [27, 0]", fillcolor="#e58139"] ;
5 -> 6 ;
7 [label="shucked_weight <= 0.054\ngini = 0.18\nsamples = 10\nvalue = [9, 1]", fillcolor="#e88f4f"] ;
5 -> 7 ;
8 [label="gini = 0.0\nsamples = 1\nvalue = [0, 1]", fillcolor="#399de5"] ;
7 -> 8 ;
9 [label="gini = 0.0\nsamples = 9\nvalue = [9, 0]", fillcolor="#e58139"] ;
7 -> 9 ;
10 [label="height <= 0.117\ngini = 0.48\nsamples = 160\nvalue = [96, 64]", fillcolor="#f6d5bd"] ;
4 -> 10 ;
11 [label="shucked_weight <= 0.133\ngini = 0.436\nsamples = 112\nvalue = [76, 36]", fillcolor="#f1bd97"] ;
10 -> 11 ;
12 [label="diameter <= 0.312\ngini = 0.493\nsamples = 52\nvalue = [29, 23]", fillcolor="#fae5d6"] ;
11 -> 12 ;
13 [label="whole_weight <= 0.186\ngini = 0.458\nsamples = 45\nvalue = [29, 16]", fillcolor="#f3c7a6"] ;
12 -> 13 ;
14 [label="length <= 0.352\ngini = 0.32\nsamples = 5\nvalue = [1, 4]", fillcolor="#6ab6ec"] ;
13 -> 14 ;
15 [label="gini = 0.0\nsamples = 4\nvalue = [0, 4]", fillcolor="#399de5"] ;
14 -> 15 ;
16 [label="gini = 0.0\nsamples = 1\nvalue = [1, 0]", fillcolor="#e58139"] ;
14 -> 16 ;
17 [label="shell_weight <= 0.073\ngini = 0.42\nsamples = 40\nvalue = [28, 12]", fillcolor="#f0b78e"] ;
13 -> 17 ;
18 [label="shucked_weight <= 0.073\ngini = 0.133\nsamples = 14\nvalue = [13, 1]", fillcolor="#e78b48"] ;
17 -> 18 ;
19 [label="shell_weight <= 0.065\ngini = 0.444\nsamples = 3\nvalue = [2, 1]", fillcolor="#f2c09c"] ;
18 -> 19 ;
20 [label="gini = 0.0\nsamples = 1\nvalue = [0, 1]", fillcolor="#399de5"] ;
19 -> 20 ;
21 [label="gini = 0.0\nsamples = 2\nvalue = [2, 0]", fillcolor="#e58139"] ;
19 -> 21 ;
22 [label="gini = 0.0\nsamples = 11\nvalue = [11, 0]", fillcolor="#e58139"] ;
18 -> 22 ;
23 [label="viscera_weight <= 0.038\ngini = 0.488\nsamples = 26\nvalue = [15, 11]", fillcolor="#f8ddca"] ;
17 -> 23 ;
24 [label="gini = 0.0\nsamples = 2\nvalue = [0, 2]", fillcolor="#399de5"] ;
23 -> 24 ;
25 [label="diameter <= 0.278\ngini = 0.469\nsamples = 24\nvalue = [15, 9]", fillcolor="#f5cdb0"] ;
23 -> 25 ;
26 [label="gini = 0.0\nsamples = 4\nvalue = [4, 0]", fillcolor="#e58139"] ;
25 -> 26 ;
27 [label="viscera_weight <= 0.061\ngini = 0.495\nsamples = 20\nvalue = [11, 9]", fillcolor="#fae8db"] ;
25 -> 27 ;
28 [label="viscera_weight <= 0.05\ngini = 0.397\nsamples = 11\nvalue = [8, 3]", fillcolor="#efb083"] ;
27 -> 28 ;
29 [label="shell_weight <= 0.091\ngini = 0.444\nsamples = 3\nvalue = [1, 2]", fillcolor="#9ccef2"] ;
28 -> 29 ;
30 [label="gini = 0.0\nsamples = 2\nvalue = [0, 2]", fillcolor="#399de5"] ;
29 -> 30 ;
31 [label="gini = 0.0\nsamples = 1\nvalue = [1, 0]", fillcolor="#e58139"] ;
29 -> 31 ;
32 [label="whole_weight <= 0.298\ngini = 0.219\nsamples = 8\nvalue = [7, 1]", fillcolor="#e99355"] ;
28 -> 32 ;
33 [label="gini = 0.0\nsamples = 7\nvalue = [7, 0]", fillcolor="#e58139"] ;
32 -> 33 ;
34 [label="gini = 0.0\nsamples = 1\nvalue = [0, 1]", fillcolor="#399de5"] ;
32 -> 34 ;
35 [label="length <= 0.39\ngini = 0.444\nsamples = 9\nvalue = [3, 6]", fillcolor="#9ccef2"] ;
27 -> 35 ;
36 [label="gini = 0.0\nsamples = 5\nvalue = [0, 5]", fillcolor="#399de5"] ;
35 -> 36 ;
37 [label="height <= 0.088\ngini = 0.375\nsamples = 4\nvalue = [3, 1]", fillcolor="#eeab7b"] ;
35 -> 37 ;
38 [label="gini = 0.0\nsamples = 1\nvalue = [0, 1]", fillcolor="#399de5"] ;
37 -> 38 ;
39 [label="gini = 0.0\nsamples = 3\nvalue = [3, 0]", fillcolor="#e58139"] ;
37 -> 39 ;
40 [label="gini = 0.0\nsamples = 7\nvalue = [0, 7]", fillcolor="#399de5"] ;
12 -> 40 ;
41 [label="diameter <= 0.343\ngini = 0.339\nsamples = 60\nvalue = [47, 13]", fillcolor="#eca470"] ;
11 -> 41 ;
42 [label="length <= 0.412\ngini = 0.208\nsamples = 34\nvalue = [30, 4]", fillcolor="#e89253"] ;
41 -> 42 ;
43 [label="length <= 0.39\ngini = 0.375\nsamples = 16\nvalue = [12, 4]", fillcolor="#eeab7b"] ;
42 -> 43 ;
44 [label="gini = 0.0\nsamples = 7\nvalue = [7, 0]", fillcolor="#e58139"] ;
43 -> 44 ;
45 [label="whole_weight <= 0.348\ngini = 0.494\nsamples = 9\nvalue = [5, 4]", fillcolor="#fae6d7"] ;
43 -> 45 ;
46 [label="shell_weight <= 0.096\ngini = 0.375\nsamples = 4\nvalue = [1, 3]", fillcolor="#7bbeee"] ;
45 -> 46 ;
47 [label="gini = 0.0\nsamples = 1\nvalue = [1, 0]", fillcolor="#e58139"] ;
46 -> 47 ;
48 [label="gini = 0.0\nsamples = 3\nvalue = [0, 3]", fillcolor="#399de5"] ;
46 -> 48 ;
49 [label="shell_weight <= 0.118\ngini = 0.32\nsamples = 5\nvalue = [4, 1]", fillcolor="#eca06a"] ;
45 -> 49 ;
50 [label="gini = 0.0\nsamples = 3\nvalue = [3, 0]", fillcolor="#e58139"] ;
49 -> 50 ;
51 [label="height <= 0.11\ngini = 0.5\nsamples = 2\nvalue = [1, 1]", fillcolor="#ffffff"] ;
49 -> 51 ;
52 [label="gini = 0.0\nsamples = 1\nvalue = [0, 1]", fillcolor="#399de5"] ;
51 -> 52 ;
53 [label="gini = 0.0\nsamples = 1\nvalue = [1, 0]", fillcolor="#e58139"] ;
51 -> 53 ;
54 [label="gini = 0.0\nsamples = 18\nvalue = [18, 0]", fillcolor="#e58139"] ;
42 -> 54 ;
55 [label="whole_weight <= 0.418\ngini = 0.453\nsamples = 26\nvalue = [17, 9]", fillcolor="#f3c4a2"] ;
41 -> 55 ;
56 [label="shell_weight <= 0.122\ngini = 0.408\nsamples = 7\nvalue = [2, 5]", fillcolor="#88c4ef"] ;
55 -> 56 ;
57 [label="gini = 0.0\nsamples = 2\nvalue = [2, 0]", fillcolor="#e58139"] ;
56 -> 57 ;
58 [label="gini = 0.0\nsamples = 5\nvalue = [0, 5]", fillcolor="#399de5"] ;
56 -> 58 ;
59 [label="shell_weight <= 0.15\ngini = 0.332\nsamples = 19\nvalue = [15, 4]", fillcolor="#eca36e"] ;
55 -> 59 ;
60 [label="whole_weight <= 0.503\ngini = 0.219\nsamples = 16\nvalue = [14, 2]", fillcolor="#e99355"] ;
59 -> 60 ;
61 [label="viscera_weight <= 0.085\ngini = 0.124\nsamples = 15\nvalue = [14, 1]", fillcolor="#e78a47"] ;
60 -> 61 ;
62 [label="gender_F <= 0.5\ngini = 0.5\nsamples = 2\nvalue = [1, 1]", fillcolor="#ffffff"] ;
61 -> 62 ;
63 [label="gini = 0.0\nsamples = 1\nvalue = [1, 0]", fillcolor="#e58139"] ;
62 -> 63 ;
64 [label="gini = 0.0\nsamples = 1\nvalue = [0, 1]", fillcolor="#399de5"] ;
62 -> 64 ;
65 [label="gini = 0.0\nsamples = 13\nvalue = [13, 0]", fillcolor="#e58139"] ;
61 -> 65 ;
66 [label="gini = 0.0\nsamples = 1\nvalue = [0, 1]", fillcolor="#399de5"] ;
60 -> 66 ;
67 [label="whole_weight <= 0.491\ngini = 0.444\nsamples = 3\nvalue = [1, 2]", fillcolor="#9ccef2"] ;
59 -> 67 ;
68 [label="gini = 0.0\nsamples = 2\nvalue = [0, 2]", fillcolor="#399de5"] ;
67 -> 68 ;
69 [label="gini = 0.0\nsamples = 1\nvalue = [1, 0]", fillcolor="#e58139"] ;
67 -> 69 ;
70 [label="length <= 0.447\ngini = 0.486\nsamples = 48\nvalue = [20, 28]", fillcolor="#c6e3f8"] ;
10 -> 70 ;
71 [label="length <= 0.403\ngini = 0.365\nsamples = 25\nvalue = [6, 19]", fillcolor="#78bced"] ;
70 -> 71 ;
72 [label="length <= 0.387\ngini = 0.48\nsamples = 5\nvalue = [3, 2]", fillcolor="#f6d5bd"] ;
71 -> 72 ;
73 [label="gini = 0.0\nsamples = 2\nvalue = [0, 2]", fillcolor="#399de5"] ;
72 -> 73 ;
74 [label="gini = 0.0\nsamples = 3\nvalue = [3, 0]", fillcolor="#e58139"] ;
72 -> 74 ;
75 [label="shucked_weight <= 0.194\ngini = 0.255\nsamples = 20\nvalue = [3, 17]", fillcolor="#5caeea"] ;
71 -> 75 ;
76 [label="length <= 0.438\ngini = 0.111\nsamples = 17\nvalue = [1, 16]", fillcolor="#45a3e7"] ;
75 -> 76 ;
77 [label="gini = 0.0\nsamples = 14\nvalue = [0, 14]", fillcolor="#399de5"] ;
76 -> 77 ;
78 [label="shell_weight <= 0.138\ngini = 0.444\nsamples = 3\nvalue = [1, 2]", fillcolor="#9ccef2"] ;
76 -> 78 ;
79 [label="gini = 0.0\nsamples = 1\nvalue = [1, 0]", fillcolor="#e58139"] ;
78 -> 79 ;
80 [label="gini = 0.0\nsamples = 2\nvalue = [0, 2]", fillcolor="#399de5"] ;
78 -> 80 ;
81 [label="length <= 0.44\ngini = 0.444\nsamples = 3\nvalue = [2, 1]", fillcolor="#f2c09c"] ;
75 -> 81 ;
82 [label="gini = 0.0\nsamples = 2\nvalue = [2, 0]", fillcolor="#e58139"] ;
81 -> 82 ;
83 [label="gini = 0.0\nsamples = 1\nvalue = [0, 1]", fillcolor="#399de5"] ;
81 -> 83 ;
84 [label="viscera_weight <= 0.105\ngini = 0.476\nsamples = 23\nvalue = [14, 9]", fillcolor="#f6d2b8"] ;
70 -> 84 ;
85 [label="height <= 0.135\ngini = 0.219\nsamples = 8\nvalue = [7, 1]", fillcolor="#e99355"] ;
84 -> 85 ;
86 [label="gini = 0.0\nsamples = 7\nvalue = [7, 0]", fillcolor="#e58139"] ;
85 -> 86 ;
87 [label="gini = 0.0\nsamples = 1\nvalue = [0, 1]", fillcolor="#399de5"] ;
85 -> 87 ;
88 [label="whole_weight <= 0.459\ngini = 0.498\nsamples = 15\nvalue = [7, 8]", fillcolor="#e6f3fc"] ;
84 -> 88 ;
89 [label="gini = 0.0\nsamples = 4\nvalue = [0, 4]", fillcolor="#399de5"] ;
88 -> 89 ;
90 [label="gender_F <= 0.5\ngini = 0.463\nsamples = 11\nvalue = [7, 4]", fillcolor="#f4c9aa"] ;
88 -> 90 ;
91 [label="gini = 0.0\nsamples = 4\nvalue = [4, 0]", fillcolor="#e58139"] ;
90 -> 91 ;
92 [label="height <= 0.127\ngini = 0.49\nsamples = 7\nvalue = [3, 4]", fillcolor="#cee6f8"] ;
90 -> 92 ;
93 [label="viscera_weight <= 0.106\ngini = 0.375\nsamples = 4\nvalue = [3, 1]", fillcolor="#eeab7b"] ;
92 -> 93 ;
94 [label="gini = 0.0\nsamples = 1\nvalue = [0, 1]", fillcolor="#399de5"] ;
93 -> 94 ;
95 [label="gini = 0.0\nsamples = 3\nvalue = [3, 0]", fillcolor="#e58139"] ;
93 -> 95 ;
96 [label="gini = 0.0\nsamples = 3\nvalue = [0, 3]", fillcolor="#399de5"] ;
92 -> 96 ;
97 [label="shucked_weight <= 0.397\ngini = 0.053\nsamples = 37\nvalue = [36, 1]", fillcolor="#e6843e"] ;
3 -> 97 ;
98 [label="gini = 0.0\nsamples = 36\nvalue = [36, 0]", fillcolor="#e58139"] ;
97 -> 98 ;
99 [label="gini = 0.0\nsamples = 1\nvalue = [0, 1]", fillcolor="#399de5"] ;
97 -> 99 ;
100 [label="height <= 0.098\ngini = 0.104\nsamples = 543\nvalue = [513, 30]", fillcolor="#e78845"] ;
2 -> 100 ;
101 [label="viscera_weight <= 0.035\ngini = 0.02\nsamples = 297\nvalue = [294, 3]", fillcolor="#e5823b"] ;
100 -> 101 ;
102 [label="diameter <= 0.257\ngini = 0.044\nsamples = 133\nvalue = [130, 3]", fillcolor="#e6843e"] ;
101 -> 102 ;
103 [label="diameter <= 0.242\ngini = 0.016\nsamples = 126\nvalue = [125, 1]", fillcolor="#e5823b"] ;
102 -> 103 ;
104 [label="gini = 0.0\nsamples = 115\nvalue = [115, 0]", fillcolor="#e58139"] ;
103 -> 104 ;
105 [label="length <= 0.322\ngini = 0.165\nsamples = 11\nvalue = [10, 1]", fillcolor="#e88e4d"] ;
103 -> 105 ;
106 [label="viscera_weight <= 0.033\ngini = 0.444\nsamples = 3\nvalue = [2, 1]", fillcolor="#f2c09c"] ;
105 -> 106 ;
107 [label="gini = 0.0\nsamples = 1\nvalue = [0, 1]", fillcolor="#399de5"] ;
106 -> 107 ;
108 [label="gini = 0.0\nsamples = 2\nvalue = [2, 0]", fillcolor="#e58139"] ;
106 -> 108 ;
109 [label="gini = 0.0\nsamples = 8\nvalue = [8, 0]", fillcolor="#e58139"] ;
105 -> 109 ;
110 [label="whole_weight <= 0.186\ngini = 0.408\nsamples = 7\nvalue = [5, 2]", fillcolor="#efb388"] ;
102 -> 110 ;
111 [label="shell_weight <= 0.058\ngini = 0.444\nsamples = 3\nvalue = [1, 2]", fillcolor="#9ccef2"] ;
110 -> 111 ;
112 [label="gini = 0.0\nsamples = 1\nvalue = [1, 0]", fillcolor="#e58139"] ;
111 -> 112 ;
113 [label="gini = 0.0\nsamples = 2\nvalue = [0, 2]", fillcolor="#399de5"] ;
111 -> 113 ;
114 [label="gini = 0.0\nsamples = 4\nvalue = [4, 0]", fillcolor="#e58139"] ;
110 -> 114 ;
115 [label="gini = 0.0\nsamples = 164\nvalue = [164, 0]", fillcolor="#e58139"] ;
101 -> 115 ;
116 [label="height <= 0.133\ngini = 0.195\nsamples = 246\nvalue = [219, 27]", fillcolor="#e89151"] ;
100 -> 116 ;
117 [label="shucked_weight <= 0.157\ngini = 0.174\nsamples = 228\nvalue = [206, 22]", fillcolor="#e88e4e"] ;
116 -> 117 ;
118 [label="shell_weight <= 0.099\ngini = 0.292\nsamples = 79\nvalue = [65, 14]", fillcolor="#eb9c64"] ;
117 -> 118 ;
119 [label="whole_weight <= 0.263\ngini = 0.153\nsamples = 48\nvalue = [44, 4]", fillcolor="#e78c4b"] ;
118 -> 119 ;
120 [label="length <= 0.405\ngini = 0.346\nsamples = 18\nvalue = [14, 4]", fillcolor="#eca572"] ;
119 -> 120 ;
121 [label="diameter <= 0.282\ngini = 0.291\nsamples = 17\nvalue = [14, 3]", fillcolor="#eb9c63"] ;
120 -> 121 ;
122 [label="shell_weight <= 0.071\ngini = 0.397\nsamples = 11\nvalue = [8, 3]", fillcolor="#efb083"] ;
121 -> 122 ;
123 [label="gini = 0.0\nsamples = 5\nvalue = [5, 0]", fillcolor="#e58139"] ;
122 -> 123 ;
124 [label="height <= 0.105\ngini = 0.5\nsamples = 6\nvalue = [3, 3]", fillcolor="#ffffff"] ;
122 -> 124 ;
125 [label="gini = 0.0\nsamples = 2\nvalue = [0, 2]", fillcolor="#399de5"] ;
124 -> 125 ;
126 [label="shell_weight <= 0.082\ngini = 0.375\nsamples = 4\nvalue = [3, 1]", fillcolor="#eeab7b"] ;
124 -> 126 ;
127 [label="gini = 0.0\nsamples = 2\nvalue = [2, 0]", fillcolor="#e58139"] ;
126 -> 127 ;
128 [label="viscera_weight <= 0.045\ngini = 0.5\nsamples = 2\nvalue = [1, 1]", fillcolor="#ffffff"] ;
126 -> 128 ;
129 [label="gini = 0.0\nsamples = 1\nvalue = [1, 0]", fillcolor="#e58139"] ;
128 -> 129 ;
130 [label="gini = 0.0\nsamples = 1\nvalue = [0, 1]", fillcolor="#399de5"] ;
128 -> 130 ;
131 [label="gini = 0.0\nsamples = 6\nvalue = [6, 0]", fillcolor="#e58139"] ;
121 -> 131 ;
132 [label="gini = 0.0\nsamples = 1\nvalue = [0, 1]", fillcolor="#399de5"] ;
120 -> 132 ;
133 [label="gini = 0.0\nsamples = 30\nvalue = [30, 0]", fillcolor="#e58139"] ;
119 -> 133 ;
134 [label="shucked_weight <= 0.123\ngini = 0.437\nsamples = 31\nvalue = [21, 10]", fillcolor="#f1bd97"] ;
118 -> 134 ;
135 [label="gini = 0.0\nsamples = 3\nvalue = [0, 3]", fillcolor="#399de5"] ;
134 -> 135 ;
136 [label="diameter <= 0.312\ngini = 0.375\nsamples = 28\nvalue = [21, 7]", fillcolor="#eeab7b"] ;
134 -> 136 ;
137 [label="diameter <= 0.303\ngini = 0.375\nsamples = 4\nvalue = [1, 3]", fillcolor="#7bbeee"] ;
136 -> 137 ;
138 [label="gini = 0.0\nsamples = 1\nvalue = [1, 0]", fillcolor="#e58139"] ;
137 -> 138 ;
139 [label="gini = 0.0\nsamples = 3\nvalue = [0, 3]", fillcolor="#399de5"] ;
137 -> 139 ;
140 [label="shell_weight <= 0.146\ngini = 0.278\nsamples = 24\nvalue = [20, 4]", fillcolor="#ea9a61"] ;
136 -> 140 ;
141 [label="diameter <= 0.375\ngini = 0.227\nsamples = 23\nvalue = [20, 3]", fillcolor="#e99457"] ;
140 -> 141 ;
142 [label="shucked_weight <= 0.153\ngini = 0.165\nsamples = 22\nvalue = [20, 2]", fillcolor="#e88e4d"] ;
141 -> 142 ;
143 [label="gini = 0.0\nsamples = 18\nvalue = [18, 0]", fillcolor="#e58139"] ;
142 -> 143 ;
144 [label="height <= 0.102\ngini = 0.5\nsamples = 4\nvalue = [2, 2]", fillcolor="#ffffff"] ;
142 -> 144 ;
145 [label="gini = 0.0\nsamples = 1\nvalue = [0, 1]", fillcolor="#399de5"] ;
144 -> 145 ;
146 [label="whole_weight <= 0.377\ngini = 0.444\nsamples = 3\nvalue = [2, 1]", fillcolor="#f2c09c"] ;
144 -> 146 ;
147 [label="gini = 0.0\nsamples = 2\nvalue = [2, 0]", fillcolor="#e58139"] ;
146 -> 147 ;
148 [label="gini = 0.0\nsamples = 1\nvalue = [0, 1]", fillcolor="#399de5"] ;
146 -> 148 ;
149 [label="gini = 0.0\nsamples = 1\nvalue = [0, 1]", fillcolor="#399de5"] ;
141 -> 149 ;
150 [label="gini = 0.0\nsamples = 1\nvalue = [0, 1]", fillcolor="#399de5"] ;
140 -> 150 ;
151 [label="length <= 0.512\ngini = 0.102\nsamples = 149\nvalue = [141, 8]", fillcolor="#e68844"] ;
117 -> 151 ;
152 [label="shell_weight <= 0.136\ngini = 0.079\nsamples = 145\nvalue = [139, 6]", fillcolor="#e68642"] ;
151 -> 152 ;
153 [label="viscera_weight <= 0.063\ngini = 0.038\nsamples = 104\nvalue = [102, 2]", fillcolor="#e6833d"] ;
152 -> 153 ;
154 [label="shell_weight <= 0.111\ngini = 0.32\nsamples = 5\nvalue = [4, 1]", fillcolor="#eca06a"] ;
153 -> 154 ;
155 [label="gini = 0.0\nsamples = 4\nvalue = [4, 0]", fillcolor="#e58139"] ;
154 -> 155 ;
156 [label="gini = 0.0\nsamples = 1\nvalue = [0, 1]", fillcolor="#399de5"] ;
154 -> 156 ;
157 [label="viscera_weight <= 0.108\ngini = 0.02\nsamples = 99\nvalue = [98, 1]", fillcolor="#e5823b"] ;
153 -> 157 ;
158 [label="gini = 0.0\nsamples = 81\nvalue = [81, 0]", fillcolor="#e58139"] ;
157 -> 158 ;
159 [label="shell_weight <= 0.115\ngini = 0.105\nsamples = 18\nvalue = [17, 1]", fillcolor="#e78845"] ;
157 -> 159 ;
160 [label="shell_weight <= 0.108\ngini = 0.5\nsamples = 2\nvalue = [1, 1]", fillcolor="#ffffff"] ;
159 -> 160 ;
161 [label="gini = 0.0\nsamples = 1\nvalue = [1, 0]", fillcolor="#e58139"] ;
160 -> 161 ;
162 [label="gini = 0.0\nsamples = 1\nvalue = [0, 1]", fillcolor="#399de5"] ;
160 -> 162 ;
163 [label="gini = 0.0\nsamples = 16\nvalue = [16, 0]", fillcolor="#e58139"] ;
159 -> 163 ;
164 [label="shucked_weight <= 0.196\ngini = 0.176\nsamples = 41\nvalue = [37, 4]", fillcolor="#e88f4e"] ;
152 -> 164 ;
165 [label="shell_weight <= 0.148\ngini = 0.397\nsamples = 11\nvalue = [8, 3]", fillcolor="#efb083"] ;
164 -> 165 ;
166 [label="shell_weight <= 0.142\ngini = 0.5\nsamples = 6\nvalue = [3, 3]", fillcolor="#ffffff"] ;
165 -> 166 ;
167 [label="shell_weight <= 0.137\ngini = 0.375\nsamples = 4\nvalue = [3, 1]", fillcolor="#eeab7b"] ;
166 -> 167 ;
168 [label="gini = 0.0\nsamples = 1\nvalue = [0, 1]", fillcolor="#399de5"] ;
167 -> 168 ;
169 [label="gini = 0.0\nsamples = 3\nvalue = [3, 0]", fillcolor="#e58139"] ;
167 -> 169 ;
170 [label="gini = 0.0\nsamples = 2\nvalue = [0, 2]", fillcolor="#399de5"] ;
166 -> 170 ;
171 [label="gini = 0.0\nsamples = 5\nvalue = [5, 0]", fillcolor="#e58139"] ;
165 -> 171 ;
172 [label="height <= 0.107\ngini = 0.064\nsamples = 30\nvalue = [29, 1]", fillcolor="#e68540"] ;
164 -> 172 ;
173 [label="length <= 0.47\ngini = 0.375\nsamples = 4\nvalue = [3, 1]", fillcolor="#eeab7b"] ;
172 -> 173 ;
174 [label="gini = 0.0\nsamples = 1\nvalue = [0, 1]", fillcolor="#399de5"] ;
173 -> 174 ;
175 [label="gini = 0.0\nsamples = 3\nvalue = [3, 0]", fillcolor="#e58139"] ;
173 -> 175 ;
176 [label="gini = 0.0\nsamples = 26\nvalue = [26, 0]", fillcolor="#e58139"] ;
172 -> 176 ;
177 [label="shell_weight <= 0.146\ngini = 0.5\nsamples = 4\nvalue = [2, 2]", fillcolor="#ffffff"] ;
151 -> 177 ;
178 [label="gini = 0.0\nsamples = 2\nvalue = [0, 2]", fillcolor="#399de5"] ;
177 -> 178 ;
179 [label="gini = 0.0\nsamples = 2\nvalue = [2, 0]", fillcolor="#e58139"] ;
177 -> 179 ;
180 [label="viscera_weight <= 0.127\ngini = 0.401\nsamples = 18\nvalue = [13, 5]", fillcolor="#efb185"] ;
116 -> 180 ;
181 [label="length <= 0.453\ngini = 0.32\nsamples = 15\nvalue = [12, 3]", fillcolor="#eca06a"] ;
180 -> 181 ;
182 [label="whole_weight <= 0.434\ngini = 0.49\nsamples = 7\nvalue = [4, 3]", fillcolor="#f8e0ce"] ;
181 -> 182 ;
183 [label="gini = 0.0\nsamples = 4\nvalue = [4, 0]", fillcolor="#e58139"] ;
182 -> 183 ;
184 [label="gini = 0.0\nsamples = 3\nvalue = [0, 3]", fillcolor="#399de5"] ;
182 -> 184 ;
185 [label="gini = 0.0\nsamples = 8\nvalue = [8, 0]", fillcolor="#e58139"] ;
181 -> 185 ;
186 [label="viscera_weight <= 0.147\ngini = 0.444\nsamples = 3\nvalue = [1, 2]", fillcolor="#9ccef2"] ;
180 -> 186 ;
187 [label="gini = 0.0\nsamples = 2\nvalue = [0, 2]", fillcolor="#399de5"] ;
186 -> 187 ;
188 [label="gini = 0.0\nsamples = 1\nvalue = [1, 0]", fillcolor="#e58139"] ;
186 -> 188 ;
189 [label="shucked_weight <= 0.32\ngini = 0.491\nsamples = 569\nvalue = [323, 246]", fillcolor="#f9e1d0"] ;
1 -> 189 ;
190 [label="gender_I <= 0.5\ngini = 0.49\nsamples = 318\nvalue = [137, 181]", fillcolor="#cfe7f9"] ;
189 -> 190 ;
191 [label="shell_weight <= 0.186\ngini = 0.417\nsamples = 199\nvalue = [59, 140]", fillcolor="#8cc6f0"] ;
190 -> 191 ;
192 [label="length <= 0.502\ngini = 0.489\nsamples = 99\nvalue = [42, 57]", fillcolor="#cbe5f8"] ;
191 -> 192 ;
193 [label="shucked_weight <= 0.237\ngini = 0.414\nsamples = 65\nvalue = [19, 46]", fillcolor="#8bc5f0"] ;
192 -> 193 ;
194 [label="height <= 0.165\ngini = 0.266\nsamples = 38\nvalue = [6, 32]", fillcolor="#5eafea"] ;
193 -> 194 ;
195 [label="viscera_weight <= 0.115\ngini = 0.234\nsamples = 37\nvalue = [5, 32]", fillcolor="#58ace9"] ;
194 -> 195 ;
196 [label="viscera_weight <= 0.095\ngini = 0.426\nsamples = 13\nvalue = [4, 9]", fillcolor="#91c9f1"] ;
195 -> 196 ;
197 [label="gini = 0.0\nsamples = 5\nvalue = [0, 5]", fillcolor="#399de5"] ;
196 -> 197 ;
198 [label="shell_weight <= 0.163\ngini = 0.5\nsamples = 8\nvalue = [4, 4]", fillcolor="#ffffff"] ;
196 -> 198 ;
199 [label="viscera_weight <= 0.106\ngini = 0.444\nsamples = 6\nvalue = [2, 4]", fillcolor="#9ccef2"] ;
198 -> 199 ;
200 [label="height <= 0.11\ngini = 0.444\nsamples = 3\nvalue = [2, 1]", fillcolor="#f2c09c"] ;
199 -> 200 ;
201 [label="gini = 0.0\nsamples = 1\nvalue = [0, 1]", fillcolor="#399de5"] ;
200 -> 201 ;
202 [label="gini = 0.0\nsamples = 2\nvalue = [2, 0]", fillcolor="#e58139"] ;
200 -> 202 ;
203 [label="gini = 0.0\nsamples = 3\nvalue = [0, 3]", fillcolor="#399de5"] ;
199 -> 203 ;
204 [label="gini = 0.0\nsamples = 2\nvalue = [2, 0]", fillcolor="#e58139"] ;
198 -> 204 ;
205 [label="viscera_weight <= 0.133\ngini = 0.08\nsamples = 24\nvalue = [1, 23]", fillcolor="#42a1e6"] ;
195 -> 205 ;
206 [label="gini = 0.0\nsamples = 16\nvalue = [0, 16]", fillcolor="#399de5"] ;
205 -> 206 ;
207 [label="viscera_weight <= 0.134\ngini = 0.219\nsamples = 8\nvalue = [1, 7]", fillcolor="#55abe9"] ;
205 -> 207 ;
208 [label="gini = 0.0\nsamples = 1\nvalue = [1, 0]", fillcolor="#e58139"] ;
207 -> 208 ;
209 [label="gini = 0.0\nsamples = 7\nvalue = [0, 7]", fillcolor="#399de5"] ;
207 -> 209 ;
210 [label="gini = 0.0\nsamples = 1\nvalue = [1, 0]", fillcolor="#e58139"] ;
194 -> 210 ;
211 [label="shell_weight <= 0.171\ngini = 0.499\nsamples = 27\nvalue = [13, 14]", fillcolor="#f1f8fd"] ;
193 -> 211 ;
212 [label="viscera_weight <= 0.145\ngini = 0.346\nsamples = 9\nvalue = [7, 2]", fillcolor="#eca572"] ;
211 -> 212 ;
213 [label="gini = 0.0\nsamples = 7\nvalue = [7, 0]", fillcolor="#e58139"] ;
212 -> 213 ;
214 [label="gini = 0.0\nsamples = 2\nvalue = [0, 2]", fillcolor="#399de5"] ;
212 -> 214 ;
215 [label="length <= 0.493\ngini = 0.444\nsamples = 18\nvalue = [6, 12]", fillcolor="#9ccef2"] ;
211 -> 215 ;
216 [label="shucked_weight <= 0.241\ngini = 0.497\nsamples = 13\nvalue = [6, 7]", fillcolor="#e3f1fb"] ;
215 -> 216 ;
217 [label="gini = 0.0\nsamples = 2\nvalue = [2, 0]", fillcolor="#e58139"] ;
216 -> 217 ;
218 [label="shucked_weight <= 0.268\ngini = 0.463\nsamples = 11\nvalue = [4, 7]", fillcolor="#aad5f4"] ;
216 -> 218 ;
219 [label="length <= 0.468\ngini = 0.245\nsamples = 7\nvalue = [1, 6]", fillcolor="#5aade9"] ;
218 -> 219 ;
220 [label="gini = 0.0\nsamples = 1\nvalue = [1, 0]", fillcolor="#e58139"] ;
219 -> 220 ;
221 [label="gini = 0.0\nsamples = 6\nvalue = [0, 6]", fillcolor="#399de5"] ;
219 -> 221 ;
222 [label="length <= 0.477\ngini = 0.375\nsamples = 4\nvalue = [3, 1]", fillcolor="#eeab7b"] ;
218 -> 222 ;
223 [label="gini = 0.0\nsamples = 1\nvalue = [0, 1]", fillcolor="#399de5"] ;
222 -> 223 ;
224 [label="gini = 0.0\nsamples = 3\nvalue = [3, 0]", fillcolor="#e58139"] ;
222 -> 224 ;
225 [label="gini = 0.0\nsamples = 5\nvalue = [0, 5]", fillcolor="#399de5"] ;
215 -> 225 ;
226 [label="whole_weight <= 0.583\ngini = 0.438\nsamples = 34\nvalue = [23, 11]", fillcolor="#f1bd98"] ;
192 -> 226 ;
227 [label="gini = 0.0\nsamples = 8\nvalue = [8, 0]", fillcolor="#e58139"] ;
226 -> 227 ;
228 [label="whole_weight <= 0.611\ngini = 0.488\nsamples = 26\nvalue = [15, 11]", fillcolor="#f8ddca"] ;
226 -> 228 ;
229 [label="gini = 0.0\nsamples = 4\nvalue = [0, 4]", fillcolor="#399de5"] ;
228 -> 229 ;
230 [label="viscera_weight <= 0.163\ngini = 0.434\nsamples = 22\nvalue = [15, 7]", fillcolor="#f1bc95"] ;
228 -> 230 ;
231 [label="shucked_weight <= 0.265\ngini = 0.245\nsamples = 14\nvalue = [12, 2]", fillcolor="#e9965a"] ;
230 -> 231 ;
232 [label="shell_weight <= 0.183\ngini = 0.444\nsamples = 3\nvalue = [1, 2]", fillcolor="#9ccef2"] ;
231 -> 232 ;
233 [label="gini = 0.0\nsamples = 2\nvalue = [0, 2]", fillcolor="#399de5"] ;
232 -> 233 ;
234 [label="gini = 0.0\nsamples = 1\nvalue = [1, 0]", fillcolor="#e58139"] ;
232 -> 234 ;
235 [label="gini = 0.0\nsamples = 11\nvalue = [11, 0]", fillcolor="#e58139"] ;
231 -> 235 ;
236 [label="shucked_weight <= 0.255\ngini = 0.469\nsamples = 8\nvalue = [3, 5]", fillcolor="#b0d8f5"] ;
230 -> 236 ;
237 [label="gini = 0.0\nsamples = 2\nvalue = [2, 0]", fillcolor="#e58139"] ;
236 -> 237 ;
238 [label="shucked_weight <= 0.307\ngini = 0.278\nsamples = 6\nvalue = [1, 5]", fillcolor="#61b1ea"] ;
236 -> 238 ;
239 [label="gini = 0.0\nsamples = 5\nvalue = [0, 5]", fillcolor="#399de5"] ;
238 -> 239 ;
240 [label="gini = 0.0\nsamples = 1\nvalue = [1, 0]", fillcolor="#e58139"] ;
238 -> 240 ;
241 [label="diameter <= 0.417\ngini = 0.282\nsamples = 100\nvalue = [17, 83]", fillcolor="#62b1ea"] ;
191 -> 241 ;
242 [label="height <= 0.095\ngini = 0.193\nsamples = 83\nvalue = [9, 74]", fillcolor="#51a9e8"] ;
241 -> 242 ;
243 [label="gini = 0.0\nsamples = 1\nvalue = [1, 0]", fillcolor="#e58139"] ;
242 -> 243 ;
244 [label="whole_weight <= 0.476\ngini = 0.176\nsamples = 82\nvalue = [8, 74]", fillcolor="#4ea8e8"] ;
242 -> 244 ;
245 [label="gini = 0.0\nsamples = 1\nvalue = [1, 0]", fillcolor="#e58139"] ;
244 -> 245 ;
246 [label="shucked_weight <= 0.311\ngini = 0.158\nsamples = 81\nvalue = [7, 74]", fillcolor="#4ca6e7"] ;
244 -> 246 ;
247 [label="length <= 0.463\ngini = 0.104\nsamples = 73\nvalue = [4, 69]", fillcolor="#44a3e7"] ;
246 -> 247 ;
248 [label="whole_weight <= 0.545\ngini = 0.5\nsamples = 2\nvalue = [1, 1]", fillcolor="#ffffff"] ;
247 -> 248 ;
249 [label="gini = 0.0\nsamples = 1\nvalue = [1, 0]", fillcolor="#e58139"] ;
248 -> 249 ;
250 [label="gini = 0.0\nsamples = 1\nvalue = [0, 1]", fillcolor="#399de5"] ;
248 -> 250 ;
251 [label="length <= 0.548\ngini = 0.081\nsamples = 71\nvalue = [3, 68]", fillcolor="#42a1e6"] ;
247 -> 251 ;
252 [label="viscera_weight <= 0.17\ngini = 0.056\nsamples = 69\nvalue = [2, 67]", fillcolor="#3fa0e6"] ;
251 -> 252 ;
253 [label="gini = 0.0\nsamples = 58\nvalue = [0, 58]", fillcolor="#399de5"] ;
252 -> 253 ;
254 [label="length <= 0.502\ngini = 0.298\nsamples = 11\nvalue = [2, 9]", fillcolor="#65b3eb"] ;
252 -> 254 ;
255 [label="whole_weight <= 0.691\ngini = 0.444\nsamples = 3\nvalue = [2, 1]", fillcolor="#f2c09c"] ;
254 -> 255 ;
256 [label="gini = 0.0\nsamples = 2\nvalue = [2, 0]", fillcolor="#e58139"] ;
255 -> 256 ;
257 [label="gini = 0.0\nsamples = 1\nvalue = [0, 1]", fillcolor="#399de5"] ;
255 -> 257 ;
258 [label="gini = 0.0\nsamples = 8\nvalue = [0, 8]", fillcolor="#399de5"] ;
254 -> 258 ;
259 [label="shell_weight <= 0.197\ngini = 0.5\nsamples = 2\nvalue = [1, 1]", fillcolor="#ffffff"] ;
251 -> 259 ;
260 [label="gini = 0.0\nsamples = 1\nvalue = [0, 1]", fillcolor="#399de5"] ;
259 -> 260 ;
261 [label="gini = 0.0\nsamples = 1\nvalue = [1, 0]", fillcolor="#e58139"] ;
259 -> 261 ;
262 [label="viscera_weight <= 0.134\ngini = 0.469\nsamples = 8\nvalue = [3, 5]", fillcolor="#b0d8f5"] ;
246 -> 262 ;
263 [label="gini = 0.0\nsamples = 2\nvalue = [2, 0]", fillcolor="#e58139"] ;
262 -> 263 ;
264 [label="length <= 0.53\ngini = 0.278\nsamples = 6\nvalue = [1, 5]", fillcolor="#61b1ea"] ;
262 -> 264 ;
265 [label="gini = 0.0\nsamples = 5\nvalue = [0, 5]", fillcolor="#399de5"] ;
264 -> 265 ;
266 [label="gini = 0.0\nsamples = 1\nvalue = [1, 0]", fillcolor="#e58139"] ;
264 -> 266 ;
267 [label="viscera_weight <= 0.158\ngini = 0.498\nsamples = 17\nvalue = [8, 9]", fillcolor="#e9f4fc"] ;
241 -> 267 ;
268 [label="whole_weight <= 0.643\ngini = 0.42\nsamples = 10\nvalue = [7, 3]", fillcolor="#f0b78e"] ;
267 -> 268 ;
269 [label="shucked_weight <= 0.279\ngini = 0.375\nsamples = 4\nvalue = [1, 3]", fillcolor="#7bbeee"] ;
268 -> 269 ;
270 [label="gini = 0.0\nsamples = 3\nvalue = [0, 3]", fillcolor="#399de5"] ;
269 -> 270 ;
271 [label="gini = 0.0\nsamples = 1\nvalue = [1, 0]", fillcolor="#e58139"] ;
269 -> 271 ;
272 [label="gini = 0.0\nsamples = 6\nvalue = [6, 0]", fillcolor="#e58139"] ;
268 -> 272 ;
273 [label="length <= 0.57\ngini = 0.245\nsamples = 7\nvalue = [1, 6]", fillcolor="#5aade9"] ;
267 -> 273 ;
274 [label="gini = 0.0\nsamples = 5\nvalue = [0, 5]", fillcolor="#399de5"] ;
273 -> 274 ;
275 [label="viscera_weight <= 0.185\ngini = 0.5\nsamples = 2\nvalue = [1, 1]", fillcolor="#ffffff"] ;
273 -> 275 ;
276 [label="gini = 0.0\nsamples = 1\nvalue = [0, 1]", fillcolor="#399de5"] ;
275 -> 276 ;
277 [label="gini = 0.0\nsamples = 1\nvalue = [1, 0]", fillcolor="#e58139"] ;
275 -> 277 ;
278 [label="viscera_weight <= 0.165\ngini = 0.452\nsamples = 119\nvalue = [78, 41]", fillcolor="#f3c3a1"] ;
190 -> 278 ;
279 [label="shell_weight <= 0.155\ngini = 0.409\nsamples = 108\nvalue = [77, 31]", fillcolor="#efb489"] ;
278 -> 279 ;
280 [label="gini = 0.0\nsamples = 3\nvalue = [0, 3]", fillcolor="#399de5"] ;
279 -> 280 ;
281 [label="shell_weight <= 0.211\ngini = 0.391\nsamples = 105\nvalue = [77, 28]", fillcolor="#eeaf81"] ;
279 -> 281 ;
282 [label="diameter <= 0.368\ngini = 0.356\nsamples = 95\nvalue = [73, 22]", fillcolor="#eda775"] ;
281 -> 282 ;
283 [label="shell_weight <= 0.176\ngini = 0.5\nsamples = 16\nvalue = [8, 8]", fillcolor="#ffffff"] ;
282 -> 283 ;
284 [label="whole_weight <= 0.41\ngini = 0.444\nsamples = 12\nvalue = [4, 8]", fillcolor="#9ccef2"] ;
283 -> 284 ;
285 [label="gini = 0.0\nsamples = 2\nvalue = [2, 0]", fillcolor="#e58139"] ;
284 -> 285 ;
286 [label="height <= 0.127\ngini = 0.32\nsamples = 10\nvalue = [2, 8]", fillcolor="#6ab6ec"] ;
284 -> 286 ;
287 [label="gini = 0.0\nsamples = 7\nvalue = [0, 7]", fillcolor="#399de5"] ;
286 -> 287 ;
288 [label="length <= 0.478\ngini = 0.444\nsamples = 3\nvalue = [2, 1]", fillcolor="#f2c09c"] ;
286 -> 288 ;
289 [label="gini = 0.0\nsamples = 2\nvalue = [2, 0]", fillcolor="#e58139"] ;
288 -> 289 ;
290 [label="gini = 0.0\nsamples = 1\nvalue = [0, 1]", fillcolor="#399de5"] ;
288 -> 290 ;
291 [label="gini = 0.0\nsamples = 4\nvalue = [4, 0]", fillcolor="#e58139"] ;
283 -> 291 ;
292 [label="height <= 0.148\ngini = 0.292\nsamples = 79\nvalue = [65, 14]", fillcolor="#eb9c64"] ;
282 -> 292 ;
293 [label="shucked_weight <= 0.312\ngini = 0.236\nsamples = 73\nvalue = [63, 10]", fillcolor="#e99558"] ;
292 -> 293 ;
294 [label="shucked_weight <= 0.211\ngini = 0.2\nsamples = 71\nvalue = [63, 8]", fillcolor="#e89152"] ;
293 -> 294 ;
295 [label="whole_weight <= 0.522\ngini = 0.486\nsamples = 12\nvalue = [7, 5]", fillcolor="#f8dbc6"] ;
294 -> 295 ;
296 [label="viscera_weight <= 0.083\ngini = 0.346\nsamples = 9\nvalue = [7, 2]", fillcolor="#eca572"] ;
295 -> 296 ;
297 [label="gini = 0.0\nsamples = 1\nvalue = [0, 1]", fillcolor="#399de5"] ;
296 -> 297 ;
298 [label="shucked_weight <= 0.207\ngini = 0.219\nsamples = 8\nvalue = [7, 1]", fillcolor="#e99355"] ;
296 -> 298 ;
299 [label="gini = 0.0\nsamples = 7\nvalue = [7, 0]", fillcolor="#e58139"] ;
298 -> 299 ;
300 [label="gini = 0.0\nsamples = 1\nvalue = [0, 1]", fillcolor="#399de5"] ;
298 -> 300 ;
301 [label="gini = 0.0\nsamples = 3\nvalue = [0, 3]", fillcolor="#399de5"] ;
295 -> 301 ;
302 [label="viscera_weight <= 0.15\ngini = 0.097\nsamples = 59\nvalue = [56, 3]", fillcolor="#e68844"] ;
294 -> 302 ;
303 [label="gini = 0.0\nsamples = 49\nvalue = [49, 0]", fillcolor="#e58139"] ;
302 -> 303 ;
304 [label="viscera_weight <= 0.152\ngini = 0.42\nsamples = 10\nvalue = [7, 3]", fillcolor="#f0b78e"] ;
302 -> 304 ;
305 [label="gini = 0.0\nsamples = 2\nvalue = [0, 2]", fillcolor="#399de5"] ;
304 -> 305 ;
306 [label="length <= 0.522\ngini = 0.219\nsamples = 8\nvalue = [7, 1]", fillcolor="#e99355"] ;
304 -> 306 ;
307 [label="whole_weight <= 0.662\ngini = 0.444\nsamples = 3\nvalue = [2, 1]", fillcolor="#f2c09c"] ;
306 -> 307 ;
308 [label="gini = 0.0\nsamples = 2\nvalue = [2, 0]", fillcolor="#e58139"] ;
307 -> 308 ;
309 [label="gini = 0.0\nsamples = 1\nvalue = [0, 1]", fillcolor="#399de5"] ;
307 -> 309 ;
310 [label="gini = 0.0\nsamples = 5\nvalue = [5, 0]", fillcolor="#e58139"] ;
306 -> 310 ;
311 [label="gini = 0.0\nsamples = 2\nvalue = [0, 2]", fillcolor="#399de5"] ;
293 -> 311 ;
312 [label="shell_weight <= 0.176\ngini = 0.444\nsamples = 6\nvalue = [2, 4]", fillcolor="#9ccef2"] ;
292 -> 312 ;
313 [label="gini = 0.0\nsamples = 2\nvalue = [2, 0]", fillcolor="#e58139"] ;
312 -> 313 ;
314 [label="gini = 0.0\nsamples = 4\nvalue = [0, 4]", fillcolor="#399de5"] ;
312 -> 314 ;
315 [label="viscera_weight <= 0.097\ngini = 0.48\nsamples = 10\nvalue = [4, 6]", fillcolor="#bddef6"] ;
281 -> 315 ;
316 [label="gini = 0.0\nsamples = 2\nvalue = [2, 0]", fillcolor="#e58139"] ;
315 -> 316 ;
317 [label="length <= 0.535\ngini = 0.375\nsamples = 8\nvalue = [2, 6]", fillcolor="#7bbeee"] ;
315 -> 317 ;
318 [label="gini = 0.0\nsamples = 5\nvalue = [0, 5]", fillcolor="#399de5"] ;
317 -> 318 ;
319 [label="whole_weight <= 0.685\ngini = 0.444\nsamples = 3\nvalue = [2, 1]", fillcolor="#f2c09c"] ;
317 -> 319 ;
320 [label="gini = 0.0\nsamples = 2\nvalue = [2, 0]", fillcolor="#e58139"] ;
319 -> 320 ;
321 [label="gini = 0.0\nsamples = 1\nvalue = [0, 1]", fillcolor="#399de5"] ;
319 -> 321 ;
322 [label="height <= 0.153\ngini = 0.165\nsamples = 11\nvalue = [1, 10]", fillcolor="#4da7e8"] ;
278 -> 322 ;
323 [label="gini = 0.0\nsamples = 9\nvalue = [0, 9]", fillcolor="#399de5"] ;
322 -> 323 ;
324 [label="shucked_weight <= 0.295\ngini = 0.5\nsamples = 2\nvalue = [1, 1]", fillcolor="#ffffff"] ;
322 -> 324 ;
325 [label="gini = 0.0\nsamples = 1\nvalue = [0, 1]", fillcolor="#399de5"] ;
324 -> 325 ;
326 [label="gini = 0.0\nsamples = 1\nvalue = [1, 0]", fillcolor="#e58139"] ;
324 -> 326 ;
327 [label="shell_weight <= 0.236\ngini = 0.384\nsamples = 251\nvalue = [186, 65]", fillcolor="#eead7e"] ;
189 -> 327 ;
328 [label="diameter <= 0.463\ngini = 0.321\nsamples = 184\nvalue = [147, 37]", fillcolor="#eca16b"] ;
327 -> 328 ;
329 [label="shucked_weight <= 0.451\ngini = 0.293\nsamples = 174\nvalue = [143, 31]", fillcolor="#eb9c64"] ;
328 -> 329 ;
330 [label="shucked_weight <= 0.44\ngini = 0.328\nsamples = 150\nvalue = [119, 31]", fillcolor="#eca26d"] ;
329 -> 330 ;
331 [label="shucked_weight <= 0.334\ngini = 0.303\nsamples = 145\nvalue = [118, 27]", fillcolor="#eb9e66"] ;
330 -> 331 ;
332 [label="diameter <= 0.41\ngini = 0.444\nsamples = 30\nvalue = [20, 10]", fillcolor="#f2c09c"] ;
331 -> 332 ;
333 [label="viscera_weight <= 0.156\ngini = 0.231\nsamples = 15\nvalue = [13, 2]", fillcolor="#e99457"] ;
332 -> 333 ;
334 [label="gini = 0.0\nsamples = 10\nvalue = [10, 0]", fillcolor="#e58139"] ;
333 -> 334 ;
335 [label="viscera_weight <= 0.167\ngini = 0.48\nsamples = 5\nvalue = [3, 2]", fillcolor="#f6d5bd"] ;
333 -> 335 ;
336 [label="gini = 0.0\nsamples = 2\nvalue = [0, 2]", fillcolor="#399de5"] ;
335 -> 336 ;
337 [label="gini = 0.0\nsamples = 3\nvalue = [3, 0]", fillcolor="#e58139"] ;
335 -> 337 ;
338 [label="length <= 0.572\ngini = 0.498\nsamples = 15\nvalue = [7, 8]", fillcolor="#e6f3fc"] ;
332 -> 338 ;
339 [label="viscera_weight <= 0.183\ngini = 0.444\nsamples = 12\nvalue = [4, 8]", fillcolor="#9ccef2"] ;
338 -> 339 ;
340 [label="shucked_weight <= 0.321\ngini = 0.219\nsamples = 8\nvalue = [1, 7]", fillcolor="#55abe9"] ;
339 -> 340 ;
341 [label="gini = 0.0\nsamples = 1\nvalue = [1, 0]", fillcolor="#e58139"] ;
340 -> 341 ;
342 [label="gini = 0.0\nsamples = 7\nvalue = [0, 7]", fillcolor="#399de5"] ;
340 -> 342 ;
343 [label="length <= 0.542\ngini = 0.375\nsamples = 4\nvalue = [3, 1]", fillcolor="#eeab7b"] ;
339 -> 343 ;
344 [label="gini = 0.0\nsamples = 3\nvalue = [3, 0]", fillcolor="#e58139"] ;
343 -> 344 ;
345 [label="gini = 0.0\nsamples = 1\nvalue = [0, 1]", fillcolor="#399de5"] ;
343 -> 345 ;
346 [label="gini = 0.0\nsamples = 3\nvalue = [3, 0]", fillcolor="#e58139"] ;
338 -> 346 ;
347 [label="whole_weight <= 0.931\ngini = 0.252\nsamples = 115\nvalue = [98, 17]", fillcolor="#ea975b"] ;
331 -> 347 ;
348 [label="shell_weight <= 0.181\ngini = 0.241\nsamples = 114\nvalue = [98, 16]", fillcolor="#e99659"] ;
347 -> 348 ;
349 [label="gini = 0.0\nsamples = 18\nvalue = [18, 0]", fillcolor="#e58139"] ;
348 -> 349 ;
350 [label="diameter <= 0.428\ngini = 0.278\nsamples = 96\nvalue = [80, 16]", fillcolor="#ea9a61"] ;
348 -> 350 ;
351 [label="height <= 0.133\ngini = 0.393\nsamples = 41\nvalue = [30, 11]", fillcolor="#efaf82"] ;
350 -> 351 ;
352 [label="gini = 0.0\nsamples = 12\nvalue = [12, 0]", fillcolor="#e58139"] ;
351 -> 352 ;
353 [label="shucked_weight <= 0.389\ngini = 0.471\nsamples = 29\nvalue = [18, 11]", fillcolor="#f5ceb2"] ;
351 -> 353 ;
354 [label="whole_weight <= 0.799\ngini = 0.499\nsamples = 19\nvalue = [9, 10]", fillcolor="#ebf5fc"] ;
353 -> 354 ;
355 [label="length <= 0.543\ngini = 0.48\nsamples = 15\nvalue = [9, 6]", fillcolor="#f6d5bd"] ;
354 -> 355 ;
356 [label="whole_weight <= 0.71\ngini = 0.496\nsamples = 11\nvalue = [5, 6]", fillcolor="#deeffb"] ;
355 -> 356 ;
357 [label="viscera_weight <= 0.131\ngini = 0.32\nsamples = 5\nvalue = [4, 1]", fillcolor="#eca06a"] ;
356 -> 357 ;
358 [label="gini = 0.0\nsamples = 1\nvalue = [0, 1]", fillcolor="#399de5"] ;
357 -> 358 ;
359 [label="gini = 0.0\nsamples = 4\nvalue = [4, 0]", fillcolor="#e58139"] ;
357 -> 359 ;
360 [label="viscera_weight <= 0.182\ngini = 0.278\nsamples = 6\nvalue = [1, 5]", fillcolor="#61b1ea"] ;
356 -> 360 ;
361 [label="gini = 0.0\nsamples = 5\nvalue = [0, 5]", fillcolor="#399de5"] ;
360 -> 361 ;
362 [label="gini = 0.0\nsamples = 1\nvalue = [1, 0]", fillcolor="#e58139"] ;
360 -> 362 ;
363 [label="gini = 0.0\nsamples = 4\nvalue = [4, 0]", fillcolor="#e58139"] ;
355 -> 363 ;
364 [label="gini = 0.0\nsamples = 4\nvalue = [0, 4]", fillcolor="#399de5"] ;
354 -> 364 ;
365 [label="diameter <= 0.422\ngini = 0.18\nsamples = 10\nvalue = [9, 1]", fillcolor="#e88f4f"] ;
353 -> 365 ;
366 [label="gini = 0.0\nsamples = 9\nvalue = [9, 0]", fillcolor="#e58139"] ;
365 -> 366 ;
367 [label="gini = 0.0\nsamples = 1\nvalue = [0, 1]", fillcolor="#399de5"] ;
365 -> 367 ;
368 [label="length <= 0.562\ngini = 0.165\nsamples = 55\nvalue = [50, 5]", fillcolor="#e88e4d"] ;
350 -> 368 ;
369 [label="gini = 0.0\nsamples = 29\nvalue = [29, 0]", fillcolor="#e58139"] ;
368 -> 369 ;
370 [label="shell_weight <= 0.219\ngini = 0.311\nsamples = 26\nvalue = [21, 5]", fillcolor="#eb9f68"] ;
368 -> 370 ;
371 [label="viscera_weight <= 0.183\ngini = 0.444\nsamples = 6\nvalue = [2, 4]", fillcolor="#9ccef2"] ;
370 -> 371 ;
372 [label="gini = 0.0\nsamples = 4\nvalue = [0, 4]", fillcolor="#399de5"] ;
371 -> 372 ;
373 [label="gini = 0.0\nsamples = 2\nvalue = [2, 0]", fillcolor="#e58139"] ;
371 -> 373 ;
374 [label="shucked_weight <= 0.43\ngini = 0.095\nsamples = 20\nvalue = [19, 1]", fillcolor="#e68843"] ;
370 -> 374 ;
375 [label="gini = 0.0\nsamples = 18\nvalue = [18, 0]", fillcolor="#e58139"] ;
374 -> 375 ;
376 [label="diameter <= 0.443\ngini = 0.5\nsamples = 2\nvalue = [1, 1]", fillcolor="#ffffff"] ;
374 -> 376 ;
377 [label="gini = 0.0\nsamples = 1\nvalue = [1, 0]", fillcolor="#e58139"] ;
376 -> 377 ;
378 [label="gini = 0.0\nsamples = 1\nvalue = [0, 1]", fillcolor="#399de5"] ;
376 -> 378 ;
379 [label="gini = 0.0\nsamples = 1\nvalue = [0, 1]", fillcolor="#399de5"] ;
347 -> 379 ;
380 [label="viscera_weight <= 0.194\ngini = 0.32\nsamples = 5\nvalue = [1, 4]", fillcolor="#6ab6ec"] ;
330 -> 380 ;
381 [label="gini = 0.0\nsamples = 4\nvalue = [0, 4]", fillcolor="#399de5"] ;
380 -> 381 ;
382 [label="gini = 0.0\nsamples = 1\nvalue = [1, 0]", fillcolor="#e58139"] ;
380 -> 382 ;
383 [label="gini = 0.0\nsamples = 24\nvalue = [24, 0]", fillcolor="#e58139"] ;
329 -> 383 ;
384 [label="shell_weight <= 0.222\ngini = 0.48\nsamples = 10\nvalue = [4, 6]", fillcolor="#bddef6"] ;
328 -> 384 ;
385 [label="gender_F <= 0.5\ngini = 0.375\nsamples = 4\nvalue = [3, 1]", fillcolor="#eeab7b"] ;
384 -> 385 ;
386 [label="gini = 0.0\nsamples = 3\nvalue = [3, 0]", fillcolor="#e58139"] ;
385 -> 386 ;
387 [label="gini = 0.0\nsamples = 1\nvalue = [0, 1]", fillcolor="#399de5"] ;
385 -> 387 ;
388 [label="shell_weight <= 0.234\ngini = 0.278\nsamples = 6\nvalue = [1, 5]", fillcolor="#61b1ea"] ;
384 -> 388 ;
389 [label="gini = 0.0\nsamples = 5\nvalue = [0, 5]", fillcolor="#399de5"] ;
388 -> 389 ;
390 [label="gini = 0.0\nsamples = 1\nvalue = [1, 0]", fillcolor="#e58139"] ;
388 -> 390 ;
391 [label="shucked_weight <= 0.447\ngini = 0.487\nsamples = 67\nvalue = [39, 28]", fillcolor="#f8dbc7"] ;
327 -> 391 ;
392 [label="length <= 0.577\ngini = 0.497\nsamples = 52\nvalue = [24, 28]", fillcolor="#e3f1fb"] ;
391 -> 392 ;
393 [label="whole_weight <= 0.796\ngini = 0.464\nsamples = 41\nvalue = [15, 26]", fillcolor="#abd6f4"] ;
392 -> 393 ;
394 [label="height <= 0.138\ngini = 0.473\nsamples = 13\nvalue = [8, 5]", fillcolor="#f5d0b5"] ;
393 -> 394 ;
395 [label="gini = 0.0\nsamples = 5\nvalue = [5, 0]", fillcolor="#e58139"] ;
394 -> 395 ;
396 [label="diameter <= 0.428\ngini = 0.469\nsamples = 8\nvalue = [3, 5]", fillcolor="#b0d8f5"] ;
394 -> 396 ;
397 [label="gini = 0.0\nsamples = 4\nvalue = [0, 4]", fillcolor="#399de5"] ;
396 -> 397 ;
398 [label="length <= 0.572\ngini = 0.375\nsamples = 4\nvalue = [3, 1]", fillcolor="#eeab7b"] ;
396 -> 398 ;
399 [label="gini = 0.0\nsamples = 3\nvalue = [3, 0]", fillcolor="#e58139"] ;
398 -> 399 ;
400 [label="gini = 0.0\nsamples = 1\nvalue = [0, 1]", fillcolor="#399de5"] ;
398 -> 400 ;
401 [label="length <= 0.543\ngini = 0.375\nsamples = 28\nvalue = [7, 21]", fillcolor="#7bbeee"] ;
393 -> 401 ;
402 [label="viscera_weight <= 0.199\ngini = 0.444\nsamples = 6\nvalue = [4, 2]", fillcolor="#f2c09c"] ;
401 -> 402 ;
403 [label="height <= 0.16\ngini = 0.444\nsamples = 3\nvalue = [1, 2]", fillcolor="#9ccef2"] ;
402 -> 403 ;
404 [label="gini = 0.0\nsamples = 2\nvalue = [0, 2]", fillcolor="#399de5"] ;
403 -> 404 ;
405 [label="gini = 0.0\nsamples = 1\nvalue = [1, 0]", fillcolor="#e58139"] ;
403 -> 405 ;
406 [label="gini = 0.0\nsamples = 3\nvalue = [3, 0]", fillcolor="#e58139"] ;
402 -> 406 ;
407 [label="whole_weight <= 0.892\ngini = 0.236\nsamples = 22\nvalue = [3, 19]", fillcolor="#58ace9"] ;
401 -> 407 ;
408 [label="gini = 0.0\nsamples = 16\nvalue = [0, 16]", fillcolor="#399de5"] ;
407 -> 408 ;
409 [label="shucked_weight <= 0.422\ngini = 0.5\nsamples = 6\nvalue = [3, 3]", fillcolor="#ffffff"] ;
407 -> 409 ;
410 [label="gini = 0.0\nsamples = 3\nvalue = [3, 0]", fillcolor="#e58139"] ;
409 -> 410 ;
411 [label="gini = 0.0\nsamples = 3\nvalue = [0, 3]", fillcolor="#399de5"] ;
409 -> 411 ;
412 [label="diameter <= 0.435\ngini = 0.298\nsamples = 11\nvalue = [9, 2]", fillcolor="#eb9d65"] ;
392 -> 412 ;
413 [label="gini = 0.0\nsamples = 1\nvalue = [0, 1]", fillcolor="#399de5"] ;
412 -> 413 ;
414 [label="shucked_weight <= 0.348\ngini = 0.18\nsamples = 10\nvalue = [9, 1]", fillcolor="#e88f4f"] ;
412 -> 414 ;
415 [label="shucked_weight <= 0.338\ngini = 0.444\nsamples = 3\nvalue = [2, 1]", fillcolor="#f2c09c"] ;
414 -> 415 ;
416 [label="gini = 0.0\nsamples = 2\nvalue = [2, 0]", fillcolor="#e58139"] ;
415 -> 416 ;
417 [label="gini = 0.0\nsamples = 1\nvalue = [0, 1]", fillcolor="#399de5"] ;
415 -> 417 ;
418 [label="gini = 0.0\nsamples = 7\nvalue = [7, 0]", fillcolor="#e58139"] ;
414 -> 418 ;
419 [label="gini = 0.0\nsamples = 15\nvalue = [15, 0]", fillcolor="#e58139"] ;
391 -> 419 ;
420 [label="shell_weight <= 0.321\ngini = 0.335\nsamples = 1159\nvalue = [247, 912]", fillcolor="#6fb8ec"] ;
0 -> 420 [labeldistance=2.5, labelangle=-45, headlabel="False"] ;
421 [label="shucked_weight <= 0.349\ngini = 0.445\nsamples = 505\nvalue = [169, 336]", fillcolor="#9dcef2"] ;
420 -> 421 ;
422 [label="gender_I <= 0.5\ngini = 0.205\nsamples = 112\nvalue = [13, 99]", fillcolor="#53aae8"] ;
421 -> 422 ;
423 [label="viscera_weight <= 0.092\ngini = 0.139\nsamples = 93\nvalue = [7, 86]", fillcolor="#49a5e7"] ;
422 -> 423 ;
424 [label="gini = 0.0\nsamples = 1\nvalue = [1, 0]", fillcolor="#e58139"] ;
423 -> 424 ;
425 [label="length <= 0.603\ngini = 0.122\nsamples = 92\nvalue = [6, 86]", fillcolor="#47a4e7"] ;
423 -> 425 ;
426 [label="viscera_weight <= 0.172\ngini = 0.104\nsamples = 91\nvalue = [5, 86]", fillcolor="#45a3e7"] ;
425 -> 426 ;
427 [label="viscera_weight <= 0.171\ngini = 0.169\nsamples = 43\nvalue = [4, 39]", fillcolor="#4da7e8"] ;
426 -> 427 ;
428 [label="shell_weight <= 0.251\ngini = 0.095\nsamples = 40\nvalue = [2, 38]", fillcolor="#43a2e6"] ;
427 -> 428 ;
429 [label="height <= 0.16\ngini = 0.444\nsamples = 3\nvalue = [1, 2]", fillcolor="#9ccef2"] ;
428 -> 429 ;
430 [label="gini = 0.0\nsamples = 2\nvalue = [0, 2]", fillcolor="#399de5"] ;
429 -> 430 ;
431 [label="gini = 0.0\nsamples = 1\nvalue = [1, 0]", fillcolor="#e58139"] ;
429 -> 431 ;
432 [label="shucked_weight <= 0.296\ngini = 0.053\nsamples = 37\nvalue = [1, 36]", fillcolor="#3ea0e6"] ;
428 -> 432 ;
433 [label="gini = 0.0\nsamples = 25\nvalue = [0, 25]", fillcolor="#399de5"] ;
432 -> 433 ;
434 [label="shucked_weight <= 0.302\ngini = 0.153\nsamples = 12\nvalue = [1, 11]", fillcolor="#4ba6e7"] ;
432 -> 434 ;
435 [label="height <= 0.15\ngini = 0.5\nsamples = 2\nvalue = [1, 1]", fillcolor="#ffffff"] ;
434 -> 435 ;
436 [label="gini = 0.0\nsamples = 1\nvalue = [1, 0]", fillcolor="#e58139"] ;
435 -> 436 ;
437 [label="gini = 0.0\nsamples = 1\nvalue = [0, 1]", fillcolor="#399de5"] ;
435 -> 437 ;
438 [label="gini = 0.0\nsamples = 10\nvalue = [0, 10]", fillcolor="#399de5"] ;
434 -> 438 ;
439 [label="length <= 0.527\ngini = 0.444\nsamples = 3\nvalue = [2, 1]", fillcolor="#f2c09c"] ;
427 -> 439 ;
440 [label="gini = 0.0\nsamples = 1\nvalue = [0, 1]", fillcolor="#399de5"] ;
439 -> 440 ;
441 [label="gini = 0.0\nsamples = 2\nvalue = [2, 0]", fillcolor="#e58139"] ;
439 -> 441 ;
442 [label="diameter <= 0.463\ngini = 0.041\nsamples = 48\nvalue = [1, 47]", fillcolor="#3d9fe6"] ;
426 -> 442 ;
443 [label="gini = 0.0\nsamples = 43\nvalue = [0, 43]", fillcolor="#399de5"] ;
442 -> 443 ;
444 [label="length <= 0.565\ngini = 0.32\nsamples = 5\nvalue = [1, 4]", fillcolor="#6ab6ec"] ;
442 -> 444 ;
445 [label="gini = 0.0\nsamples = 1\nvalue = [1, 0]", fillcolor="#e58139"] ;
444 -> 445 ;
446 [label="gini = 0.0\nsamples = 4\nvalue = [0, 4]", fillcolor="#399de5"] ;
444 -> 446 ;
447 [label="gini = 0.0\nsamples = 1\nvalue = [1, 0]", fillcolor="#e58139"] ;
425 -> 447 ;
448 [label="length <= 0.548\ngini = 0.432\nsamples = 19\nvalue = [6, 13]", fillcolor="#94caf1"] ;
422 -> 448 ;
449 [label="height <= 0.142\ngini = 0.49\nsamples = 7\nvalue = [4, 3]", fillcolor="#f8e0ce"] ;
448 -> 449 ;
450 [label="gini = 0.0\nsamples = 3\nvalue = [3, 0]", fillcolor="#e58139"] ;
449 -> 450 ;
451 [label="shucked_weight <= 0.307\ngini = 0.375\nsamples = 4\nvalue = [1, 3]", fillcolor="#7bbeee"] ;
449 -> 451 ;
452 [label="gini = 0.0\nsamples = 3\nvalue = [0, 3]", fillcolor="#399de5"] ;
451 -> 452 ;
453 [label="gini = 0.0\nsamples = 1\nvalue = [1, 0]", fillcolor="#e58139"] ;
451 -> 453 ;
454 [label="shucked_weight <= 0.342\ngini = 0.278\nsamples = 12\nvalue = [2, 10]", fillcolor="#61b1ea"] ;
448 -> 454 ;
455 [label="whole_weight <= 0.773\ngini = 0.165\nsamples = 11\nvalue = [1, 10]", fillcolor="#4da7e8"] ;
454 -> 455 ;
456 [label="shell_weight <= 0.258\ngini = 0.5\nsamples = 2\nvalue = [1, 1]", fillcolor="#ffffff"] ;
455 -> 456 ;
457 [label="gini = 0.0\nsamples = 1\nvalue = [0, 1]", fillcolor="#399de5"] ;
456 -> 457 ;
458 [label="gini = 0.0\nsamples = 1\nvalue = [1, 0]", fillcolor="#e58139"] ;
456 -> 458 ;
459 [label="gini = 0.0\nsamples = 9\nvalue = [0, 9]", fillcolor="#399de5"] ;
455 -> 459 ;
460 [label="gini = 0.0\nsamples = 1\nvalue = [1, 0]", fillcolor="#e58139"] ;
454 -> 460 ;
461 [label="shucked_weight <= 0.444\ngini = 0.479\nsamples = 393\nvalue = [156, 237]", fillcolor="#bbdef6"] ;
421 -> 461 ;
462 [label="whole_weight <= 0.959\ngini = 0.43\nsamples = 150\nvalue = [47, 103]", fillcolor="#93caf1"] ;
461 -> 462 ;
463 [label="shucked_weight <= 0.353\ngini = 0.489\nsamples = 94\nvalue = [40, 54]", fillcolor="#cce6f8"] ;
462 -> 463 ;
464 [label="gini = 0.0\nsamples = 4\nvalue = [4, 0]", fillcolor="#e58139"] ;
463 -> 464 ;
465 [label="shucked_weight <= 0.357\ngini = 0.48\nsamples = 90\nvalue = [36, 54]", fillcolor="#bddef6"] ;
463 -> 465 ;
466 [label="gini = 0.0\nsamples = 6\nvalue = [0, 6]", fillcolor="#399de5"] ;
465 -> 466 ;
467 [label="whole_weight <= 0.891\ngini = 0.49\nsamples = 84\nvalue = [36, 48]", fillcolor="#cee6f8"] ;
465 -> 467 ;
468 [label="whole_weight <= 0.871\ngini = 0.42\nsamples = 30\nvalue = [9, 21]", fillcolor="#8ec7f0"] ;
467 -> 468 ;
469 [label="viscera_weight <= 0.191\ngini = 0.5\nsamples = 16\nvalue = [8, 8]", fillcolor="#ffffff"] ;
468 -> 469 ;
470 [label="whole_weight <= 0.838\ngini = 0.473\nsamples = 13\nvalue = [8, 5]", fillcolor="#f5d0b5"] ;
469 -> 470 ;
471 [label="gender_F <= 0.5\ngini = 0.375\nsamples = 4\nvalue = [1, 3]", fillcolor="#7bbeee"] ;
470 -> 471 ;
472 [label="gini = 0.0\nsamples = 3\nvalue = [0, 3]", fillcolor="#399de5"] ;
471 -> 472 ;
473 [label="gini = 0.0\nsamples = 1\nvalue = [1, 0]", fillcolor="#e58139"] ;
471 -> 473 ;
474 [label="height <= 0.138\ngini = 0.346\nsamples = 9\nvalue = [7, 2]", fillcolor="#eca572"] ;
470 -> 474 ;
475 [label="shucked_weight <= 0.378\ngini = 0.444\nsamples = 3\nvalue = [1, 2]", fillcolor="#9ccef2"] ;
474 -> 475 ;
476 [label="gini = 0.0\nsamples = 2\nvalue = [0, 2]", fillcolor="#399de5"] ;
475 -> 476 ;
477 [label="gini = 0.0\nsamples = 1\nvalue = [1, 0]", fillcolor="#e58139"] ;
475 -> 477 ;
478 [label="gini = 0.0\nsamples = 6\nvalue = [6, 0]", fillcolor="#e58139"] ;
474 -> 478 ;
479 [label="gini = 0.0\nsamples = 3\nvalue = [0, 3]", fillcolor="#399de5"] ;
469 -> 479 ;
480 [label="shucked_weight <= 0.361\ngini = 0.133\nsamples = 14\nvalue = [1, 13]", fillcolor="#48a5e7"] ;
468 -> 480 ;
481 [label="shell_weight <= 0.265\ngini = 0.5\nsamples = 2\nvalue = [1, 1]", fillcolor="#ffffff"] ;
480 -> 481 ;
482 [label="gini = 0.0\nsamples = 1\nvalue = [1, 0]", fillcolor="#e58139"] ;
481 -> 482 ;
483 [label="gini = 0.0\nsamples = 1\nvalue = [0, 1]", fillcolor="#399de5"] ;
481 -> 483 ;
484 [label="gini = 0.0\nsamples = 12\nvalue = [0, 12]", fillcolor="#399de5"] ;
480 -> 484 ;
485 [label="whole_weight <= 0.899\ngini = 0.5\nsamples = 54\nvalue = [27, 27]", fillcolor="#ffffff"] ;
467 -> 485 ;
486 [label="gini = 0.0\nsamples = 6\nvalue = [6, 0]", fillcolor="#e58139"] ;
485 -> 486 ;
487 [label="viscera_weight <= 0.194\ngini = 0.492\nsamples = 48\nvalue = [21, 27]", fillcolor="#d3e9f9"] ;
485 -> 487 ;
488 [label="shucked_weight <= 0.399\ngini = 0.363\nsamples = 21\nvalue = [5, 16]", fillcolor="#77bced"] ;
487 -> 488 ;
489 [label="gini = 0.0\nsamples = 9\nvalue = [0, 9]", fillcolor="#399de5"] ;
488 -> 489 ;
490 [label="diameter <= 0.463\ngini = 0.486\nsamples = 12\nvalue = [5, 7]", fillcolor="#c6e3f8"] ;
488 -> 490 ;
491 [label="length <= 0.558\ngini = 0.245\nsamples = 7\nvalue = [1, 6]", fillcolor="#5aade9"] ;
490 -> 491 ;
492 [label="gini = 0.0\nsamples = 1\nvalue = [1, 0]", fillcolor="#e58139"] ;
491 -> 492 ;
493 [label="gini = 0.0\nsamples = 6\nvalue = [0, 6]", fillcolor="#399de5"] ;
491 -> 493 ;
494 [label="viscera_weight <= 0.183\ngini = 0.32\nsamples = 5\nvalue = [4, 1]", fillcolor="#eca06a"] ;
490 -> 494 ;
495 [label="gini = 0.0\nsamples = 3\nvalue = [3, 0]", fillcolor="#e58139"] ;
494 -> 495 ;
496 [label="height <= 0.13\ngini = 0.5\nsamples = 2\nvalue = [1, 1]", fillcolor="#ffffff"] ;
494 -> 496 ;
497 [label="gini = 0.0\nsamples = 1\nvalue = [1, 0]", fillcolor="#e58139"] ;
496 -> 497 ;
498 [label="gini = 0.0\nsamples = 1\nvalue = [0, 1]", fillcolor="#399de5"] ;
496 -> 498 ;
499 [label="viscera_weight <= 0.213\ngini = 0.483\nsamples = 27\nvalue = [16, 11]", fillcolor="#f7d8c1"] ;
487 -> 499 ;
500 [label="gender_I <= 0.5\ngini = 0.198\nsamples = 9\nvalue = [8, 1]", fillcolor="#e89152"] ;
499 -> 500 ;
501 [label="gini = 0.0\nsamples = 8\nvalue = [8, 0]", fillcolor="#e58139"] ;
500 -> 501 ;
502 [label="gini = 0.0\nsamples = 1\nvalue = [0, 1]", fillcolor="#399de5"] ;
500 -> 502 ;
503 [label="length <= 0.603\ngini = 0.494\nsamples = 18\nvalue = [8, 10]", fillcolor="#d7ebfa"] ;
499 -> 503 ;
504 [label="viscera_weight <= 0.215\ngini = 0.49\nsamples = 14\nvalue = [8, 6]", fillcolor="#f8e0ce"] ;
503 -> 504 ;
505 [label="gini = 0.0\nsamples = 3\nvalue = [0, 3]", fillcolor="#399de5"] ;
504 -> 505 ;
506 [label="viscera_weight <= 0.239\ngini = 0.397\nsamples = 11\nvalue = [8, 3]", fillcolor="#efb083"] ;
504 -> 506 ;
507 [label="gini = 0.0\nsamples = 7\nvalue = [7, 0]", fillcolor="#e58139"] ;
506 -> 507 ;
508 [label="gender_F <= 0.5\ngini = 0.375\nsamples = 4\nvalue = [1, 3]", fillcolor="#7bbeee"] ;
506 -> 508 ;
509 [label="gini = 0.0\nsamples = 3\nvalue = [0, 3]", fillcolor="#399de5"] ;
508 -> 509 ;
510 [label="gini = 0.0\nsamples = 1\nvalue = [1, 0]", fillcolor="#e58139"] ;
508 -> 510 ;
511 [label="gini = 0.0\nsamples = 4\nvalue = [0, 4]", fillcolor="#399de5"] ;
503 -> 511 ;
512 [label="length <= 0.502\ngini = 0.219\nsamples = 56\nvalue = [7, 49]", fillcolor="#55abe9"] ;
462 -> 512 ;
513 [label="gini = 0.0\nsamples = 1\nvalue = [1, 0]", fillcolor="#e58139"] ;
512 -> 513 ;
514 [label="length <= 0.623\ngini = 0.194\nsamples = 55\nvalue = [6, 49]", fillcolor="#51a9e8"] ;
512 -> 514 ;
515 [label="viscera_weight <= 0.225\ngini = 0.145\nsamples = 51\nvalue = [4, 47]", fillcolor="#4aa5e7"] ;
514 -> 515 ;
516 [label="viscera_weight <= 0.223\ngini = 0.287\nsamples = 23\nvalue = [4, 19]", fillcolor="#63b2ea"] ;
515 -> 516 ;
517 [label="length <= 0.587\ngini = 0.236\nsamples = 22\nvalue = [3, 19]", fillcolor="#58ace9"] ;
516 -> 517 ;
518 [label="gini = 0.0\nsamples = 11\nvalue = [0, 11]", fillcolor="#399de5"] ;
517 -> 518 ;
519 [label="diameter <= 0.468\ngini = 0.397\nsamples = 11\nvalue = [3, 8]", fillcolor="#83c2ef"] ;
517 -> 519 ;
520 [label="shucked_weight <= 0.438\ngini = 0.375\nsamples = 4\nvalue = [3, 1]", fillcolor="#eeab7b"] ;
519 -> 520 ;
521 [label="gini = 0.0\nsamples = 3\nvalue = [3, 0]", fillcolor="#e58139"] ;
520 -> 521 ;
522 [label="gini = 0.0\nsamples = 1\nvalue = [0, 1]", fillcolor="#399de5"] ;
520 -> 522 ;
523 [label="gini = 0.0\nsamples = 7\nvalue = [0, 7]", fillcolor="#399de5"] ;
519 -> 523 ;
524 [label="gini = 0.0\nsamples = 1\nvalue = [1, 0]", fillcolor="#e58139"] ;
516 -> 524 ;
525 [label="gini = 0.0\nsamples = 28\nvalue = [0, 28]", fillcolor="#399de5"] ;
515 -> 525 ;
526 [label="shucked_weight <= 0.428\ngini = 0.5\nsamples = 4\nvalue = [2, 2]", fillcolor="#ffffff"] ;
514 -> 526 ;
527 [label="gini = 0.0\nsamples = 2\nvalue = [0, 2]", fillcolor="#399de5"] ;
526 -> 527 ;
528 [label="gini = 0.0\nsamples = 2\nvalue = [2, 0]", fillcolor="#e58139"] ;
526 -> 528 ;
529 [label="gender_I <= 0.5\ngini = 0.495\nsamples = 243\nvalue = [109, 134]", fillcolor="#daedfa"] ;
461 -> 529 ;
530 [label="shucked_weight <= 0.457\ngini = 0.499\nsamples = 227\nvalue = [108, 119]", fillcolor="#edf6fd"] ;
529 -> 530 ;
531 [label="viscera_weight <= 0.194\ngini = 0.397\nsamples = 22\nvalue = [16, 6]", fillcolor="#efb083"] ;
530 -> 531 ;
532 [label="shucked_weight <= 0.454\ngini = 0.444\nsamples = 6\nvalue = [2, 4]", fillcolor="#9ccef2"] ;
531 -> 532 ;
533 [label="gini = 0.0\nsamples = 4\nvalue = [0, 4]", fillcolor="#399de5"] ;
532 -> 533 ;
534 [label="gini = 0.0\nsamples = 2\nvalue = [2, 0]", fillcolor="#e58139"] ;
532 -> 534 ;
535 [label="viscera_weight <= 0.274\ngini = 0.219\nsamples = 16\nvalue = [14, 2]", fillcolor="#e99355"] ;
531 -> 535 ;
536 [label="gini = 0.0\nsamples = 13\nvalue = [13, 0]", fillcolor="#e58139"] ;
535 -> 536 ;
537 [label="gender_M <= 0.5\ngini = 0.444\nsamples = 3\nvalue = [1, 2]", fillcolor="#9ccef2"] ;
535 -> 537 ;
538 [label="gini = 0.0\nsamples = 2\nvalue = [0, 2]", fillcolor="#399de5"] ;
537 -> 538 ;
539 [label="gini = 0.0\nsamples = 1\nvalue = [1, 0]", fillcolor="#e58139"] ;
537 -> 539 ;
540 [label="shucked_weight <= 0.476\ngini = 0.495\nsamples = 205\nvalue = [92, 113]", fillcolor="#daedfa"] ;
530 -> 540 ;
541 [label="diameter <= 0.463\ngini = 0.355\nsamples = 26\nvalue = [6, 20]", fillcolor="#74baed"] ;
540 -> 541 ;
542 [label="shell_weight <= 0.276\ngini = 0.496\nsamples = 11\nvalue = [5, 6]", fillcolor="#deeffb"] ;
541 -> 542 ;
543 [label="whole_weight <= 1.059\ngini = 0.278\nsamples = 6\nvalue = [5, 1]", fillcolor="#ea9a61"] ;
542 -> 543 ;
544 [label="gini = 0.0\nsamples = 5\nvalue = [5, 0]", fillcolor="#e58139"] ;
543 -> 544 ;
545 [label="gini = 0.0\nsamples = 1\nvalue = [0, 1]", fillcolor="#399de5"] ;
543 -> 545 ;
546 [label="gini = 0.0\nsamples = 5\nvalue = [0, 5]", fillcolor="#399de5"] ;
542 -> 546 ;
547 [label="diameter <= 0.495\ngini = 0.124\nsamples = 15\nvalue = [1, 14]", fillcolor="#47a4e7"] ;
541 -> 547 ;
548 [label="gini = 0.0\nsamples = 13\nvalue = [0, 13]", fillcolor="#399de5"] ;
547 -> 548 ;
549 [label="gender_M <= 0.5\ngini = 0.5\nsamples = 2\nvalue = [1, 1]", fillcolor="#ffffff"] ;
547 -> 549 ;
550 [label="gini = 0.0\nsamples = 1\nvalue = [0, 1]", fillcolor="#399de5"] ;
549 -> 550 ;
551 [label="gini = 0.0\nsamples = 1\nvalue = [1, 0]", fillcolor="#e58139"] ;
549 -> 551 ;
552 [label="shell_weight <= 0.255\ngini = 0.499\nsamples = 179\nvalue = [86, 93]", fillcolor="#f0f8fd"] ;
540 -> 552 ;
553 [label="height <= 0.155\ngini = 0.278\nsamples = 12\nvalue = [10, 2]", fillcolor="#ea9a61"] ;
552 -> 553 ;
554 [label="shucked_weight <= 0.566\ngini = 0.165\nsamples = 11\nvalue = [10, 1]", fillcolor="#e88e4d"] ;
553 -> 554 ;
555 [label="gini = 0.0\nsamples = 8\nvalue = [8, 0]", fillcolor="#e58139"] ;
554 -> 555 ;
556 [label="whole_weight <= 1.132\ngini = 0.444\nsamples = 3\nvalue = [2, 1]", fillcolor="#f2c09c"] ;
554 -> 556 ;
557 [label="gini = 0.0\nsamples = 1\nvalue = [0, 1]", fillcolor="#399de5"] ;
556 -> 557 ;
558 [label="gini = 0.0\nsamples = 2\nvalue = [2, 0]", fillcolor="#e58139"] ;
556 -> 558 ;
559 [label="gini = 0.0\nsamples = 1\nvalue = [0, 1]", fillcolor="#399de5"] ;
553 -> 559 ;
560 [label="whole_weight <= 1.389\ngini = 0.496\nsamples = 167\nvalue = [76, 91]", fillcolor="#deeffb"] ;
552 -> 560 ;
561 [label="diameter <= 0.517\ngini = 0.498\nsamples = 161\nvalue = [76, 85]", fillcolor="#eaf5fc"] ;
560 -> 561 ;
562 [label="shucked_weight <= 0.477\ngini = 0.496\nsamples = 156\nvalue = [71, 85]", fillcolor="#deeffb"] ;
561 -> 562 ;
563 [label="gini = 0.0\nsamples = 3\nvalue = [3, 0]", fillcolor="#e58139"] ;
562 -> 563 ;
564 [label="shucked_weight <= 0.6\ngini = 0.494\nsamples = 153\nvalue = [68, 85]", fillcolor="#d7ebfa"] ;
562 -> 564 ;
565 [label="length <= 0.558\ngini = 0.485\nsamples = 131\nvalue = [54, 77]", fillcolor="#c4e2f7"] ;
564 -> 565 ;
566 [label="gini = 0.0\nsamples = 4\nvalue = [4, 0]", fillcolor="#e58139"] ;
565 -> 566 ;
567 [label="diameter <= 0.453\ngini = 0.477\nsamples = 127\nvalue = [50, 77]", fillcolor="#baddf6"] ;
565 -> 567 ;
568 [label="diameter <= 0.403\ngini = 0.26\nsamples = 13\nvalue = [2, 11]", fillcolor="#5dafea"] ;
567 -> 568 ;
569 [label="gini = 0.0\nsamples = 1\nvalue = [1, 0]", fillcolor="#e58139"] ;
568 -> 569 ;
570 [label="shucked_weight <= 0.557\ngini = 0.153\nsamples = 12\nvalue = [1, 11]", fillcolor="#4ba6e7"] ;
568 -> 570 ;
571 [label="gini = 0.0\nsamples = 10\nvalue = [0, 10]", fillcolor="#399de5"] ;
570 -> 571 ;
572 [label="length <= 0.575\ngini = 0.5\nsamples = 2\nvalue = [1, 1]", fillcolor="#ffffff"] ;
570 -> 572 ;
573 [label="gini = 0.0\nsamples = 1\nvalue = [0, 1]", fillcolor="#399de5"] ;
572 -> 573 ;
574 [label="gini = 0.0\nsamples = 1\nvalue = [1, 0]", fillcolor="#e58139"] ;
572 -> 574 ;
575 [label="length <= 0.603\ngini = 0.488\nsamples = 114\nvalue = [48, 66]", fillcolor="#c9e4f8"] ;
567 -> 575 ;
576 [label="shucked_weight <= 0.56\ngini = 0.497\nsamples = 37\nvalue = [20, 17]", fillcolor="#fbece1"] ;
575 -> 576 ;
577 [label="shucked_weight <= 0.528\ngini = 0.478\nsamples = 33\nvalue = [20, 13]", fillcolor="#f6d3ba"] ;
576 -> 577 ;
578 [label="shell_weight <= 0.305\ngini = 0.5\nsamples = 24\nvalue = [12, 12]", fillcolor="#ffffff"] ;
577 -> 578 ;
579 [label="shucked_weight <= 0.505\ngini = 0.457\nsamples = 17\nvalue = [6, 11]", fillcolor="#a5d2f3"] ;
578 -> 579 ;
580 [label="shucked_weight <= 0.485\ngini = 0.48\nsamples = 10\nvalue = [6, 4]", fillcolor="#f6d5bd"] ;
579 -> 580 ;
581 [label="gini = 0.0\nsamples = 2\nvalue = [0, 2]", fillcolor="#399de5"] ;
580 -> 581 ;
582 [label="viscera_weight <= 0.213\ngini = 0.375\nsamples = 8\nvalue = [6, 2]", fillcolor="#eeab7b"] ;
580 -> 582 ;
583 [label="gini = 0.0\nsamples = 1\nvalue = [0, 1]", fillcolor="#399de5"] ;
582 -> 583 ;
584 [label="viscera_weight <= 0.331\ngini = 0.245\nsamples = 7\nvalue = [6, 1]", fillcolor="#e9965a"] ;
582 -> 584 ;
585 [label="gini = 0.0\nsamples = 6\nvalue = [6, 0]", fillcolor="#e58139"] ;
584 -> 585 ;
586 [label="gini = 0.0\nsamples = 1\nvalue = [0, 1]", fillcolor="#399de5"] ;
584 -> 586 ;
587 [label="gini = 0.0\nsamples = 7\nvalue = [0, 7]", fillcolor="#399de5"] ;
579 -> 587 ;
588 [label="shucked_weight <= 0.495\ngini = 0.245\nsamples = 7\nvalue = [6, 1]", fillcolor="#e9965a"] ;
578 -> 588 ;
589 [label="gender_F <= 0.5\ngini = 0.5\nsamples = 2\nvalue = [1, 1]", fillcolor="#ffffff"] ;
588 -> 589 ;
590 [label="gini = 0.0\nsamples = 1\nvalue = [1, 0]", fillcolor="#e58139"] ;
589 -> 590 ;
591 [label="gini = 0.0\nsamples = 1\nvalue = [0, 1]", fillcolor="#399de5"] ;
589 -> 591 ;
592 [label="gini = 0.0\nsamples = 5\nvalue = [5, 0]", fillcolor="#e58139"] ;
588 -> 592 ;
593 [label="height <= 0.175\ngini = 0.198\nsamples = 9\nvalue = [8, 1]", fillcolor="#e89152"] ;
577 -> 593 ;
594 [label="gini = 0.0\nsamples = 8\nvalue = [8, 0]", fillcolor="#e58139"] ;
593 -> 594 ;
595 [label="gini = 0.0\nsamples = 1\nvalue = [0, 1]", fillcolor="#399de5"] ;
593 -> 595 ;
596 [label="gini = 0.0\nsamples = 4\nvalue = [0, 4]", fillcolor="#399de5"] ;
576 -> 596 ;
597 [label="length <= 0.618\ngini = 0.463\nsamples = 77\nvalue = [28, 49]", fillcolor="#aad5f4"] ;
575 -> 597 ;
598 [label="height <= 0.157\ngini = 0.278\nsamples = 30\nvalue = [5, 25]", fillcolor="#61b1ea"] ;
597 -> 598 ;
599 [label="whole_weight <= 1.15\ngini = 0.444\nsamples = 15\nvalue = [5, 10]", fillcolor="#9ccef2"] ;
598 -> 599 ;
600 [label="diameter <= 0.468\ngini = 0.5\nsamples = 10\nvalue = [5, 5]", fillcolor="#ffffff"] ;
599 -> 600 ;
601 [label="gini = 0.0\nsamples = 4\nvalue = [0, 4]", fillcolor="#399de5"] ;
600 -> 601 ;
602 [label="whole_weight <= 1.072\ngini = 0.278\nsamples = 6\nvalue = [5, 1]", fillcolor="#ea9a61"] ;
600 -> 602 ;
603 [label="gini = 0.0\nsamples = 1\nvalue = [0, 1]", fillcolor="#399de5"] ;
602 -> 603 ;
604 [label="gini = 0.0\nsamples = 5\nvalue = [5, 0]", fillcolor="#e58139"] ;
602 -> 604 ;
605 [label="gini = 0.0\nsamples = 5\nvalue = [0, 5]", fillcolor="#399de5"] ;
599 -> 605 ;
606 [label="gini = 0.0\nsamples = 15\nvalue = [0, 15]", fillcolor="#399de5"] ;
598 -> 606 ;
607 [label="length <= 0.632\ngini = 0.5\nsamples = 47\nvalue = [23, 24]", fillcolor="#f7fbfe"] ;
597 -> 607 ;
608 [label="shell_weight <= 0.302\ngini = 0.477\nsamples = 28\nvalue = [17, 11]", fillcolor="#f6d3b9"] ;
607 -> 608 ;
609 [label="viscera_weight <= 0.269\ngini = 0.355\nsamples = 13\nvalue = [10, 3]", fillcolor="#eda774"] ;
608 -> 609 ;
610 [label="height <= 0.168\ngini = 0.18\nsamples = 10\nvalue = [9, 1]", fillcolor="#e88f4f"] ;
609 -> 610 ;
611 [label="gini = 0.0\nsamples = 8\nvalue = [8, 0]", fillcolor="#e58139"] ;
610 -> 611 ;
612 [label="shell_weight <= 0.292\ngini = 0.5\nsamples = 2\nvalue = [1, 1]", fillcolor="#ffffff"] ;
610 -> 612 ;
613 [label="gini = 0.0\nsamples = 1\nvalue = [0, 1]", fillcolor="#399de5"] ;
612 -> 613 ;
614 [label="gini = 0.0\nsamples = 1\nvalue = [1, 0]", fillcolor="#e58139"] ;
612 -> 614 ;
615 [label="viscera_weight <= 0.281\ngini = 0.444\nsamples = 3\nvalue = [1, 2]", fillcolor="#9ccef2"] ;
609 -> 615 ;
616 [label="gini = 0.0\nsamples = 2\nvalue = [0, 2]", fillcolor="#399de5"] ;
615 -> 616 ;
617 [label="gini = 0.0\nsamples = 1\nvalue = [1, 0]", fillcolor="#e58139"] ;
615 -> 617 ;
618 [label="shell_weight <= 0.308\ngini = 0.498\nsamples = 15\nvalue = [7, 8]", fillcolor="#e6f3fc"] ;
608 -> 618 ;
619 [label="gini = 0.0\nsamples = 3\nvalue = [0, 3]", fillcolor="#399de5"] ;
618 -> 619 ;
620 [label="viscera_weight <= 0.228\ngini = 0.486\nsamples = 12\nvalue = [7, 5]", fillcolor="#f8dbc6"] ;
618 -> 620 ;
621 [label="gini = 0.0\nsamples = 2\nvalue = [0, 2]", fillcolor="#399de5"] ;
620 -> 621 ;
622 [label="diameter <= 0.485\ngini = 0.42\nsamples = 10\nvalue = [7, 3]", fillcolor="#f0b78e"] ;
620 -> 622 ;
623 [label="viscera_weight <= 0.235\ngini = 0.48\nsamples = 5\nvalue = [2, 3]", fillcolor="#bddef6"] ;
622 -> 623 ;
624 [label="gini = 0.0\nsamples = 2\nvalue = [2, 0]", fillcolor="#e58139"] ;
623 -> 624 ;
625 [label="gini = 0.0\nsamples = 3\nvalue = [0, 3]", fillcolor="#399de5"] ;
623 -> 625 ;
626 [label="gini = 0.0\nsamples = 5\nvalue = [5, 0]", fillcolor="#e58139"] ;
622 -> 626 ;
627 [label="diameter <= 0.477\ngini = 0.432\nsamples = 19\nvalue = [6, 13]", fillcolor="#94caf1"] ;
607 -> 627 ;
628 [label="gini = 0.0\nsamples = 3\nvalue = [3, 0]", fillcolor="#e58139"] ;
627 -> 628 ;
629 [label="diameter <= 0.507\ngini = 0.305\nsamples = 16\nvalue = [3, 13]", fillcolor="#67b4eb"] ;
627 -> 629 ;
630 [label="shucked_weight <= 0.503\ngini = 0.142\nsamples = 13\nvalue = [1, 12]", fillcolor="#49a5e7"] ;
629 -> 630 ;
631 [label="diameter <= 0.493\ngini = 0.5\nsamples = 2\nvalue = [1, 1]", fillcolor="#ffffff"] ;
630 -> 631 ;
632 [label="gini = 0.0\nsamples = 1\nvalue = [1, 0]", fillcolor="#e58139"] ;
631 -> 632 ;
633 [label="gini = 0.0\nsamples = 1\nvalue = [0, 1]", fillcolor="#399de5"] ;
631 -> 633 ;
634 [label="gini = 0.0\nsamples = 11\nvalue = [0, 11]", fillcolor="#399de5"] ;
630 -> 634 ;
635 [label="shell_weight <= 0.316\ngini = 0.444\nsamples = 3\nvalue = [2, 1]", fillcolor="#f2c09c"] ;
629 -> 635 ;
636 [label="gini = 0.0\nsamples = 2\nvalue = [2, 0]", fillcolor="#e58139"] ;
635 -> 636 ;
637 [label="gini = 0.0\nsamples = 1\nvalue = [0, 1]", fillcolor="#399de5"] ;
635 -> 637 ;
638 [label="length <= 0.587\ngini = 0.463\nsamples = 22\nvalue = [14, 8]", fillcolor="#f4c9aa"] ;
564 -> 638 ;
639 [label="gini = 0.0\nsamples = 3\nvalue = [0, 3]", fillcolor="#399de5"] ;
638 -> 639 ;
640 [label="gender_M <= 0.5\ngini = 0.388\nsamples = 19\nvalue = [14, 5]", fillcolor="#eeae80"] ;
638 -> 640 ;
641 [label="shell_weight <= 0.3\ngini = 0.444\nsamples = 6\nvalue = [2, 4]", fillcolor="#9ccef2"] ;
640 -> 641 ;
642 [label="length <= 0.672\ngini = 0.444\nsamples = 3\nvalue = [2, 1]", fillcolor="#f2c09c"] ;
641 -> 642 ;
643 [label="gini = 0.0\nsamples = 2\nvalue = [2, 0]", fillcolor="#e58139"] ;
642 -> 643 ;
644 [label="gini = 0.0\nsamples = 1\nvalue = [0, 1]", fillcolor="#399de5"] ;
642 -> 644 ;
645 [label="gini = 0.0\nsamples = 3\nvalue = [0, 3]", fillcolor="#399de5"] ;
641 -> 645 ;
646 [label="height <= 0.153\ngini = 0.142\nsamples = 13\nvalue = [12, 1]", fillcolor="#e78c49"] ;
640 -> 646 ;
647 [label="shell_weight <= 0.314\ngini = 0.5\nsamples = 2\nvalue = [1, 1]", fillcolor="#ffffff"] ;
646 -> 647 ;
648 [label="gini = 0.0\nsamples = 1\nvalue = [0, 1]", fillcolor="#399de5"] ;
647 -> 648 ;
649 [label="gini = 0.0\nsamples = 1\nvalue = [1, 0]", fillcolor="#e58139"] ;
647 -> 649 ;
650 [label="gini = 0.0\nsamples = 11\nvalue = [11, 0]", fillcolor="#e58139"] ;
646 -> 650 ;
651 [label="gini = 0.0\nsamples = 5\nvalue = [5, 0]", fillcolor="#e58139"] ;
561 -> 651 ;
652 [label="gini = 0.0\nsamples = 6\nvalue = [0, 6]", fillcolor="#399de5"] ;
560 -> 652 ;
653 [label="whole_weight <= 0.968\ngini = 0.117\nsamples = 16\nvalue = [1, 15]", fillcolor="#46a4e7"] ;
529 -> 653 ;
654 [label="gini = 0.0\nsamples = 1\nvalue = [1, 0]", fillcolor="#e58139"] ;
653 -> 654 ;
655 [label="gini = 0.0\nsamples = 15\nvalue = [0, 15]", fillcolor="#399de5"] ;
653 -> 655 ;
656 [label="shell_weight <= 0.403\ngini = 0.21\nsamples = 654\nvalue = [78, 576]", fillcolor="#54aae9"] ;
420 -> 656 ;
657 [label="shucked_weight <= 0.562\ngini = 0.292\nsamples = 355\nvalue = [63, 292]", fillcolor="#64b2eb"] ;
656 -> 657 ;
658 [label="height <= 0.133\ngini = 0.19\nsamples = 207\nvalue = [22, 185]", fillcolor="#51a9e8"] ;
657 -> 658 ;
659 [label="gini = 0.0\nsamples = 3\nvalue = [3, 0]", fillcolor="#e58139"] ;
658 -> 659 ;
660 [label="whole_weight <= 1.422\ngini = 0.169\nsamples = 204\nvalue = [19, 185]", fillcolor="#4da7e8"] ;
658 -> 660 ;
661 [label="diameter <= 0.403\ngini = 0.162\nsamples = 203\nvalue = [18, 185]", fillcolor="#4ca7e8"] ;
660 -> 661 ;
662 [label="gini = 0.0\nsamples = 1\nvalue = [1, 0]", fillcolor="#e58139"] ;
661 -> 662 ;
663 [label="shucked_weight <= 0.416\ngini = 0.154\nsamples = 202\nvalue = [17, 185]", fillcolor="#4ba6e7"] ;
661 -> 663 ;
664 [label="gini = 0.0\nsamples = 56\nvalue = [0, 56]", fillcolor="#399de5"] ;
663 -> 664 ;
665 [label="viscera_weight <= 0.235\ngini = 0.206\nsamples = 146\nvalue = [17, 129]", fillcolor="#53aae8"] ;
663 -> 665 ;
666 [label="viscera_weight <= 0.232\ngini = 0.368\nsamples = 37\nvalue = [9, 28]", fillcolor="#79bced"] ;
665 -> 666 ;
667 [label="length <= 0.567\ngini = 0.291\nsamples = 34\nvalue = [6, 28]", fillcolor="#63b2eb"] ;
666 -> 667 ;
668 [label="gini = 0.0\nsamples = 1\nvalue = [1, 0]", fillcolor="#e58139"] ;
667 -> 668 ;
669 [label="viscera_weight <= 0.219\ngini = 0.257\nsamples = 33\nvalue = [5, 28]", fillcolor="#5caeea"] ;
667 -> 669 ;
670 [label="gini = 0.0\nsamples = 17\nvalue = [0, 17]", fillcolor="#399de5"] ;
669 -> 670 ;
671 [label="viscera_weight <= 0.223\ngini = 0.43\nsamples = 16\nvalue = [5, 11]", fillcolor="#93caf1"] ;
669 -> 671 ;
672 [label="whole_weight <= 1.112\ngini = 0.444\nsamples = 6\nvalue = [4, 2]", fillcolor="#f2c09c"] ;
671 -> 672 ;
673 [label="gini = 0.0\nsamples = 3\nvalue = [3, 0]", fillcolor="#e58139"] ;
672 -> 673 ;
674 [label="length <= 0.637\ngini = 0.444\nsamples = 3\nvalue = [1, 2]", fillcolor="#9ccef2"] ;
672 -> 674 ;
675 [label="gini = 0.0\nsamples = 2\nvalue = [0, 2]", fillcolor="#399de5"] ;
674 -> 675 ;
676 [label="gini = 0.0\nsamples = 1\nvalue = [1, 0]", fillcolor="#e58139"] ;
674 -> 676 ;
677 [label="whole_weight <= 1.163\ngini = 0.18\nsamples = 10\nvalue = [1, 9]", fillcolor="#4fa8e8"] ;
671 -> 677 ;
678 [label="gini = 0.0\nsamples = 9\nvalue = [0, 9]", fillcolor="#399de5"] ;
677 -> 678 ;
679 [label="gini = 0.0\nsamples = 1\nvalue = [1, 0]", fillcolor="#e58139"] ;
677 -> 679 ;
680 [label="gini = 0.0\nsamples = 3\nvalue = [3, 0]", fillcolor="#e58139"] ;
666 -> 680 ;
681 [label="shucked_weight <= 0.418\ngini = 0.136\nsamples = 109\nvalue = [8, 101]", fillcolor="#49a5e7"] ;
665 -> 681 ;
682 [label="gini = 0.0\nsamples = 1\nvalue = [1, 0]", fillcolor="#e58139"] ;
681 -> 682 ;
683 [label="viscera_weight <= 0.269\ngini = 0.121\nsamples = 108\nvalue = [7, 101]", fillcolor="#47a4e7"] ;
681 -> 683 ;
684 [label="gini = 0.0\nsamples = 43\nvalue = [0, 43]", fillcolor="#399de5"] ;
683 -> 684 ;
685 [label="whole_weight <= 1.196\ngini = 0.192\nsamples = 65\nvalue = [7, 58]", fillcolor="#51a9e8"] ;
683 -> 685 ;
686 [label="whole_weight <= 1.192\ngini = 0.415\nsamples = 17\nvalue = [5, 12]", fillcolor="#8bc6f0"] ;
685 -> 686 ;
687 [label="viscera_weight <= 0.304\ngini = 0.32\nsamples = 15\nvalue = [3, 12]", fillcolor="#6ab6ec"] ;
686 -> 687 ;
688 [label="shell_weight <= 0.369\ngini = 0.153\nsamples = 12\nvalue = [1, 11]", fillcolor="#4ba6e7"] ;
687 -> 688 ;
689 [label="gini = 0.0\nsamples = 11\nvalue = [0, 11]", fillcolor="#399de5"] ;
688 -> 689 ;
690 [label="gini = 0.0\nsamples = 1\nvalue = [1, 0]", fillcolor="#e58139"] ;
688 -> 690 ;
691 [label="diameter <= 0.485\ngini = 0.444\nsamples = 3\nvalue = [2, 1]", fillcolor="#f2c09c"] ;
687 -> 691 ;
692 [label="gini = 0.0\nsamples = 1\nvalue = [0, 1]", fillcolor="#399de5"] ;
691 -> 692 ;
693 [label="gini = 0.0\nsamples = 2\nvalue = [2, 0]", fillcolor="#e58139"] ;
691 -> 693 ;
694 [label="gini = 0.0\nsamples = 2\nvalue = [2, 0]", fillcolor="#e58139"] ;
686 -> 694 ;
695 [label="viscera_weight <= 0.27\ngini = 0.08\nsamples = 48\nvalue = [2, 46]", fillcolor="#42a1e6"] ;
685 -> 695 ;
696 [label="gini = 0.0\nsamples = 1\nvalue = [1, 0]", fillcolor="#e58139"] ;
695 -> 696 ;
697 [label="shucked_weight <= 0.543\ngini = 0.042\nsamples = 47\nvalue = [1, 46]", fillcolor="#3d9fe6"] ;
695 -> 697 ;
698 [label="gini = 0.0\nsamples = 36\nvalue = [0, 36]", fillcolor="#399de5"] ;
697 -> 698 ;
699 [label="height <= 0.183\ngini = 0.165\nsamples = 11\nvalue = [1, 10]", fillcolor="#4da7e8"] ;
697 -> 699 ;
700 [label="gini = 0.0\nsamples = 9\nvalue = [0, 9]", fillcolor="#399de5"] ;
699 -> 700 ;
701 [label="shucked_weight <= 0.55\ngini = 0.5\nsamples = 2\nvalue = [1, 1]", fillcolor="#ffffff"] ;
699 -> 701 ;
702 [label="gini = 0.0\nsamples = 1\nvalue = [1, 0]", fillcolor="#e58139"] ;
701 -> 702 ;
703 [label="gini = 0.0\nsamples = 1\nvalue = [0, 1]", fillcolor="#399de5"] ;
701 -> 703 ;
704 [label="gini = 0.0\nsamples = 1\nvalue = [1, 0]", fillcolor="#e58139"] ;
660 -> 704 ;
705 [label="whole_weight <= 1.324\ngini = 0.401\nsamples = 148\nvalue = [41, 107]", fillcolor="#85c3ef"] ;
657 -> 705 ;
706 [label="diameter <= 0.502\ngini = 0.488\nsamples = 45\nvalue = [19, 26]", fillcolor="#cae5f8"] ;
705 -> 706 ;
707 [label="viscera_weight <= 0.253\ngini = 0.477\nsamples = 28\nvalue = [17, 11]", fillcolor="#f6d3b9"] ;
706 -> 707 ;
708 [label="height <= 0.193\ngini = 0.408\nsamples = 7\nvalue = [2, 5]", fillcolor="#88c4ef"] ;
707 -> 708 ;
709 [label="whole_weight <= 1.213\ngini = 0.278\nsamples = 6\nvalue = [1, 5]", fillcolor="#61b1ea"] ;
708 -> 709 ;
710 [label="gini = 0.0\nsamples = 1\nvalue = [1, 0]", fillcolor="#e58139"] ;
709 -> 710 ;
711 [label="gini = 0.0\nsamples = 5\nvalue = [0, 5]", fillcolor="#399de5"] ;
709 -> 711 ;
712 [label="gini = 0.0\nsamples = 1\nvalue = [1, 0]", fillcolor="#e58139"] ;
708 -> 712 ;
713 [label="whole_weight <= 1.293\ngini = 0.408\nsamples = 21\nvalue = [15, 6]", fillcolor="#efb388"] ;
707 -> 713 ;
714 [label="viscera_weight <= 0.308\ngini = 0.49\nsamples = 14\nvalue = [8, 6]", fillcolor="#f8e0ce"] ;
713 -> 714 ;
715 [label="height <= 0.172\ngini = 0.397\nsamples = 11\nvalue = [8, 3]", fillcolor="#efb083"] ;
714 -> 715 ;
716 [label="gini = 0.0\nsamples = 6\nvalue = [6, 0]", fillcolor="#e58139"] ;
715 -> 716 ;
717 [label="whole_weight <= 1.271\ngini = 0.48\nsamples = 5\nvalue = [2, 3]", fillcolor="#bddef6"] ;
715 -> 717 ;
718 [label="gini = 0.0\nsamples = 2\nvalue = [0, 2]", fillcolor="#399de5"] ;
717 -> 718 ;
719 [label="shell_weight <= 0.38\ngini = 0.444\nsamples = 3\nvalue = [2, 1]", fillcolor="#f2c09c"] ;
717 -> 719 ;
720 [label="gini = 0.0\nsamples = 2\nvalue = [2, 0]", fillcolor="#e58139"] ;
719 -> 720 ;
721 [label="gini = 0.0\nsamples = 1\nvalue = [0, 1]", fillcolor="#399de5"] ;
719 -> 721 ;
722 [label="gini = 0.0\nsamples = 3\nvalue = [0, 3]", fillcolor="#399de5"] ;
714 -> 722 ;
723 [label="gini = 0.0\nsamples = 7\nvalue = [7, 0]", fillcolor="#e58139"] ;
713 -> 723 ;
724 [label="viscera_weight <= 0.173\ngini = 0.208\nsamples = 17\nvalue = [2, 15]", fillcolor="#53aae8"] ;
706 -> 724 ;
725 [label="gini = 0.0\nsamples = 1\nvalue = [1, 0]", fillcolor="#e58139"] ;
724 -> 725 ;
726 [label="whole_weight <= 1.317\ngini = 0.117\nsamples = 16\nvalue = [1, 15]", fillcolor="#46a4e7"] ;
724 -> 726 ;
727 [label="gini = 0.0\nsamples = 15\nvalue = [0, 15]", fillcolor="#399de5"] ;
726 -> 727 ;
728 [label="gini = 0.0\nsamples = 1\nvalue = [1, 0]", fillcolor="#e58139"] ;
726 -> 728 ;
729 [label="shell_weight <= 0.4\ngini = 0.336\nsamples = 103\nvalue = [22, 81]", fillcolor="#6fb8ec"] ;
705 -> 729 ;
730 [label="shucked_weight <= 0.618\ngini = 0.318\nsamples = 101\nvalue = [20, 81]", fillcolor="#6ab5eb"] ;
729 -> 730 ;
731 [label="gini = 0.0\nsamples = 25\nvalue = [0, 25]", fillcolor="#399de5"] ;
730 -> 731 ;
732 [label="viscera_weight <= 0.376\ngini = 0.388\nsamples = 76\nvalue = [20, 56]", fillcolor="#80c0ee"] ;
730 -> 732 ;
733 [label="height <= 0.188\ngini = 0.433\nsamples = 63\nvalue = [20, 43]", fillcolor="#95cbf1"] ;
732 -> 733 ;
734 [label="length <= 0.637\ngini = 0.385\nsamples = 50\nvalue = [13, 37]", fillcolor="#7fbfee"] ;
733 -> 734 ;
735 [label="height <= 0.168\ngini = 0.188\nsamples = 19\nvalue = [2, 17]", fillcolor="#50a9e8"] ;
734 -> 735 ;
736 [label="shell_weight <= 0.347\ngini = 0.408\nsamples = 7\nvalue = [2, 5]", fillcolor="#88c4ef"] ;
735 -> 736 ;
737 [label="gini = 0.0\nsamples = 4\nvalue = [0, 4]", fillcolor="#399de5"] ;
736 -> 737 ;
738 [label="viscera_weight <= 0.314\ngini = 0.444\nsamples = 3\nvalue = [2, 1]", fillcolor="#f2c09c"] ;
736 -> 738 ;
739 [label="gini = 0.0\nsamples = 2\nvalue = [2, 0]", fillcolor="#e58139"] ;
738 -> 739 ;
740 [label="gini = 0.0\nsamples = 1\nvalue = [0, 1]", fillcolor="#399de5"] ;
738 -> 740 ;
741 [label="gini = 0.0\nsamples = 12\nvalue = [0, 12]", fillcolor="#399de5"] ;
735 -> 741 ;
742 [label="shucked_weight <= 0.647\ngini = 0.458\nsamples = 31\nvalue = [11, 20]", fillcolor="#a6d3f3"] ;
734 -> 742 ;
743 [label="shucked_weight <= 0.627\ngini = 0.408\nsamples = 7\nvalue = [5, 2]", fillcolor="#efb388"] ;
742 -> 743 ;
744 [label="diameter <= 0.522\ngini = 0.444\nsamples = 3\nvalue = [1, 2]", fillcolor="#9ccef2"] ;
743 -> 744 ;
745 [label="gini = 0.0\nsamples = 1\nvalue = [1, 0]", fillcolor="#e58139"] ;
744 -> 745 ;
746 [label="gini = 0.0\nsamples = 2\nvalue = [0, 2]", fillcolor="#399de5"] ;
744 -> 746 ;
747 [label="gini = 0.0\nsamples = 4\nvalue = [4, 0]", fillcolor="#e58139"] ;
743 -> 747 ;
748 [label="shucked_weight <= 0.708\ngini = 0.375\nsamples = 24\nvalue = [6, 18]", fillcolor="#7bbeee"] ;
742 -> 748 ;
749 [label="height <= 0.168\ngini = 0.142\nsamples = 13\nvalue = [1, 12]", fillcolor="#49a5e7"] ;
748 -> 749 ;
750 [label="viscera_weight <= 0.303\ngini = 0.375\nsamples = 4\nvalue = [1, 3]", fillcolor="#7bbeee"] ;
749 -> 750 ;
751 [label="gini = 0.0\nsamples = 3\nvalue = [0, 3]", fillcolor="#399de5"] ;
750 -> 751 ;
752 [label="gini = 0.0\nsamples = 1\nvalue = [1, 0]", fillcolor="#e58139"] ;
750 -> 752 ;
753 [label="gini = 0.0\nsamples = 9\nvalue = [0, 9]", fillcolor="#399de5"] ;
749 -> 753 ;
754 [label="whole_weight <= 1.492\ngini = 0.496\nsamples = 11\nvalue = [5, 6]", fillcolor="#deeffb"] ;
748 -> 754 ;
755 [label="diameter <= 0.532\ngini = 0.278\nsamples = 6\nvalue = [5, 1]", fillcolor="#ea9a61"] ;
754 -> 755 ;
756 [label="gini = 0.0\nsamples = 5\nvalue = [5, 0]", fillcolor="#e58139"] ;
755 -> 756 ;
757 [label="gini = 0.0\nsamples = 1\nvalue = [0, 1]", fillcolor="#399de5"] ;
755 -> 757 ;
758 [label="gini = 0.0\nsamples = 5\nvalue = [0, 5]", fillcolor="#399de5"] ;
754 -> 758 ;
759 [label="length <= 0.623\ngini = 0.497\nsamples = 13\nvalue = [7, 6]", fillcolor="#fbede3"] ;
733 -> 759 ;
760 [label="gini = 0.0\nsamples = 2\nvalue = [2, 0]", fillcolor="#e58139"] ;
759 -> 760 ;
761 [label="diameter <= 0.502\ngini = 0.496\nsamples = 11\nvalue = [5, 6]", fillcolor="#deeffb"] ;
759 -> 761 ;
762 [label="gini = 0.0\nsamples = 3\nvalue = [0, 3]", fillcolor="#399de5"] ;
761 -> 762 ;
763 [label="shucked_weight <= 0.745\ngini = 0.469\nsamples = 8\nvalue = [5, 3]", fillcolor="#f5cdb0"] ;
761 -> 763 ;
764 [label="gini = 0.0\nsamples = 3\nvalue = [3, 0]", fillcolor="#e58139"] ;
763 -> 764 ;
765 [label="length <= 0.668\ngini = 0.48\nsamples = 5\nvalue = [2, 3]", fillcolor="#bddef6"] ;
763 -> 765 ;
766 [label="gini = 0.0\nsamples = 3\nvalue = [0, 3]", fillcolor="#399de5"] ;
765 -> 766 ;
767 [label="gini = 0.0\nsamples = 2\nvalue = [2, 0]", fillcolor="#e58139"] ;
765 -> 767 ;
768 [label="gini = 0.0\nsamples = 13\nvalue = [0, 13]", fillcolor="#399de5"] ;
732 -> 768 ;
769 [label="gini = 0.0\nsamples = 2\nvalue = [2, 0]", fillcolor="#e58139"] ;
729 -> 769 ;
770 [label="diameter <= 0.458\ngini = 0.095\nsamples = 299\nvalue = [15, 284]", fillcolor="#43a2e6"] ;
656 -> 770 ;
771 [label="whole_weight <= 1.595\ngini = 0.444\nsamples = 6\nvalue = [2, 4]", fillcolor="#9ccef2"] ;
770 -> 771 ;
772 [label="gini = 0.0\nsamples = 4\nvalue = [0, 4]", fillcolor="#399de5"] ;
771 -> 772 ;
773 [label="gini = 0.0\nsamples = 2\nvalue = [2, 0]", fillcolor="#e58139"] ;
771 -> 773 ;
774 [label="shucked_weight <= 0.553\ngini = 0.085\nsamples = 293\nvalue = [13, 280]", fillcolor="#42a2e6"] ;
770 -> 774 ;
775 [label="gini = 0.0\nsamples = 70\nvalue = [0, 70]", fillcolor="#399de5"] ;
774 -> 775 ;
776 [label="shucked_weight <= 0.556\ngini = 0.11\nsamples = 223\nvalue = [13, 210]", fillcolor="#45a3e7"] ;
774 -> 776 ;
777 [label="height <= 0.163\ngini = 0.5\nsamples = 2\nvalue = [1, 1]", fillcolor="#ffffff"] ;
776 -> 777 ;
778 [label="gini = 0.0\nsamples = 1\nvalue = [0, 1]", fillcolor="#399de5"] ;
777 -> 778 ;
779 [label="gini = 0.0\nsamples = 1\nvalue = [1, 0]", fillcolor="#e58139"] ;
777 -> 779 ;
780 [label="diameter <= 0.553\ngini = 0.103\nsamples = 221\nvalue = [12, 209]", fillcolor="#44a3e6"] ;
776 -> 780 ;
781 [label="length <= 0.718\ngini = 0.152\nsamples = 133\nvalue = [11, 122]", fillcolor="#4ba6e7"] ;
780 -> 781 ;
782 [label="viscera_weight <= 0.414\ngini = 0.119\nsamples = 126\nvalue = [8, 118]", fillcolor="#46a4e7"] ;
781 -> 782 ;
783 [label="shell_weight <= 0.44\ngini = 0.098\nsamples = 116\nvalue = [6, 110]", fillcolor="#44a2e6"] ;
782 -> 783 ;
784 [label="length <= 0.668\ngini = 0.183\nsamples = 49\nvalue = [5, 44]", fillcolor="#50a8e8"] ;
783 -> 784 ;
785 [label="gini = 0.0\nsamples = 30\nvalue = [0, 30]", fillcolor="#399de5"] ;
784 -> 785 ;
786 [label="shucked_weight <= 0.643\ngini = 0.388\nsamples = 19\nvalue = [5, 14]", fillcolor="#80c0ee"] ;
784 -> 786 ;
787 [label="gini = 0.0\nsamples = 5\nvalue = [0, 5]", fillcolor="#399de5"] ;
786 -> 787 ;
788 [label="shucked_weight <= 0.66\ngini = 0.459\nsamples = 14\nvalue = [5, 9]", fillcolor="#a7d3f3"] ;
786 -> 788 ;
789 [label="gini = 0.0\nsamples = 2\nvalue = [2, 0]", fillcolor="#e58139"] ;
788 -> 789 ;
790 [label="height <= 0.188\ngini = 0.375\nsamples = 12\nvalue = [3, 9]", fillcolor="#7bbeee"] ;
788 -> 790 ;
791 [label="shell_weight <= 0.431\ngini = 0.48\nsamples = 5\nvalue = [3, 2]", fillcolor="#f6d5bd"] ;
790 -> 791 ;
792 [label="viscera_weight <= 0.371\ngini = 0.444\nsamples = 3\nvalue = [1, 2]", fillcolor="#9ccef2"] ;
791 -> 792 ;
793 [label="gini = 0.0\nsamples = 2\nvalue = [0, 2]", fillcolor="#399de5"] ;
792 -> 793 ;
794 [label="gini = 0.0\nsamples = 1\nvalue = [1, 0]", fillcolor="#e58139"] ;
792 -> 794 ;
795 [label="gini = 0.0\nsamples = 2\nvalue = [2, 0]", fillcolor="#e58139"] ;
791 -> 795 ;
796 [label="gini = 0.0\nsamples = 7\nvalue = [0, 7]", fillcolor="#399de5"] ;
790 -> 796 ;
797 [label="length <= 0.647\ngini = 0.029\nsamples = 67\nvalue = [1, 66]", fillcolor="#3c9ee5"] ;
783 -> 797 ;
798 [label="length <= 0.642\ngini = 0.245\nsamples = 7\nvalue = [1, 6]", fillcolor="#5aade9"] ;
797 -> 798 ;
799 [label="gini = 0.0\nsamples = 4\nvalue = [0, 4]", fillcolor="#399de5"] ;
798 -> 799 ;
800 [label="shell_weight <= 0.467\ngini = 0.444\nsamples = 3\nvalue = [1, 2]", fillcolor="#9ccef2"] ;
798 -> 800 ;
801 [label="gini = 0.0\nsamples = 2\nvalue = [0, 2]", fillcolor="#399de5"] ;
800 -> 801 ;
802 [label="gini = 0.0\nsamples = 1\nvalue = [1, 0]", fillcolor="#e58139"] ;
800 -> 802 ;
803 [label="gini = 0.0\nsamples = 60\nvalue = [0, 60]", fillcolor="#399de5"] ;
797 -> 803 ;
804 [label="viscera_weight <= 0.418\ngini = 0.32\nsamples = 10\nvalue = [2, 8]", fillcolor="#6ab6ec"] ;
782 -> 804 ;
805 [label="gini = 0.0\nsamples = 2\nvalue = [2, 0]", fillcolor="#e58139"] ;
804 -> 805 ;
806 [label="gini = 0.0\nsamples = 8\nvalue = [0, 8]", fillcolor="#399de5"] ;
804 -> 806 ;
807 [label="shucked_weight <= 0.847\ngini = 0.49\nsamples = 7\nvalue = [3, 4]", fillcolor="#cee6f8"] ;
781 -> 807 ;
808 [label="viscera_weight <= 0.323\ngini = 0.32\nsamples = 5\nvalue = [1, 4]", fillcolor="#6ab6ec"] ;
807 -> 808 ;
809 [label="gini = 0.0\nsamples = 1\nvalue = [1, 0]", fillcolor="#e58139"] ;
808 -> 809 ;
810 [label="gini = 0.0\nsamples = 4\nvalue = [0, 4]", fillcolor="#399de5"] ;
808 -> 810 ;
811 [label="gini = 0.0\nsamples = 2\nvalue = [2, 0]", fillcolor="#e58139"] ;
807 -> 811 ;
812 [label="viscera_weight <= 0.356\ngini = 0.022\nsamples = 88\nvalue = [1, 87]", fillcolor="#3b9ee5"] ;
780 -> 812 ;
813 [label="viscera_weight <= 0.348\ngini = 0.142\nsamples = 13\nvalue = [1, 12]", fillcolor="#49a5e7"] ;
812 -> 813 ;
814 [label="gini = 0.0\nsamples = 12\nvalue = [0, 12]", fillcolor="#399de5"] ;
813 -> 814 ;
815 [label="gini = 0.0\nsamples = 1\nvalue = [1, 0]", fillcolor="#e58139"] ;
813 -> 815 ;
816 [label="gini = 0.0\nsamples = 75\nvalue = [0, 75]", fillcolor="#399de5"] ;
812 -> 816 ;
}