digraph Tree {
node [shape=box, style="filled", color="black"] ;
0 [label="shell_weight <= 0.249\ngini = 0.5\nsamples = 2505\nvalue = [1251, 1254]", fillcolor="#ffffff"] ;
1 [label="shell_weight <= 0.155\ngini = 0.379\nsamples = 1346\nvalue = [1004, 342]", fillcolor="#eeac7c"] ;
0 -> 1 [labeldistance=2.5, labelangle=45, headlabel="True"] ;
2 [label="gender_I <= 0.5\ngini = 0.217\nsamples = 777\nvalue = [681, 96]", fillcolor="#e99355"] ;
1 -> 2 ;
3 [label="shucked_weight <= 0.233\ngini = 0.405\nsamples = 234\nvalue = [168, 66]", fillcolor="#efb287"] ;
2 -> 3 ;
4 [label="diameter <= 0.248\ngini = 0.442\nsamples = 197\nvalue = [132, 65]", fillcolor="#f2bf9a"] ;
3 -> 4 ;
5 [label="shucked_weight <= 0.053\ngini = 0.053\nsamples = 37\nvalue = [36, 1]", fillcolor="#e6843e"] ;
4 -> 5 ;
6 [label="gini = 0.0\nsamples = 27\nvalue = [27, 0]", fillcolor="#e58139"] ;
5 -> 6 ;
7 [label="shucked_weight <= 0.054\ngini = 0.18\nsamples = 10\nvalue = [9, 1]", fillcolor="#e88f4f"] ;
5 -> 7 ;
8 [label="gini = 0.0\nsamples = 1\nvalue = [0, 1]", fillcolor="#399de5"] ;
7 -> 8 ;
9 [label="gini = 0.0\nsamples = 9\nvalue = [9, 0]", fillcolor="#e58139"] ;
7 -> 9 ;
10 [label="height <= 0.117\ngini = 0.48\nsamples = 160\nvalue = [96, 64]", fillcolor="#f6d5bd"] ;
4 -> 10 ;
11 [label="shucked_weight <= 0.133\ngini = 0.436\nsamples = 112\nvalue = [76, 36]", fillcolor="#f1bd97"] ;
10 -> 11 ;
12 [label="diameter <= 0.312\ngini = 0.493\nsamples = 52\nvalue = [29, 23]", fillcolor="#fae5d6"] ;
11 -> 12 ;
13 [label="whole_weight <= 0.186\ngini = 0.458\nsamples = 45\nvalue = [29, 16]", fillcolor="#f3c7a6"] ;
12 -> 13 ;
14 [label="length <= 0.352\ngini = 0.32\nsamples = 5\nvalue = [1, 4]", fillcolor="#6ab6ec"] ;
13 -> 14 ;
15 [label="gini = 0.0\nsamples = 4\nvalue = [0, 4]", fillcolor="#399de5"] ;
14 -> 15 ;
16 [label="gini = 0.0\nsamples = 1\nvalue = [1, 0]", fillcolor="#e58139"] ;
14 -> 16 ;
17 [label="shell_weight <= 0.073\ngini = 0.42\nsamples = 40\nvalue = [28, 12]", fillcolor="#f0b78e"] ;
13 -> 17 ;
18 [label="shucked_weight <= 0.073\ngini = 0.133\nsamples = 14\nvalue = [13, 1]", fillcolor="#e78b48"] ;
17 -> 18 ;
19 [label="diameter <= 0.262\ngini = 0.444\nsamples = 3\nvalue = [2, 1]", fillcolor="#f2c09c"] ;
18 -> 19 ;
20 [label="gini = 0.0\nsamples = 1\nvalue = [0, 1]", fillcolor="#399de5"] ;
19 -> 20 ;
21 [label="gini = 0.0\nsamples = 2\nvalue = [2, 0]", fillcolor="#e58139"] ;
19 -> 21 ;
22 [label="gini = 0.0\nsamples = 11\nvalue = [11, 0]", fillcolor="#e58139"] ;
18 -> 22 ;
23 [label="viscera_weight <= 0.038\ngini = 0.488\nsamples = 26\nvalue = [15, 11]", fillcolor="#f8ddca"] ;
17 -> 23 ;
24 [label="gini = 0.0\nsamples = 2\nvalue = [0, 2]", fillcolor="#399de5"] ;
23 -> 24 ;
25 [label="diameter <= 0.278\ngini = 0.469\nsamples = 24\nvalue = [15, 9]", fillcolor="#f5cdb0"] ;
23 -> 25 ;
26 [label="gini = 0.0\nsamples = 4\nvalue = [4, 0]", fillcolor="#e58139"] ;
25 -> 26 ;
27 [label="viscera_weight <= 0.061\ngini = 0.495\nsamples = 20\nvalue = [11, 9]", fillcolor="#fae8db"] ;
25 -> 27 ;
28 [label="viscera_weight <= 0.05\ngini = 0.397\nsamples = 11\nvalue = [8, 3]", fillcolor="#efb083"] ;
27 -> 28 ;
29 [label="height <= 0.087\ngini = 0.444\nsamples = 3\nvalue = [1, 2]", fillcolor="#9ccef2"] ;
28 -> 29 ;
30 [label="gini = 0.0\nsamples = 1\nvalue = [1, 0]", fillcolor="#e58139"] ;
29 -> 30 ;
31 [label="gini = 0.0\nsamples = 2\nvalue = [0, 2]", fillcolor="#399de5"] ;
29 -> 31 ;
32 [label="shell_weight <= 0.098\ngini = 0.219\nsamples = 8\nvalue = [7, 1]", fillcolor="#e99355"] ;
28 -> 32 ;
33 [label="gini = 0.0\nsamples = 7\nvalue = [7, 0]", fillcolor="#e58139"] ;
32 -> 33 ;
34 [label="gini = 0.0\nsamples = 1\nvalue = [0, 1]", fillcolor="#399de5"] ;
32 -> 34 ;
35 [label="length <= 0.39\ngini = 0.444\nsamples = 9\nvalue = [3, 6]", fillcolor="#9ccef2"] ;
27 -> 35 ;
36 [label="gini = 0.0\nsamples = 5\nvalue = [0, 5]", fillcolor="#399de5"] ;
35 -> 36 ;
37 [label="height <= 0.088\ngini = 0.375\nsamples = 4\nvalue = [3, 1]", fillcolor="#eeab7b"] ;
35 -> 37 ;
38 [label="gini = 0.0\nsamples = 1\nvalue = [0, 1]", fillcolor="#399de5"] ;
37 -> 38 ;
39 [label="gini = 0.0\nsamples = 3\nvalue = [3, 0]", fillcolor="#e58139"] ;
37 -> 39 ;
40 [label="gini = 0.0\nsamples = 7\nvalue = [0, 7]", fillcolor="#399de5"] ;
12 -> 40 ;
41 [label="shell_weight <= 0.125\ngini = 0.339\nsamples = 60\nvalue = [47, 13]", fillcolor="#eca470"] ;
11 -> 41 ;
42 [label="length <= 0.412\ngini = 0.208\nsamples = 34\nvalue = [30, 4]", fillcolor="#e89253"] ;
41 -> 42 ;
43 [label="length <= 0.39\ngini = 0.391\nsamples = 15\nvalue = [11, 4]", fillcolor="#eeaf81"] ;
42 -> 43 ;
44 [label="gini = 0.0\nsamples = 7\nvalue = [7, 0]", fillcolor="#e58139"] ;
43 -> 44 ;
45 [label="height <= 0.102\ngini = 0.5\nsamples = 8\nvalue = [4, 4]", fillcolor="#ffffff"] ;
43 -> 45 ;
46 [label="gini = 0.0\nsamples = 2\nvalue = [2, 0]", fillcolor="#e58139"] ;
45 -> 46 ;
47 [label="viscera_weight <= 0.066\ngini = 0.444\nsamples = 6\nvalue = [2, 4]", fillcolor="#9ccef2"] ;
45 -> 47 ;
48 [label="gender_F <= 0.5\ngini = 0.444\nsamples = 3\nvalue = [2, 1]", fillcolor="#f2c09c"] ;
47 -> 48 ;
49 [label="gini = 0.0\nsamples = 1\nvalue = [0, 1]", fillcolor="#399de5"] ;
48 -> 49 ;
50 [label="gini = 0.0\nsamples = 2\nvalue = [2, 0]", fillcolor="#e58139"] ;
48 -> 50 ;
51 [label="gini = 0.0\nsamples = 3\nvalue = [0, 3]", fillcolor="#399de5"] ;
47 -> 51 ;
52 [label="gini = 0.0\nsamples = 19\nvalue = [19, 0]", fillcolor="#e58139"] ;
42 -> 52 ;
53 [label="whole_weight <= 0.418\ngini = 0.453\nsamples = 26\nvalue = [17, 9]", fillcolor="#f3c4a2"] ;
41 -> 53 ;
54 [label="diameter <= 0.338\ngini = 0.408\nsamples = 7\nvalue = [2, 5]", fillcolor="#88c4ef"] ;
53 -> 54 ;
55 [label="gini = 0.0\nsamples = 2\nvalue = [2, 0]", fillcolor="#e58139"] ;
54 -> 55 ;
56 [label="gini = 0.0\nsamples = 5\nvalue = [0, 5]", fillcolor="#399de5"] ;
54 -> 56 ;
57 [label="shell_weight <= 0.15\ngini = 0.332\nsamples = 19\nvalue = [15, 4]", fillcolor="#eca36e"] ;
53 -> 57 ;
58 [label="whole_weight <= 0.503\ngini = 0.219\nsamples = 16\nvalue = [14, 2]", fillcolor="#e99355"] ;
57 -> 58 ;
59 [label="viscera_weight <= 0.084\ngini = 0.124\nsamples = 15\nvalue = [14, 1]", fillcolor="#e78a47"] ;
58 -> 59 ;
60 [label="whole_weight <= 0.443\ngini = 0.444\nsamples = 3\nvalue = [2, 1]", fillcolor="#f2c09c"] ;
59 -> 60 ;
61 [label="gini = 0.0\nsamples = 2\nvalue = [2, 0]", fillcolor="#e58139"] ;
60 -> 61 ;
62 [label="gini = 0.0\nsamples = 1\nvalue = [0, 1]", fillcolor="#399de5"] ;
60 -> 62 ;
63 [label="gini = 0.0\nsamples = 12\nvalue = [12, 0]", fillcolor="#e58139"] ;
59 -> 63 ;
64 [label="gini = 0.0\nsamples = 1\nvalue = [0, 1]", fillcolor="#399de5"] ;
58 -> 64 ;
65 [label="viscera_weight <= 0.108\ngini = 0.444\nsamples = 3\nvalue = [1, 2]", fillcolor="#9ccef2"] ;
57 -> 65 ;
66 [label="gini = 0.0\nsamples = 2\nvalue = [0, 2]", fillcolor="#399de5"] ;
65 -> 66 ;
67 [label="gini = 0.0\nsamples = 1\nvalue = [1, 0]", fillcolor="#e58139"] ;
65 -> 67 ;
68 [label="length <= 0.447\ngini = 0.486\nsamples = 48\nvalue = [20, 28]", fillcolor="#c6e3f8"] ;
10 -> 68 ;
69 [label="length <= 0.403\ngini = 0.365\nsamples = 25\nvalue = [6, 19]", fillcolor="#78bced"] ;
68 -> 69 ;
70 [label="length <= 0.387\ngini = 0.48\nsamples = 5\nvalue = [3, 2]", fillcolor="#f6d5bd"] ;
69 -> 70 ;
71 [label="gini = 0.0\nsamples = 2\nvalue = [0, 2]", fillcolor="#399de5"] ;
70 -> 71 ;
72 [label="gini = 0.0\nsamples = 3\nvalue = [3, 0]", fillcolor="#e58139"] ;
70 -> 72 ;
73 [label="shucked_weight <= 0.194\ngini = 0.255\nsamples = 20\nvalue = [3, 17]", fillcolor="#5caeea"] ;
69 -> 73 ;
74 [label="length <= 0.438\ngini = 0.111\nsamples = 17\nvalue = [1, 16]", fillcolor="#45a3e7"] ;
73 -> 74 ;
75 [label="gini = 0.0\nsamples = 14\nvalue = [0, 14]", fillcolor="#399de5"] ;
74 -> 75 ;
76 [label="height <= 0.138\ngini = 0.444\nsamples = 3\nvalue = [1, 2]", fillcolor="#9ccef2"] ;
74 -> 76 ;
77 [label="gini = 0.0\nsamples = 1\nvalue = [1, 0]", fillcolor="#e58139"] ;
76 -> 77 ;
78 [label="gini = 0.0\nsamples = 2\nvalue = [0, 2]", fillcolor="#399de5"] ;
76 -> 78 ;
79 [label="shucked_weight <= 0.202\ngini = 0.444\nsamples = 3\nvalue = [2, 1]", fillcolor="#f2c09c"] ;
73 -> 79 ;
80 [label="gini = 0.0\nsamples = 2\nvalue = [2, 0]", fillcolor="#e58139"] ;
79 -> 80 ;
81 [label="gini = 0.0\nsamples = 1\nvalue = [0, 1]", fillcolor="#399de5"] ;
79 -> 81 ;
82 [label="viscera_weight <= 0.105\ngini = 0.476\nsamples = 23\nvalue = [14, 9]", fillcolor="#f6d2b8"] ;
68 -> 82 ;
83 [label="height <= 0.135\ngini = 0.219\nsamples = 8\nvalue = [7, 1]", fillcolor="#e99355"] ;
82 -> 83 ;
84 [label="gini = 0.0\nsamples = 7\nvalue = [7, 0]", fillcolor="#e58139"] ;
83 -> 84 ;
85 [label="gini = 0.0\nsamples = 1\nvalue = [0, 1]", fillcolor="#399de5"] ;
83 -> 85 ;
86 [label="whole_weight <= 0.459\ngini = 0.498\nsamples = 15\nvalue = [7, 8]", fillcolor="#e6f3fc"] ;
82 -> 86 ;
87 [label="gini = 0.0\nsamples = 4\nvalue = [0, 4]", fillcolor="#399de5"] ;
86 -> 87 ;
88 [label="gender_M <= 0.5\ngini = 0.463\nsamples = 11\nvalue = [7, 4]", fillcolor="#f4c9aa"] ;
86 -> 88 ;
89 [label="height <= 0.127\ngini = 0.49\nsamples = 7\nvalue = [3, 4]", fillcolor="#cee6f8"] ;
88 -> 89 ;
90 [label="viscera_weight <= 0.106\ngini = 0.375\nsamples = 4\nvalue = [3, 1]", fillcolor="#eeab7b"] ;
89 -> 90 ;
91 [label="gini = 0.0\nsamples = 1\nvalue = [0, 1]", fillcolor="#399de5"] ;
90 -> 91 ;
92 [label="gini = 0.0\nsamples = 3\nvalue = [3, 0]", fillcolor="#e58139"] ;
90 -> 92 ;
93 [label="gini = 0.0\nsamples = 3\nvalue = [0, 3]", fillcolor="#399de5"] ;
89 -> 93 ;
94 [label="gini = 0.0\nsamples = 4\nvalue = [4, 0]", fillcolor="#e58139"] ;
88 -> 94 ;
95 [label="shucked_weight <= 0.397\ngini = 0.053\nsamples = 37\nvalue = [36, 1]", fillcolor="#e6843e"] ;
3 -> 95 ;
96 [label="gini = 0.0\nsamples = 36\nvalue = [36, 0]", fillcolor="#e58139"] ;
95 -> 96 ;
97 [label="gini = 0.0\nsamples = 1\nvalue = [0, 1]", fillcolor="#399de5"] ;
95 -> 97 ;
98 [label="height <= 0.098\ngini = 0.104\nsamples = 543\nvalue = [513, 30]", fillcolor="#e78845"] ;
2 -> 98 ;
99 [label="viscera_weight <= 0.035\ngini = 0.02\nsamples = 297\nvalue = [294, 3]", fillcolor="#e5823b"] ;
98 -> 99 ;
100 [label="diameter <= 0.257\ngini = 0.044\nsamples = 133\nvalue = [130, 3]", fillcolor="#e6843e"] ;
99 -> 100 ;
101 [label="diameter <= 0.242\ngini = 0.016\nsamples = 126\nvalue = [125, 1]", fillcolor="#e5823b"] ;
100 -> 101 ;
102 [label="gini = 0.0\nsamples = 115\nvalue = [115, 0]", fillcolor="#e58139"] ;
101 -> 102 ;
103 [label="length <= 0.322\ngini = 0.165\nsamples = 11\nvalue = [10, 1]", fillcolor="#e88e4d"] ;
101 -> 103 ;
104 [label="viscera_weight <= 0.033\ngini = 0.444\nsamples = 3\nvalue = [2, 1]", fillcolor="#f2c09c"] ;
103 -> 104 ;
105 [label="gini = 0.0\nsamples = 1\nvalue = [0, 1]", fillcolor="#399de5"] ;
104 -> 105 ;
106 [label="gini = 0.0\nsamples = 2\nvalue = [2, 0]", fillcolor="#e58139"] ;
104 -> 106 ;
107 [label="gini = 0.0\nsamples = 8\nvalue = [8, 0]", fillcolor="#e58139"] ;
103 -> 107 ;
108 [label="whole_weight <= 0.186\ngini = 0.408\nsamples = 7\nvalue = [5, 2]", fillcolor="#efb388"] ;
100 -> 108 ;
109 [label="whole_weight <= 0.174\ngini = 0.444\nsamples = 3\nvalue = [1, 2]", fillcolor="#9ccef2"] ;
108 -> 109 ;
110 [label="gini = 0.0\nsamples = 1\nvalue = [1, 0]", fillcolor="#e58139"] ;
109 -> 110 ;
111 [label="gini = 0.0\nsamples = 2\nvalue = [0, 2]", fillcolor="#399de5"] ;
109 -> 111 ;
112 [label="gini = 0.0\nsamples = 4\nvalue = [4, 0]", fillcolor="#e58139"] ;
108 -> 112 ;
113 [label="gini = 0.0\nsamples = 164\nvalue = [164, 0]", fillcolor="#e58139"] ;
99 -> 113 ;
114 [label="height <= 0.133\ngini = 0.195\nsamples = 246\nvalue = [219, 27]", fillcolor="#e89151"] ;
98 -> 114 ;
115 [label="shucked_weight <= 0.157\ngini = 0.174\nsamples = 228\nvalue = [206, 22]", fillcolor="#e88e4e"] ;
114 -> 115 ;
116 [label="shell_weight <= 0.099\ngini = 0.292\nsamples = 79\nvalue = [65, 14]", fillcolor="#eb9c64"] ;
115 -> 116 ;
117 [label="whole_weight <= 0.263\ngini = 0.153\nsamples = 48\nvalue = [44, 4]", fillcolor="#e78c4b"] ;
116 -> 117 ;
118 [label="whole_weight <= 0.259\ngini = 0.346\nsamples = 18\nvalue = [14, 4]", fillcolor="#eca572"] ;
117 -> 118 ;
119 [label="diameter <= 0.282\ngini = 0.291\nsamples = 17\nvalue = [14, 3]", fillcolor="#eb9c63"] ;
118 -> 119 ;
120 [label="shell_weight <= 0.071\ngini = 0.397\nsamples = 11\nvalue = [8, 3]", fillcolor="#efb083"] ;
119 -> 120 ;
121 [label="gini = 0.0\nsamples = 5\nvalue = [5, 0]", fillcolor="#e58139"] ;
120 -> 121 ;
122 [label="height <= 0.105\ngini = 0.5\nsamples = 6\nvalue = [3, 3]", fillcolor="#ffffff"] ;
120 -> 122 ;
123 [label="gini = 0.0\nsamples = 2\nvalue = [0, 2]", fillcolor="#399de5"] ;
122 -> 123 ;
124 [label="whole_weight <= 0.239\ngini = 0.375\nsamples = 4\nvalue = [3, 1]", fillcolor="#eeab7b"] ;
122 -> 124 ;
125 [label="length <= 0.358\ngini = 0.5\nsamples = 2\nvalue = [1, 1]", fillcolor="#ffffff"] ;
124 -> 125 ;
126 [label="gini = 0.0\nsamples = 1\nvalue = [1, 0]", fillcolor="#e58139"] ;
125 -> 126 ;
127 [label="gini = 0.0\nsamples = 1\nvalue = [0, 1]", fillcolor="#399de5"] ;
125 -> 127 ;
128 [label="gini = 0.0\nsamples = 2\nvalue = [2, 0]", fillcolor="#e58139"] ;
124 -> 128 ;
129 [label="gini = 0.0\nsamples = 6\nvalue = [6, 0]", fillcolor="#e58139"] ;
119 -> 129 ;
130 [label="gini = 0.0\nsamples = 1\nvalue = [0, 1]", fillcolor="#399de5"] ;
118 -> 130 ;
131 [label="gini = 0.0\nsamples = 30\nvalue = [30, 0]", fillcolor="#e58139"] ;
117 -> 131 ;
132 [label="shucked_weight <= 0.123\ngini = 0.437\nsamples = 31\nvalue = [21, 10]", fillcolor="#f1bd97"] ;
116 -> 132 ;
133 [label="gini = 0.0\nsamples = 3\nvalue = [0, 3]", fillcolor="#399de5"] ;
132 -> 133 ;
134 [label="diameter <= 0.312\ngini = 0.375\nsamples = 28\nvalue = [21, 7]", fillcolor="#eeab7b"] ;
132 -> 134 ;
135 [label="diameter <= 0.303\ngini = 0.375\nsamples = 4\nvalue = [1, 3]", fillcolor="#7bbeee"] ;
134 -> 135 ;
136 [label="gini = 0.0\nsamples = 1\nvalue = [1, 0]", fillcolor="#e58139"] ;
135 -> 136 ;
137 [label="gini = 0.0\nsamples = 3\nvalue = [0, 3]", fillcolor="#399de5"] ;
135 -> 137 ;
138 [label="diameter <= 0.375\ngini = 0.278\nsamples = 24\nvalue = [20, 4]", fillcolor="#ea9a61"] ;
134 -> 138 ;
139 [label="shell_weight <= 0.146\ngini = 0.227\nsamples = 23\nvalue = [20, 3]", fillcolor="#e99457"] ;
138 -> 139 ;
140 [label="shucked_weight <= 0.153\ngini = 0.165\nsamples = 22\nvalue = [20, 2]", fillcolor="#e88e4d"] ;
139 -> 140 ;
141 [label="gini = 0.0\nsamples = 18\nvalue = [18, 0]", fillcolor="#e58139"] ;
140 -> 141 ;
142 [label="shucked_weight <= 0.154\ngini = 0.5\nsamples = 4\nvalue = [2, 2]", fillcolor="#ffffff"] ;
140 -> 142 ;
143 [label="gini = 0.0\nsamples = 1\nvalue = [0, 1]", fillcolor="#399de5"] ;
142 -> 143 ;
144 [label="whole_weight <= 0.377\ngini = 0.444\nsamples = 3\nvalue = [2, 1]", fillcolor="#f2c09c"] ;
142 -> 144 ;
145 [label="gini = 0.0\nsamples = 2\nvalue = [2, 0]", fillcolor="#e58139"] ;
144 -> 145 ;
146 [label="gini = 0.0\nsamples = 1\nvalue = [0, 1]", fillcolor="#399de5"] ;
144 -> 146 ;
147 [label="gini = 0.0\nsamples = 1\nvalue = [0, 1]", fillcolor="#399de5"] ;
139 -> 147 ;
148 [label="gini = 0.0\nsamples = 1\nvalue = [0, 1]", fillcolor="#399de5"] ;
138 -> 148 ;
149 [label="length <= 0.512\ngini = 0.102\nsamples = 149\nvalue = [141, 8]", fillcolor="#e68844"] ;
115 -> 149 ;
150 [label="shell_weight <= 0.136\ngini = 0.079\nsamples = 145\nvalue = [139, 6]", fillcolor="#e68642"] ;
149 -> 150 ;
151 [label="viscera_weight <= 0.063\ngini = 0.038\nsamples = 104\nvalue = [102, 2]", fillcolor="#e6833d"] ;
150 -> 151 ;
152 [label="shucked_weight <= 0.17\ngini = 0.32\nsamples = 5\nvalue = [4, 1]", fillcolor="#eca06a"] ;
151 -> 152 ;
153 [label="gini = 0.0\nsamples = 1\nvalue = [0, 1]", fillcolor="#399de5"] ;
152 -> 153 ;
154 [label="gini = 0.0\nsamples = 4\nvalue = [4, 0]", fillcolor="#e58139"] ;
152 -> 154 ;
155 [label="viscera_weight <= 0.108\ngini = 0.02\nsamples = 99\nvalue = [98, 1]", fillcolor="#e5823b"] ;
151 -> 155 ;
156 [label="gini = 0.0\nsamples = 81\nvalue = [81, 0]", fillcolor="#e58139"] ;
155 -> 156 ;
157 [label="whole_weight <= 0.443\ngini = 0.105\nsamples = 18\nvalue = [17, 1]", fillcolor="#e78845"] ;
155 -> 157 ;
158 [label="length <= 0.46\ngini = 0.5\nsamples = 2\nvalue = [1, 1]", fillcolor="#ffffff"] ;
157 -> 158 ;
159 [label="gini = 0.0\nsamples = 1\nvalue = [0, 1]", fillcolor="#399de5"] ;
158 -> 159 ;
160 [label="gini = 0.0\nsamples = 1\nvalue = [1, 0]", fillcolor="#e58139"] ;
158 -> 160 ;
161 [label="gini = 0.0\nsamples = 16\nvalue = [16, 0]", fillcolor="#e58139"] ;
157 -> 161 ;
162 [label="shucked_weight <= 0.196\ngini = 0.176\nsamples = 41\nvalue = [37, 4]", fillcolor="#e88f4e"] ;
150 -> 162 ;
163 [label="shell_weight <= 0.148\ngini = 0.397\nsamples = 11\nvalue = [8, 3]", fillcolor="#efb083"] ;
162 -> 163 ;
164 [label="diameter <= 0.365\ngini = 0.5\nsamples = 6\nvalue = [3, 3]", fillcolor="#ffffff"] ;
163 -> 164 ;
165 [label="shell_weight <= 0.142\ngini = 0.375\nsamples = 4\nvalue = [3, 1]", fillcolor="#eeab7b"] ;
164 -> 165 ;
166 [label="gini = 0.0\nsamples = 3\nvalue = [3, 0]", fillcolor="#e58139"] ;
165 -> 166 ;
167 [label="gini = 0.0\nsamples = 1\nvalue = [0, 1]", fillcolor="#399de5"] ;
165 -> 167 ;
168 [label="gini = 0.0\nsamples = 2\nvalue = [0, 2]", fillcolor="#399de5"] ;
164 -> 168 ;
169 [label="gini = 0.0\nsamples = 5\nvalue = [5, 0]", fillcolor="#e58139"] ;
163 -> 169 ;
170 [label="height <= 0.107\ngini = 0.064\nsamples = 30\nvalue = [29, 1]", fillcolor="#e68540"] ;
162 -> 170 ;
171 [label="viscera_weight <= 0.106\ngini = 0.375\nsamples = 4\nvalue = [3, 1]", fillcolor="#eeab7b"] ;
170 -> 171 ;
172 [label="gini = 0.0\nsamples = 3\nvalue = [3, 0]", fillcolor="#e58139"] ;
171 -> 172 ;
173 [label="gini = 0.0\nsamples = 1\nvalue = [0, 1]", fillcolor="#399de5"] ;
171 -> 173 ;
174 [label="gini = 0.0\nsamples = 26\nvalue = [26, 0]", fillcolor="#e58139"] ;
170 -> 174 ;
175 [label="viscera_weight <= 0.123\ngini = 0.5\nsamples = 4\nvalue = [2, 2]", fillcolor="#ffffff"] ;
149 -> 175 ;
176 [label="gini = 0.0\nsamples = 2\nvalue = [2, 0]", fillcolor="#e58139"] ;
175 -> 176 ;
177 [label="gini = 0.0\nsamples = 2\nvalue = [0, 2]", fillcolor="#399de5"] ;
175 -> 177 ;
178 [label="viscera_weight <= 0.127\ngini = 0.401\nsamples = 18\nvalue = [13, 5]", fillcolor="#efb185"] ;
114 -> 178 ;
179 [label="length <= 0.453\ngini = 0.32\nsamples = 15\nvalue = [12, 3]", fillcolor="#eca06a"] ;
178 -> 179 ;
180 [label="whole_weight <= 0.434\ngini = 0.49\nsamples = 7\nvalue = [4, 3]", fillcolor="#f8e0ce"] ;
179 -> 180 ;
181 [label="gini = 0.0\nsamples = 4\nvalue = [4, 0]", fillcolor="#e58139"] ;
180 -> 181 ;
182 [label="gini = 0.0\nsamples = 3\nvalue = [0, 3]", fillcolor="#399de5"] ;
180 -> 182 ;
183 [label="gini = 0.0\nsamples = 8\nvalue = [8, 0]", fillcolor="#e58139"] ;
179 -> 183 ;
184 [label="viscera_weight <= 0.147\ngini = 0.444\nsamples = 3\nvalue = [1, 2]", fillcolor="#9ccef2"] ;
178 -> 184 ;
185 [label="gini = 0.0\nsamples = 2\nvalue = [0, 2]", fillcolor="#399de5"] ;
184 -> 185 ;
186 [label="gini = 0.0\nsamples = 1\nvalue = [1, 0]", fillcolor="#e58139"] ;
184 -> 186 ;
187 [label="shucked_weight <= 0.32\ngini = 0.491\nsamples = 569\nvalue = [323, 246]", fillcolor="#f9e1d0"] ;
1 -> 187 ;
188 [label="gender_I <= 0.5\ngini = 0.49\nsamples = 318\nvalue = [137, 181]", fillcolor="#cfe7f9"] ;
187 -> 188 ;
189 [label="shell_weight <= 0.186\ngini = 0.417\nsamples = 199\nvalue = [59, 140]", fillcolor="#8cc6f0"] ;
188 -> 189 ;
190 [label="length <= 0.502\ngini = 0.489\nsamples = 99\nvalue = [42, 57]", fillcolor="#cbe5f8"] ;
189 -> 190 ;
191 [label="shucked_weight <= 0.237\ngini = 0.414\nsamples = 65\nvalue = [19, 46]", fillcolor="#8bc5f0"] ;
190 -> 191 ;
192 [label="height <= 0.165\ngini = 0.266\nsamples = 38\nvalue = [6, 32]", fillcolor="#5eafea"] ;
191 -> 192 ;
193 [label="viscera_weight <= 0.115\ngini = 0.234\nsamples = 37\nvalue = [5, 32]", fillcolor="#58ace9"] ;
192 -> 193 ;
194 [label="viscera_weight <= 0.095\ngini = 0.426\nsamples = 13\nvalue = [4, 9]", fillcolor="#91c9f1"] ;
193 -> 194 ;
195 [label="gini = 0.0\nsamples = 5\nvalue = [0, 5]", fillcolor="#399de5"] ;
194 -> 195 ;
196 [label="length <= 0.463\ngini = 0.5\nsamples = 8\nvalue = [4, 4]", fillcolor="#ffffff"] ;
194 -> 196 ;
197 [label="viscera_weight <= 0.106\ngini = 0.444\nsamples = 6\nvalue = [4, 2]", fillcolor="#f2c09c"] ;
196 -> 197 ;
198 [label="gini = 0.0\nsamples = 3\nvalue = [3, 0]", fillcolor="#e58139"] ;
197 -> 198 ;
199 [label="shell_weight <= 0.171\ngini = 0.444\nsamples = 3\nvalue = [1, 2]", fillcolor="#9ccef2"] ;
197 -> 199 ;
200 [label="gini = 0.0\nsamples = 2\nvalue = [0, 2]", fillcolor="#399de5"] ;
199 -> 200 ;
201 [label="gini = 0.0\nsamples = 1\nvalue = [1, 0]", fillcolor="#e58139"] ;
199 -> 201 ;
202 [label="gini = 0.0\nsamples = 2\nvalue = [0, 2]", fillcolor="#399de5"] ;
196 -> 202 ;
203 [label="viscera_weight <= 0.133\ngini = 0.08\nsamples = 24\nvalue = [1, 23]", fillcolor="#42a1e6"] ;
193 -> 203 ;
204 [label="gini = 0.0\nsamples = 16\nvalue = [0, 16]", fillcolor="#399de5"] ;
203 -> 204 ;
205 [label="viscera_weight <= 0.134\ngini = 0.219\nsamples = 8\nvalue = [1, 7]", fillcolor="#55abe9"] ;
203 -> 205 ;
206 [label="gini = 0.0\nsamples = 1\nvalue = [1, 0]", fillcolor="#e58139"] ;
205 -> 206 ;
207 [label="gini = 0.0\nsamples = 7\nvalue = [0, 7]", fillcolor="#399de5"] ;
205 -> 207 ;
208 [label="gini = 0.0\nsamples = 1\nvalue = [1, 0]", fillcolor="#e58139"] ;
192 -> 208 ;
209 [label="shell_weight <= 0.171\ngini = 0.499\nsamples = 27\nvalue = [13, 14]", fillcolor="#f1f8fd"] ;
191 -> 209 ;
210 [label="viscera_weight <= 0.145\ngini = 0.346\nsamples = 9\nvalue = [7, 2]", fillcolor="#eca572"] ;
209 -> 210 ;
211 [label="gini = 0.0\nsamples = 7\nvalue = [7, 0]", fillcolor="#e58139"] ;
210 -> 211 ;
212 [label="gini = 0.0\nsamples = 2\nvalue = [0, 2]", fillcolor="#399de5"] ;
210 -> 212 ;
213 [label="length <= 0.493\ngini = 0.444\nsamples = 18\nvalue = [6, 12]", fillcolor="#9ccef2"] ;
209 -> 213 ;
214 [label="height <= 0.142\ngini = 0.497\nsamples = 13\nvalue = [6, 7]", fillcolor="#e3f1fb"] ;
213 -> 214 ;
215 [label="shucked_weight <= 0.268\ngini = 0.463\nsamples = 11\nvalue = [4, 7]", fillcolor="#aad5f4"] ;
214 -> 215 ;
216 [label="diameter <= 0.358\ngini = 0.245\nsamples = 7\nvalue = [1, 6]", fillcolor="#5aade9"] ;
215 -> 216 ;
217 [label="gini = 0.0\nsamples = 1\nvalue = [1, 0]", fillcolor="#e58139"] ;
216 -> 217 ;
218 [label="gini = 0.0\nsamples = 6\nvalue = [0, 6]", fillcolor="#399de5"] ;
216 -> 218 ;
219 [label="length <= 0.477\ngini = 0.375\nsamples = 4\nvalue = [3, 1]", fillcolor="#eeab7b"] ;
215 -> 219 ;
220 [label="gini = 0.0\nsamples = 1\nvalue = [0, 1]", fillcolor="#399de5"] ;
219 -> 220 ;
221 [label="gini = 0.0\nsamples = 3\nvalue = [3, 0]", fillcolor="#e58139"] ;
219 -> 221 ;
222 [label="gini = 0.0\nsamples = 2\nvalue = [2, 0]", fillcolor="#e58139"] ;
214 -> 222 ;
223 [label="gini = 0.0\nsamples = 5\nvalue = [0, 5]", fillcolor="#399de5"] ;
213 -> 223 ;
224 [label="whole_weight <= 0.583\ngini = 0.438\nsamples = 34\nvalue = [23, 11]", fillcolor="#f1bd98"] ;
190 -> 224 ;
225 [label="gini = 0.0\nsamples = 8\nvalue = [8, 0]", fillcolor="#e58139"] ;
224 -> 225 ;
226 [label="whole_weight <= 0.611\ngini = 0.488\nsamples = 26\nvalue = [15, 11]", fillcolor="#f8ddca"] ;
224 -> 226 ;
227 [label="gini = 0.0\nsamples = 4\nvalue = [0, 4]", fillcolor="#399de5"] ;
226 -> 227 ;
228 [label="viscera_weight <= 0.163\ngini = 0.434\nsamples = 22\nvalue = [15, 7]", fillcolor="#f1bc95"] ;
226 -> 228 ;
229 [label="shucked_weight <= 0.265\ngini = 0.245\nsamples = 14\nvalue = [12, 2]", fillcolor="#e9965a"] ;
228 -> 229 ;
230 [label="viscera_weight <= 0.15\ngini = 0.444\nsamples = 3\nvalue = [1, 2]", fillcolor="#9ccef2"] ;
229 -> 230 ;
231 [label="gini = 0.0\nsamples = 2\nvalue = [0, 2]", fillcolor="#399de5"] ;
230 -> 231 ;
232 [label="gini = 0.0\nsamples = 1\nvalue = [1, 0]", fillcolor="#e58139"] ;
230 -> 232 ;
233 [label="gini = 0.0\nsamples = 11\nvalue = [11, 0]", fillcolor="#e58139"] ;
229 -> 233 ;
234 [label="shucked_weight <= 0.255\ngini = 0.469\nsamples = 8\nvalue = [3, 5]", fillcolor="#b0d8f5"] ;
228 -> 234 ;
235 [label="gini = 0.0\nsamples = 2\nvalue = [2, 0]", fillcolor="#e58139"] ;
234 -> 235 ;
236 [label="shucked_weight <= 0.307\ngini = 0.278\nsamples = 6\nvalue = [1, 5]", fillcolor="#61b1ea"] ;
234 -> 236 ;
237 [label="gini = 0.0\nsamples = 5\nvalue = [0, 5]", fillcolor="#399de5"] ;
236 -> 237 ;
238 [label="gini = 0.0\nsamples = 1\nvalue = [1, 0]", fillcolor="#e58139"] ;
236 -> 238 ;
239 [label="diameter <= 0.417\ngini = 0.282\nsamples = 100\nvalue = [17, 83]", fillcolor="#62b1ea"] ;
189 -> 239 ;
240 [label="whole_weight <= 0.476\ngini = 0.193\nsamples = 83\nvalue = [9, 74]", fillcolor="#51a9e8"] ;
239 -> 240 ;
241 [label="gini = 0.0\nsamples = 1\nvalue = [1, 0]", fillcolor="#e58139"] ;
240 -> 241 ;
242 [label="height <= 0.095\ngini = 0.176\nsamples = 82\nvalue = [8, 74]", fillcolor="#4ea8e8"] ;
240 -> 242 ;
243 [label="gini = 0.0\nsamples = 1\nvalue = [1, 0]", fillcolor="#e58139"] ;
242 -> 243 ;
244 [label="shucked_weight <= 0.311\ngini = 0.158\nsamples = 81\nvalue = [7, 74]", fillcolor="#4ca6e7"] ;
242 -> 244 ;
245 [label="length <= 0.463\ngini = 0.104\nsamples = 73\nvalue = [4, 69]", fillcolor="#44a3e7"] ;
244 -> 245 ;
246 [label="height <= 0.145\ngini = 0.5\nsamples = 2\nvalue = [1, 1]", fillcolor="#ffffff"] ;
245 -> 246 ;
247 [label="gini = 0.0\nsamples = 1\nvalue = [1, 0]", fillcolor="#e58139"] ;
246 -> 247 ;
248 [label="gini = 0.0\nsamples = 1\nvalue = [0, 1]", fillcolor="#399de5"] ;
246 -> 248 ;
249 [label="length <= 0.548\ngini = 0.081\nsamples = 71\nvalue = [3, 68]", fillcolor="#42a1e6"] ;
245 -> 249 ;
250 [label="viscera_weight <= 0.17\ngini = 0.056\nsamples = 69\nvalue = [2, 67]", fillcolor="#3fa0e6"] ;
249 -> 250 ;
251 [label="gini = 0.0\nsamples = 58\nvalue = [0, 58]", fillcolor="#399de5"] ;
250 -> 251 ;
252 [label="shucked_weight <= 0.258\ngini = 0.298\nsamples = 11\nvalue = [2, 9]", fillcolor="#65b3eb"] ;
250 -> 252 ;
253 [label="whole_weight <= 0.65\ngini = 0.444\nsamples = 3\nvalue = [2, 1]", fillcolor="#f2c09c"] ;
252 -> 253 ;
254 [label="gini = 0.0\nsamples = 1\nvalue = [0, 1]", fillcolor="#399de5"] ;
253 -> 254 ;
255 [label="gini = 0.0\nsamples = 2\nvalue = [2, 0]", fillcolor="#e58139"] ;
253 -> 255 ;
256 [label="gini = 0.0\nsamples = 8\nvalue = [0, 8]", fillcolor="#399de5"] ;
252 -> 256 ;
257 [label="shell_weight <= 0.197\ngini = 0.5\nsamples = 2\nvalue = [1, 1]", fillcolor="#ffffff"] ;
249 -> 257 ;
258 [label="gini = 0.0\nsamples = 1\nvalue = [0, 1]", fillcolor="#399de5"] ;
257 -> 258 ;
259 [label="gini = 0.0\nsamples = 1\nvalue = [1, 0]", fillcolor="#e58139"] ;
257 -> 259 ;
260 [label="viscera_weight <= 0.134\ngini = 0.469\nsamples = 8\nvalue = [3, 5]", fillcolor="#b0d8f5"] ;
244 -> 260 ;
261 [label="gini = 0.0\nsamples = 2\nvalue = [2, 0]", fillcolor="#e58139"] ;
260 -> 261 ;
262 [label="length <= 0.53\ngini = 0.278\nsamples = 6\nvalue = [1, 5]", fillcolor="#61b1ea"] ;
260 -> 262 ;
263 [label="gini = 0.0\nsamples = 5\nvalue = [0, 5]", fillcolor="#399de5"] ;
262 -> 263 ;
264 [label="gini = 0.0\nsamples = 1\nvalue = [1, 0]", fillcolor="#e58139"] ;
262 -> 264 ;
265 [label="viscera_weight <= 0.158\ngini = 0.498\nsamples = 17\nvalue = [8, 9]", fillcolor="#e9f4fc"] ;
239 -> 265 ;
266 [label="whole_weight <= 0.643\ngini = 0.42\nsamples = 10\nvalue = [7, 3]", fillcolor="#f0b78e"] ;
265 -> 266 ;
267 [label="shucked_weight <= 0.279\ngini = 0.375\nsamples = 4\nvalue = [1, 3]", fillcolor="#7bbeee"] ;
266 -> 267 ;
268 [label="gini = 0.0\nsamples = 3\nvalue = [0, 3]", fillcolor="#399de5"] ;
267 -> 268 ;
269 [label="gini = 0.0\nsamples = 1\nvalue = [1, 0]", fillcolor="#e58139"] ;
267 -> 269 ;
270 [label="gini = 0.0\nsamples = 6\nvalue = [6, 0]", fillcolor="#e58139"] ;
266 -> 270 ;
271 [label="length <= 0.57\ngini = 0.245\nsamples = 7\nvalue = [1, 6]", fillcolor="#5aade9"] ;
265 -> 271 ;
272 [label="gini = 0.0\nsamples = 5\nvalue = [0, 5]", fillcolor="#399de5"] ;
271 -> 272 ;
273 [label="length <= 0.6\ngini = 0.5\nsamples = 2\nvalue = [1, 1]", fillcolor="#ffffff"] ;
271 -> 273 ;
274 [label="gini = 0.0\nsamples = 1\nvalue = [1, 0]", fillcolor="#e58139"] ;
273 -> 274 ;
275 [label="gini = 0.0\nsamples = 1\nvalue = [0, 1]", fillcolor="#399de5"] ;
273 -> 275 ;
276 [label="viscera_weight <= 0.165\ngini = 0.452\nsamples = 119\nvalue = [78, 41]", fillcolor="#f3c3a1"] ;
188 -> 276 ;
277 [label="shell_weight <= 0.155\ngini = 0.409\nsamples = 108\nvalue = [77, 31]", fillcolor="#efb489"] ;
276 -> 277 ;
278 [label="gini = 0.0\nsamples = 3\nvalue = [0, 3]", fillcolor="#399de5"] ;
277 -> 278 ;
279 [label="shell_weight <= 0.211\ngini = 0.391\nsamples = 105\nvalue = [77, 28]", fillcolor="#eeaf81"] ;
277 -> 279 ;
280 [label="diameter <= 0.368\ngini = 0.356\nsamples = 95\nvalue = [73, 22]", fillcolor="#eda775"] ;
279 -> 280 ;
281 [label="shell_weight <= 0.176\ngini = 0.5\nsamples = 16\nvalue = [8, 8]", fillcolor="#ffffff"] ;
280 -> 281 ;
282 [label="whole_weight <= 0.41\ngini = 0.444\nsamples = 12\nvalue = [4, 8]", fillcolor="#9ccef2"] ;
281 -> 282 ;
283 [label="gini = 0.0\nsamples = 2\nvalue = [2, 0]", fillcolor="#e58139"] ;
282 -> 283 ;
284 [label="height <= 0.127\ngini = 0.32\nsamples = 10\nvalue = [2, 8]", fillcolor="#6ab6ec"] ;
282 -> 284 ;
285 [label="gini = 0.0\nsamples = 7\nvalue = [0, 7]", fillcolor="#399de5"] ;
284 -> 285 ;
286 [label="whole_weight <= 0.552\ngini = 0.444\nsamples = 3\nvalue = [2, 1]", fillcolor="#f2c09c"] ;
284 -> 286 ;
287 [label="gini = 0.0\nsamples = 2\nvalue = [2, 0]", fillcolor="#e58139"] ;
286 -> 287 ;
288 [label="gini = 0.0\nsamples = 1\nvalue = [0, 1]", fillcolor="#399de5"] ;
286 -> 288 ;
289 [label="gini = 0.0\nsamples = 4\nvalue = [4, 0]", fillcolor="#e58139"] ;
281 -> 289 ;
290 [label="height <= 0.148\ngini = 0.292\nsamples = 79\nvalue = [65, 14]", fillcolor="#eb9c64"] ;
280 -> 290 ;
291 [label="shucked_weight <= 0.312\ngini = 0.236\nsamples = 73\nvalue = [63, 10]", fillcolor="#e99558"] ;
290 -> 291 ;
292 [label="shucked_weight <= 0.211\ngini = 0.2\nsamples = 71\nvalue = [63, 8]", fillcolor="#e89152"] ;
291 -> 292 ;
293 [label="whole_weight <= 0.522\ngini = 0.486\nsamples = 12\nvalue = [7, 5]", fillcolor="#f8dbc6"] ;
292 -> 293 ;
294 [label="viscera_weight <= 0.083\ngini = 0.346\nsamples = 9\nvalue = [7, 2]", fillcolor="#eca572"] ;
293 -> 294 ;
295 [label="gini = 0.0\nsamples = 1\nvalue = [0, 1]", fillcolor="#399de5"] ;
294 -> 295 ;
296 [label="shucked_weight <= 0.207\ngini = 0.219\nsamples = 8\nvalue = [7, 1]", fillcolor="#e99355"] ;
294 -> 296 ;
297 [label="gini = 0.0\nsamples = 7\nvalue = [7, 0]", fillcolor="#e58139"] ;
296 -> 297 ;
298 [label="gini = 0.0\nsamples = 1\nvalue = [0, 1]", fillcolor="#399de5"] ;
296 -> 298 ;
299 [label="gini = 0.0\nsamples = 3\nvalue = [0, 3]", fillcolor="#399de5"] ;
293 -> 299 ;
300 [label="viscera_weight <= 0.15\ngini = 0.097\nsamples = 59\nvalue = [56, 3]", fillcolor="#e68844"] ;
292 -> 300 ;
301 [label="gini = 0.0\nsamples = 49\nvalue = [49, 0]", fillcolor="#e58139"] ;
300 -> 301 ;
302 [label="height <= 0.127\ngini = 0.42\nsamples = 10\nvalue = [7, 3]", fillcolor="#f0b78e"] ;
300 -> 302 ;
303 [label="gini = 0.0\nsamples = 2\nvalue = [0, 2]", fillcolor="#399de5"] ;
302 -> 303 ;
304 [label="viscera_weight <= 0.157\ngini = 0.219\nsamples = 8\nvalue = [7, 1]", fillcolor="#e99355"] ;
302 -> 304 ;
305 [label="diameter <= 0.407\ngini = 0.444\nsamples = 3\nvalue = [2, 1]", fillcolor="#f2c09c"] ;
304 -> 305 ;
306 [label="gini = 0.0\nsamples = 2\nvalue = [2, 0]", fillcolor="#e58139"] ;
305 -> 306 ;
307 [label="gini = 0.0\nsamples = 1\nvalue = [0, 1]", fillcolor="#399de5"] ;
305 -> 307 ;
308 [label="gini = 0.0\nsamples = 5\nvalue = [5, 0]", fillcolor="#e58139"] ;
304 -> 308 ;
309 [label="gini = 0.0\nsamples = 2\nvalue = [0, 2]", fillcolor="#399de5"] ;
291 -> 309 ;
310 [label="shell_weight <= 0.176\ngini = 0.444\nsamples = 6\nvalue = [2, 4]", fillcolor="#9ccef2"] ;
290 -> 310 ;
311 [label="gini = 0.0\nsamples = 2\nvalue = [2, 0]", fillcolor="#e58139"] ;
310 -> 311 ;
312 [label="gini = 0.0\nsamples = 4\nvalue = [0, 4]", fillcolor="#399de5"] ;
310 -> 312 ;
313 [label="viscera_weight <= 0.097\ngini = 0.48\nsamples = 10\nvalue = [4, 6]", fillcolor="#bddef6"] ;
279 -> 313 ;
314 [label="gini = 0.0\nsamples = 2\nvalue = [2, 0]", fillcolor="#e58139"] ;
313 -> 314 ;
315 [label="length <= 0.535\ngini = 0.375\nsamples = 8\nvalue = [2, 6]", fillcolor="#7bbeee"] ;
313 -> 315 ;
316 [label="gini = 0.0\nsamples = 5\nvalue = [0, 5]", fillcolor="#399de5"] ;
315 -> 316 ;
317 [label="shell_weight <= 0.237\ngini = 0.444\nsamples = 3\nvalue = [2, 1]", fillcolor="#f2c09c"] ;
315 -> 317 ;
318 [label="gini = 0.0\nsamples = 2\nvalue = [2, 0]", fillcolor="#e58139"] ;
317 -> 318 ;
319 [label="gini = 0.0\nsamples = 1\nvalue = [0, 1]", fillcolor="#399de5"] ;
317 -> 319 ;
320 [label="height <= 0.153\ngini = 0.165\nsamples = 11\nvalue = [1, 10]", fillcolor="#4da7e8"] ;
276 -> 320 ;
321 [label="gini = 0.0\nsamples = 9\nvalue = [0, 9]", fillcolor="#399de5"] ;
320 -> 321 ;
322 [label="whole_weight <= 0.712\ngini = 0.5\nsamples = 2\nvalue = [1, 1]", fillcolor="#ffffff"] ;
320 -> 322 ;
323 [label="gini = 0.0\nsamples = 1\nvalue = [0, 1]", fillcolor="#399de5"] ;
322 -> 323 ;
324 [label="gini = 0.0\nsamples = 1\nvalue = [1, 0]", fillcolor="#e58139"] ;
322 -> 324 ;
325 [label="shell_weight <= 0.236\ngini = 0.384\nsamples = 251\nvalue = [186, 65]", fillcolor="#eead7e"] ;
187 -> 325 ;
326 [label="diameter <= 0.463\ngini = 0.321\nsamples = 184\nvalue = [147, 37]", fillcolor="#eca16b"] ;
325 -> 326 ;
327 [label="shucked_weight <= 0.451\ngini = 0.293\nsamples = 174\nvalue = [143, 31]", fillcolor="#eb9c64"] ;
326 -> 327 ;
328 [label="shucked_weight <= 0.44\ngini = 0.328\nsamples = 150\nvalue = [119, 31]", fillcolor="#eca26d"] ;
327 -> 328 ;
329 [label="shucked_weight <= 0.334\ngini = 0.303\nsamples = 145\nvalue = [118, 27]", fillcolor="#eb9e66"] ;
328 -> 329 ;
330 [label="diameter <= 0.41\ngini = 0.444\nsamples = 30\nvalue = [20, 10]", fillcolor="#f2c09c"] ;
329 -> 330 ;
331 [label="viscera_weight <= 0.156\ngini = 0.231\nsamples = 15\nvalue = [13, 2]", fillcolor="#e99457"] ;
330 -> 331 ;
332 [label="gini = 0.0\nsamples = 10\nvalue = [10, 0]", fillcolor="#e58139"] ;
331 -> 332 ;
333 [label="viscera_weight <= 0.167\ngini = 0.48\nsamples = 5\nvalue = [3, 2]", fillcolor="#f6d5bd"] ;
331 -> 333 ;
334 [label="gini = 0.0\nsamples = 2\nvalue = [0, 2]", fillcolor="#399de5"] ;
333 -> 334 ;
335 [label="gini = 0.0\nsamples = 3\nvalue = [3, 0]", fillcolor="#e58139"] ;
333 -> 335 ;
336 [label="length <= 0.572\ngini = 0.498\nsamples = 15\nvalue = [7, 8]", fillcolor="#e6f3fc"] ;
330 -> 336 ;
337 [label="viscera_weight <= 0.183\ngini = 0.444\nsamples = 12\nvalue = [4, 8]", fillcolor="#9ccef2"] ;
336 -> 337 ;
338 [label="shucked_weight <= 0.321\ngini = 0.219\nsamples = 8\nvalue = [1, 7]", fillcolor="#55abe9"] ;
337 -> 338 ;
339 [label="gini = 0.0\nsamples = 1\nvalue = [1, 0]", fillcolor="#e58139"] ;
338 -> 339 ;
340 [label="gini = 0.0\nsamples = 7\nvalue = [0, 7]", fillcolor="#399de5"] ;
338 -> 340 ;
341 [label="viscera_weight <= 0.237\ngini = 0.375\nsamples = 4\nvalue = [3, 1]", fillcolor="#eeab7b"] ;
337 -> 341 ;
342 [label="gini = 0.0\nsamples = 3\nvalue = [3, 0]", fillcolor="#e58139"] ;
341 -> 342 ;
343 [label="gini = 0.0\nsamples = 1\nvalue = [0, 1]", fillcolor="#399de5"] ;
341 -> 343 ;
344 [label="gini = 0.0\nsamples = 3\nvalue = [3, 0]", fillcolor="#e58139"] ;
336 -> 344 ;
345 [label="whole_weight <= 0.931\ngini = 0.252\nsamples = 115\nvalue = [98, 17]", fillcolor="#ea975b"] ;
329 -> 345 ;
346 [label="shell_weight <= 0.181\ngini = 0.241\nsamples = 114\nvalue = [98, 16]", fillcolor="#e99659"] ;
345 -> 346 ;
347 [label="gini = 0.0\nsamples = 18\nvalue = [18, 0]", fillcolor="#e58139"] ;
346 -> 347 ;
348 [label="diameter <= 0.428\ngini = 0.278\nsamples = 96\nvalue = [80, 16]", fillcolor="#ea9a61"] ;
346 -> 348 ;
349 [label="height <= 0.133\ngini = 0.393\nsamples = 41\nvalue = [30, 11]", fillcolor="#efaf82"] ;
348 -> 349 ;
350 [label="gini = 0.0\nsamples = 12\nvalue = [12, 0]", fillcolor="#e58139"] ;
349 -> 350 ;
351 [label="shucked_weight <= 0.389\ngini = 0.471\nsamples = 29\nvalue = [18, 11]", fillcolor="#f5ceb2"] ;
349 -> 351 ;
352 [label="whole_weight <= 0.799\ngini = 0.499\nsamples = 19\nvalue = [9, 10]", fillcolor="#ebf5fc"] ;
351 -> 352 ;
353 [label="length <= 0.543\ngini = 0.48\nsamples = 15\nvalue = [9, 6]", fillcolor="#f6d5bd"] ;
352 -> 353 ;
354 [label="whole_weight <= 0.71\ngini = 0.496\nsamples = 11\nvalue = [5, 6]", fillcolor="#deeffb"] ;
353 -> 354 ;
355 [label="shucked_weight <= 0.343\ngini = 0.32\nsamples = 5\nvalue = [4, 1]", fillcolor="#eca06a"] ;
354 -> 355 ;
356 [label="gini = 0.0\nsamples = 1\nvalue = [0, 1]", fillcolor="#399de5"] ;
355 -> 356 ;
357 [label="gini = 0.0\nsamples = 4\nvalue = [4, 0]", fillcolor="#e58139"] ;
355 -> 357 ;
358 [label="viscera_weight <= 0.182\ngini = 0.278\nsamples = 6\nvalue = [1, 5]", fillcolor="#61b1ea"] ;
354 -> 358 ;
359 [label="gini = 0.0\nsamples = 5\nvalue = [0, 5]", fillcolor="#399de5"] ;
358 -> 359 ;
360 [label="gini = 0.0\nsamples = 1\nvalue = [1, 0]", fillcolor="#e58139"] ;
358 -> 360 ;
361 [label="gini = 0.0\nsamples = 4\nvalue = [4, 0]", fillcolor="#e58139"] ;
353 -> 361 ;
362 [label="gini = 0.0\nsamples = 4\nvalue = [0, 4]", fillcolor="#399de5"] ;
352 -> 362 ;
363 [label="diameter <= 0.422\ngini = 0.18\nsamples = 10\nvalue = [9, 1]", fillcolor="#e88f4f"] ;
351 -> 363 ;
364 [label="gini = 0.0\nsamples = 9\nvalue = [9, 0]", fillcolor="#e58139"] ;
363 -> 364 ;
365 [label="gini = 0.0\nsamples = 1\nvalue = [0, 1]", fillcolor="#399de5"] ;
363 -> 365 ;
366 [label="length <= 0.562\ngini = 0.165\nsamples = 55\nvalue = [50, 5]", fillcolor="#e88e4d"] ;
348 -> 366 ;
367 [label="gini = 0.0\nsamples = 29\nvalue = [29, 0]", fillcolor="#e58139"] ;
366 -> 367 ;
368 [label="shell_weight <= 0.219\ngini = 0.311\nsamples = 26\nvalue = [21, 5]", fillcolor="#eb9f68"] ;
366 -> 368 ;
369 [label="viscera_weight <= 0.183\ngini = 0.444\nsamples = 6\nvalue = [2, 4]", fillcolor="#9ccef2"] ;
368 -> 369 ;
370 [label="gini = 0.0\nsamples = 4\nvalue = [0, 4]", fillcolor="#399de5"] ;
369 -> 370 ;
371 [label="gini = 0.0\nsamples = 2\nvalue = [2, 0]", fillcolor="#e58139"] ;
369 -> 371 ;
372 [label="shucked_weight <= 0.43\ngini = 0.095\nsamples = 20\nvalue = [19, 1]", fillcolor="#e68843"] ;
368 -> 372 ;
373 [label="gini = 0.0\nsamples = 18\nvalue = [18, 0]", fillcolor="#e58139"] ;
372 -> 373 ;
374 [label="shell_weight <= 0.222\ngini = 0.5\nsamples = 2\nvalue = [1, 1]", fillcolor="#ffffff"] ;
372 -> 374 ;
375 [label="gini = 0.0\nsamples = 1\nvalue = [1, 0]", fillcolor="#e58139"] ;
374 -> 375 ;
376 [label="gini = 0.0\nsamples = 1\nvalue = [0, 1]", fillcolor="#399de5"] ;
374 -> 376 ;
377 [label="gini = 0.0\nsamples = 1\nvalue = [0, 1]", fillcolor="#399de5"] ;
345 -> 377 ;
378 [label="shell_weight <= 0.214\ngini = 0.32\nsamples = 5\nvalue = [1, 4]", fillcolor="#6ab6ec"] ;
328 -> 378 ;
379 [label="gini = 0.0\nsamples = 1\nvalue = [1, 0]", fillcolor="#e58139"] ;
378 -> 379 ;
380 [label="gini = 0.0\nsamples = 4\nvalue = [0, 4]", fillcolor="#399de5"] ;
378 -> 380 ;
381 [label="gini = 0.0\nsamples = 24\nvalue = [24, 0]", fillcolor="#e58139"] ;
327 -> 381 ;
382 [label="shell_weight <= 0.222\ngini = 0.48\nsamples = 10\nvalue = [4, 6]", fillcolor="#bddef6"] ;
326 -> 382 ;
383 [label="shell_weight <= 0.169\ngini = 0.375\nsamples = 4\nvalue = [3, 1]", fillcolor="#eeab7b"] ;
382 -> 383 ;
384 [label="gini = 0.0\nsamples = 1\nvalue = [0, 1]", fillcolor="#399de5"] ;
383 -> 384 ;
385 [label="gini = 0.0\nsamples = 3\nvalue = [3, 0]", fillcolor="#e58139"] ;
383 -> 385 ;
386 [label="shell_weight <= 0.234\ngini = 0.278\nsamples = 6\nvalue = [1, 5]", fillcolor="#61b1ea"] ;
382 -> 386 ;
387 [label="gini = 0.0\nsamples = 5\nvalue = [0, 5]", fillcolor="#399de5"] ;
386 -> 387 ;
388 [label="gini = 0.0\nsamples = 1\nvalue = [1, 0]", fillcolor="#e58139"] ;
386 -> 388 ;
389 [label="shucked_weight <= 0.447\ngini = 0.487\nsamples = 67\nvalue = [39, 28]", fillcolor="#f8dbc7"] ;
325 -> 389 ;
390 [label="length <= 0.577\ngini = 0.497\nsamples = 52\nvalue = [24, 28]", fillcolor="#e3f1fb"] ;
389 -> 390 ;
391 [label="whole_weight <= 0.796\ngini = 0.464\nsamples = 41\nvalue = [15, 26]", fillcolor="#abd6f4"] ;
390 -> 391 ;
392 [label="height <= 0.138\ngini = 0.473\nsamples = 13\nvalue = [8, 5]", fillcolor="#f5d0b5"] ;
391 -> 392 ;
393 [label="gini = 0.0\nsamples = 5\nvalue = [5, 0]", fillcolor="#e58139"] ;
392 -> 393 ;
394 [label="diameter <= 0.428\ngini = 0.469\nsamples = 8\nvalue = [3, 5]", fillcolor="#b0d8f5"] ;
392 -> 394 ;
395 [label="gini = 0.0\nsamples = 4\nvalue = [0, 4]", fillcolor="#399de5"] ;
394 -> 395 ;
396 [label="shell_weight <= 0.238\ngini = 0.375\nsamples = 4\nvalue = [3, 1]", fillcolor="#eeab7b"] ;
394 -> 396 ;
397 [label="gini = 0.0\nsamples = 1\nvalue = [0, 1]", fillcolor="#399de5"] ;
396 -> 397 ;
398 [label="gini = 0.0\nsamples = 3\nvalue = [3, 0]", fillcolor="#e58139"] ;
396 -> 398 ;
399 [label="length <= 0.543\ngini = 0.375\nsamples = 28\nvalue = [7, 21]", fillcolor="#7bbeee"] ;
391 -> 399 ;
400 [label="shucked_weight <= 0.37\ngini = 0.444\nsamples = 6\nvalue = [4, 2]", fillcolor="#f2c09c"] ;
399 -> 400 ;
401 [label="height <= 0.155\ngini = 0.444\nsamples = 3\nvalue = [1, 2]", fillcolor="#9ccef2"] ;
400 -> 401 ;
402 [label="gini = 0.0\nsamples = 2\nvalue = [0, 2]", fillcolor="#399de5"] ;
401 -> 402 ;
403 [label="gini = 0.0\nsamples = 1\nvalue = [1, 0]", fillcolor="#e58139"] ;
401 -> 403 ;
404 [label="gini = 0.0\nsamples = 3\nvalue = [3, 0]", fillcolor="#e58139"] ;
400 -> 404 ;
405 [label="whole_weight <= 0.892\ngini = 0.236\nsamples = 22\nvalue = [3, 19]", fillcolor="#58ace9"] ;
399 -> 405 ;
406 [label="gini = 0.0\nsamples = 16\nvalue = [0, 16]", fillcolor="#399de5"] ;
405 -> 406 ;
407 [label="shucked_weight <= 0.422\ngini = 0.5\nsamples = 6\nvalue = [3, 3]", fillcolor="#ffffff"] ;
405 -> 407 ;
408 [label="gini = 0.0\nsamples = 3\nvalue = [3, 0]", fillcolor="#e58139"] ;
407 -> 408 ;
409 [label="gini = 0.0\nsamples = 3\nvalue = [0, 3]", fillcolor="#399de5"] ;
407 -> 409 ;
410 [label="diameter <= 0.435\ngini = 0.298\nsamples = 11\nvalue = [9, 2]", fillcolor="#eb9d65"] ;
390 -> 410 ;
411 [label="gini = 0.0\nsamples = 1\nvalue = [0, 1]", fillcolor="#399de5"] ;
410 -> 411 ;
412 [label="shucked_weight <= 0.348\ngini = 0.18\nsamples = 10\nvalue = [9, 1]", fillcolor="#e88f4f"] ;
410 -> 412 ;
413 [label="shucked_weight <= 0.338\ngini = 0.444\nsamples = 3\nvalue = [2, 1]", fillcolor="#f2c09c"] ;
412 -> 413 ;
414 [label="gini = 0.0\nsamples = 2\nvalue = [2, 0]", fillcolor="#e58139"] ;
413 -> 414 ;
415 [label="gini = 0.0\nsamples = 1\nvalue = [0, 1]", fillcolor="#399de5"] ;
413 -> 415 ;
416 [label="gini = 0.0\nsamples = 7\nvalue = [7, 0]", fillcolor="#e58139"] ;
412 -> 416 ;
417 [label="gini = 0.0\nsamples = 15\nvalue = [15, 0]", fillcolor="#e58139"] ;
389 -> 417 ;
418 [label="shell_weight <= 0.321\ngini = 0.335\nsamples = 1159\nvalue = [247, 912]", fillcolor="#6fb8ec"] ;
0 -> 418 [labeldistance=2.5, labelangle=-45, headlabel="False"] ;
419 [label="shucked_weight <= 0.349\ngini = 0.445\nsamples = 505\nvalue = [169, 336]", fillcolor="#9dcef2"] ;
418 -> 419 ;
420 [label="gender_I <= 0.5\ngini = 0.205\nsamples = 112\nvalue = [13, 99]", fillcolor="#53aae8"] ;
419 -> 420 ;
421 [label="length <= 0.603\ngini = 0.139\nsamples = 93\nvalue = [7, 86]", fillcolor="#49a5e7"] ;
420 -> 421 ;
422 [label="viscera_weight <= 0.092\ngini = 0.122\nsamples = 92\nvalue = [6, 86]", fillcolor="#47a4e7"] ;
421 -> 422 ;
423 [label="gini = 0.0\nsamples = 1\nvalue = [1, 0]", fillcolor="#e58139"] ;
422 -> 423 ;
424 [label="viscera_weight <= 0.172\ngini = 0.104\nsamples = 91\nvalue = [5, 86]", fillcolor="#45a3e7"] ;
422 -> 424 ;
425 [label="viscera_weight <= 0.171\ngini = 0.169\nsamples = 43\nvalue = [4, 39]", fillcolor="#4da7e8"] ;
424 -> 425 ;
426 [label="shell_weight <= 0.251\ngini = 0.095\nsamples = 40\nvalue = [2, 38]", fillcolor="#43a2e6"] ;
425 -> 426 ;
427 [label="height <= 0.16\ngini = 0.444\nsamples = 3\nvalue = [1, 2]", fillcolor="#9ccef2"] ;
426 -> 427 ;
428 [label="gini = 0.0\nsamples = 2\nvalue = [0, 2]", fillcolor="#399de5"] ;
427 -> 428 ;
429 [label="gini = 0.0\nsamples = 1\nvalue = [1, 0]", fillcolor="#e58139"] ;
427 -> 429 ;
430 [label="shucked_weight <= 0.296\ngini = 0.053\nsamples = 37\nvalue = [1, 36]", fillcolor="#3ea0e6"] ;
426 -> 430 ;
431 [label="gini = 0.0\nsamples = 25\nvalue = [0, 25]", fillcolor="#399de5"] ;
430 -> 431 ;
432 [label="shucked_weight <= 0.302\ngini = 0.153\nsamples = 12\nvalue = [1, 11]", fillcolor="#4ba6e7"] ;
430 -> 432 ;
433 [label="gender_F <= 0.5\ngini = 0.5\nsamples = 2\nvalue = [1, 1]", fillcolor="#ffffff"] ;
432 -> 433 ;
434 [label="gini = 0.0\nsamples = 1\nvalue = [0, 1]", fillcolor="#399de5"] ;
433 -> 434 ;
435 [label="gini = 0.0\nsamples = 1\nvalue = [1, 0]", fillcolor="#e58139"] ;
433 -> 435 ;
436 [label="gini = 0.0\nsamples = 10\nvalue = [0, 10]", fillcolor="#399de5"] ;
432 -> 436 ;
437 [label="diameter <= 0.42\ngini = 0.444\nsamples = 3\nvalue = [2, 1]", fillcolor="#f2c09c"] ;
425 -> 437 ;
438 [label="gini = 0.0\nsamples = 1\nvalue = [0, 1]", fillcolor="#399de5"] ;
437 -> 438 ;
439 [label="gini = 0.0\nsamples = 2\nvalue = [2, 0]", fillcolor="#e58139"] ;
437 -> 439 ;
440 [label="diameter <= 0.463\ngini = 0.041\nsamples = 48\nvalue = [1, 47]", fillcolor="#3d9fe6"] ;
424 -> 440 ;
441 [label="gini = 0.0\nsamples = 43\nvalue = [0, 43]", fillcolor="#399de5"] ;
440 -> 441 ;
442 [label="length <= 0.565\ngini = 0.32\nsamples = 5\nvalue = [1, 4]", fillcolor="#6ab6ec"] ;
440 -> 442 ;
443 [label="gini = 0.0\nsamples = 1\nvalue = [1, 0]", fillcolor="#e58139"] ;
442 -> 443 ;
444 [label="gini = 0.0\nsamples = 4\nvalue = [0, 4]", fillcolor="#399de5"] ;
442 -> 444 ;
445 [label="gini = 0.0\nsamples = 1\nvalue = [1, 0]", fillcolor="#e58139"] ;
421 -> 445 ;
446 [label="length <= 0.548\ngini = 0.432\nsamples = 19\nvalue = [6, 13]", fillcolor="#94caf1"] ;
420 -> 446 ;
447 [label="height <= 0.142\ngini = 0.49\nsamples = 7\nvalue = [4, 3]", fillcolor="#f8e0ce"] ;
446 -> 447 ;
448 [label="gini = 0.0\nsamples = 3\nvalue = [3, 0]", fillcolor="#e58139"] ;
447 -> 448 ;
449 [label="shucked_weight <= 0.307\ngini = 0.375\nsamples = 4\nvalue = [1, 3]", fillcolor="#7bbeee"] ;
447 -> 449 ;
450 [label="gini = 0.0\nsamples = 3\nvalue = [0, 3]", fillcolor="#399de5"] ;
449 -> 450 ;
451 [label="gini = 0.0\nsamples = 1\nvalue = [1, 0]", fillcolor="#e58139"] ;
449 -> 451 ;
452 [label="shucked_weight <= 0.342\ngini = 0.278\nsamples = 12\nvalue = [2, 10]", fillcolor="#61b1ea"] ;
446 -> 452 ;
453 [label="whole_weight <= 0.773\ngini = 0.165\nsamples = 11\nvalue = [1, 10]", fillcolor="#4da7e8"] ;
452 -> 453 ;
454 [label="height <= 0.138\ngini = 0.5\nsamples = 2\nvalue = [1, 1]", fillcolor="#ffffff"] ;
453 -> 454 ;
455 [label="gini = 0.0\nsamples = 1\nvalue = [0, 1]", fillcolor="#399de5"] ;
454 -> 455 ;
456 [label="gini = 0.0\nsamples = 1\nvalue = [1, 0]", fillcolor="#e58139"] ;
454 -> 456 ;
457 [label="gini = 0.0\nsamples = 9\nvalue = [0, 9]", fillcolor="#399de5"] ;
453 -> 457 ;
458 [label="gini = 0.0\nsamples = 1\nvalue = [1, 0]", fillcolor="#e58139"] ;
452 -> 458 ;
459 [label="shucked_weight <= 0.444\ngini = 0.479\nsamples = 393\nvalue = [156, 237]", fillcolor="#bbdef6"] ;
419 -> 459 ;
460 [label="whole_weight <= 0.959\ngini = 0.43\nsamples = 150\nvalue = [47, 103]", fillcolor="#93caf1"] ;
459 -> 460 ;
461 [label="shucked_weight <= 0.353\ngini = 0.489\nsamples = 94\nvalue = [40, 54]", fillcolor="#cce6f8"] ;
460 -> 461 ;
462 [label="gini = 0.0\nsamples = 4\nvalue = [4, 0]", fillcolor="#e58139"] ;
461 -> 462 ;
463 [label="shucked_weight <= 0.357\ngini = 0.48\nsamples = 90\nvalue = [36, 54]", fillcolor="#bddef6"] ;
461 -> 463 ;
464 [label="gini = 0.0\nsamples = 6\nvalue = [0, 6]", fillcolor="#399de5"] ;
463 -> 464 ;
465 [label="whole_weight <= 0.891\ngini = 0.49\nsamples = 84\nvalue = [36, 48]", fillcolor="#cee6f8"] ;
463 -> 465 ;
466 [label="whole_weight <= 0.871\ngini = 0.42\nsamples = 30\nvalue = [9, 21]", fillcolor="#8ec7f0"] ;
465 -> 466 ;
467 [label="shucked_weight <= 0.379\ngini = 0.5\nsamples = 16\nvalue = [8, 8]", fillcolor="#ffffff"] ;
466 -> 467 ;
468 [label="diameter <= 0.463\ngini = 0.473\nsamples = 13\nvalue = [5, 8]", fillcolor="#b5daf5"] ;
467 -> 468 ;
469 [label="shell_weight <= 0.27\ngini = 0.397\nsamples = 11\nvalue = [3, 8]", fillcolor="#83c2ef"] ;
468 -> 469 ;
470 [label="gini = 0.0\nsamples = 6\nvalue = [0, 6]", fillcolor="#399de5"] ;
469 -> 470 ;
471 [label="gender_M <= 0.5\ngini = 0.48\nsamples = 5\nvalue = [3, 2]", fillcolor="#f6d5bd"] ;
469 -> 471 ;
472 [label="gini = 0.0\nsamples = 3\nvalue = [3, 0]", fillcolor="#e58139"] ;
471 -> 472 ;
473 [label="gini = 0.0\nsamples = 2\nvalue = [0, 2]", fillcolor="#399de5"] ;
471 -> 473 ;
474 [label="gini = 0.0\nsamples = 2\nvalue = [2, 0]", fillcolor="#e58139"] ;
468 -> 474 ;
475 [label="gini = 0.0\nsamples = 3\nvalue = [3, 0]", fillcolor="#e58139"] ;
467 -> 475 ;
476 [label="viscera_weight <= 0.21\ngini = 0.133\nsamples = 14\nvalue = [1, 13]", fillcolor="#48a5e7"] ;
466 -> 476 ;
477 [label="gini = 0.0\nsamples = 12\nvalue = [0, 12]", fillcolor="#399de5"] ;
476 -> 477 ;
478 [label="shucked_weight <= 0.368\ngini = 0.5\nsamples = 2\nvalue = [1, 1]", fillcolor="#ffffff"] ;
476 -> 478 ;
479 [label="gini = 0.0\nsamples = 1\nvalue = [1, 0]", fillcolor="#e58139"] ;
478 -> 479 ;
480 [label="gini = 0.0\nsamples = 1\nvalue = [0, 1]", fillcolor="#399de5"] ;
478 -> 480 ;
481 [label="whole_weight <= 0.899\ngini = 0.5\nsamples = 54\nvalue = [27, 27]", fillcolor="#ffffff"] ;
465 -> 481 ;
482 [label="gini = 0.0\nsamples = 6\nvalue = [6, 0]", fillcolor="#e58139"] ;
481 -> 482 ;
483 [label="viscera_weight <= 0.194\ngini = 0.492\nsamples = 48\nvalue = [21, 27]", fillcolor="#d3e9f9"] ;
481 -> 483 ;
484 [label="shucked_weight <= 0.399\ngini = 0.363\nsamples = 21\nvalue = [5, 16]", fillcolor="#77bced"] ;
483 -> 484 ;
485 [label="gini = 0.0\nsamples = 9\nvalue = [0, 9]", fillcolor="#399de5"] ;
484 -> 485 ;
486 [label="diameter <= 0.463\ngini = 0.486\nsamples = 12\nvalue = [5, 7]", fillcolor="#c6e3f8"] ;
484 -> 486 ;
487 [label="length <= 0.558\ngini = 0.245\nsamples = 7\nvalue = [1, 6]", fillcolor="#5aade9"] ;
486 -> 487 ;
488 [label="gini = 0.0\nsamples = 1\nvalue = [1, 0]", fillcolor="#e58139"] ;
487 -> 488 ;
489 [label="gini = 0.0\nsamples = 6\nvalue = [0, 6]", fillcolor="#399de5"] ;
487 -> 489 ;
490 [label="whole_weight <= 0.932\ngini = 0.32\nsamples = 5\nvalue = [4, 1]", fillcolor="#eca06a"] ;
486 -> 490 ;
491 [label="gini = 0.0\nsamples = 3\nvalue = [3, 0]", fillcolor="#e58139"] ;
490 -> 491 ;
492 [label="whole_weight <= 0.947\ngini = 0.5\nsamples = 2\nvalue = [1, 1]", fillcolor="#ffffff"] ;
490 -> 492 ;
493 [label="gini = 0.0\nsamples = 1\nvalue = [0, 1]", fillcolor="#399de5"] ;
492 -> 493 ;
494 [label="gini = 0.0\nsamples = 1\nvalue = [1, 0]", fillcolor="#e58139"] ;
492 -> 494 ;
495 [label="viscera_weight <= 0.213\ngini = 0.483\nsamples = 27\nvalue = [16, 11]", fillcolor="#f7d8c1"] ;
483 -> 495 ;
496 [label="gender_I <= 0.5\ngini = 0.198\nsamples = 9\nvalue = [8, 1]", fillcolor="#e89152"] ;
495 -> 496 ;
497 [label="gini = 0.0\nsamples = 8\nvalue = [8, 0]", fillcolor="#e58139"] ;
496 -> 497 ;
498 [label="gini = 0.0\nsamples = 1\nvalue = [0, 1]", fillcolor="#399de5"] ;
496 -> 498 ;
499 [label="viscera_weight <= 0.215\ngini = 0.494\nsamples = 18\nvalue = [8, 10]", fillcolor="#d7ebfa"] ;
495 -> 499 ;
500 [label="gini = 0.0\nsamples = 4\nvalue = [0, 4]", fillcolor="#399de5"] ;
499 -> 500 ;
501 [label="shell_weight <= 0.292\ngini = 0.49\nsamples = 14\nvalue = [8, 6]", fillcolor="#f8e0ce"] ;
499 -> 501 ;
502 [label="viscera_weight <= 0.239\ngini = 0.397\nsamples = 11\nvalue = [8, 3]", fillcolor="#efb083"] ;
501 -> 502 ;
503 [label="gini = 0.0\nsamples = 7\nvalue = [7, 0]", fillcolor="#e58139"] ;
502 -> 503 ;
504 [label="shell_weight <= 0.276\ngini = 0.375\nsamples = 4\nvalue = [1, 3]", fillcolor="#7bbeee"] ;
502 -> 504 ;
505 [label="gini = 0.0\nsamples = 3\nvalue = [0, 3]", fillcolor="#399de5"] ;
504 -> 505 ;
506 [label="gini = 0.0\nsamples = 1\nvalue = [1, 0]", fillcolor="#e58139"] ;
504 -> 506 ;
507 [label="gini = 0.0\nsamples = 3\nvalue = [0, 3]", fillcolor="#399de5"] ;
501 -> 507 ;
508 [label="length <= 0.502\ngini = 0.219\nsamples = 56\nvalue = [7, 49]", fillcolor="#55abe9"] ;
460 -> 508 ;
509 [label="gini = 0.0\nsamples = 1\nvalue = [1, 0]", fillcolor="#e58139"] ;
508 -> 509 ;
510 [label="viscera_weight <= 0.285\ngini = 0.194\nsamples = 55\nvalue = [6, 49]", fillcolor="#51a9e8"] ;
508 -> 510 ;
511 [label="viscera_weight <= 0.225\ngini = 0.145\nsamples = 51\nvalue = [4, 47]", fillcolor="#4aa5e7"] ;
510 -> 511 ;
512 [label="viscera_weight <= 0.223\ngini = 0.287\nsamples = 23\nvalue = [4, 19]", fillcolor="#63b2ea"] ;
511 -> 512 ;
513 [label="length <= 0.587\ngini = 0.236\nsamples = 22\nvalue = [3, 19]", fillcolor="#58ace9"] ;
512 -> 513 ;
514 [label="gini = 0.0\nsamples = 11\nvalue = [0, 11]", fillcolor="#399de5"] ;
513 -> 514 ;
515 [label="diameter <= 0.468\ngini = 0.397\nsamples = 11\nvalue = [3, 8]", fillcolor="#83c2ef"] ;
513 -> 515 ;
516 [label="shucked_weight <= 0.438\ngini = 0.375\nsamples = 4\nvalue = [3, 1]", fillcolor="#eeab7b"] ;
515 -> 516 ;
517 [label="gini = 0.0\nsamples = 3\nvalue = [3, 0]", fillcolor="#e58139"] ;
516 -> 517 ;
518 [label="gini = 0.0\nsamples = 1\nvalue = [0, 1]", fillcolor="#399de5"] ;
516 -> 518 ;
519 [label="gini = 0.0\nsamples = 7\nvalue = [0, 7]", fillcolor="#399de5"] ;
515 -> 519 ;
520 [label="gini = 0.0\nsamples = 1\nvalue = [1, 0]", fillcolor="#e58139"] ;
512 -> 520 ;
521 [label="gini = 0.0\nsamples = 28\nvalue = [0, 28]", fillcolor="#399de5"] ;
511 -> 521 ;
522 [label="shucked_weight <= 0.413\ngini = 0.5\nsamples = 4\nvalue = [2, 2]", fillcolor="#ffffff"] ;
510 -> 522 ;
523 [label="gini = 0.0\nsamples = 2\nvalue = [0, 2]", fillcolor="#399de5"] ;
522 -> 523 ;
524 [label="gini = 0.0\nsamples = 2\nvalue = [2, 0]", fillcolor="#e58139"] ;
522 -> 524 ;
525 [label="gender_I <= 0.5\ngini = 0.495\nsamples = 243\nvalue = [109, 134]", fillcolor="#daedfa"] ;
459 -> 525 ;
526 [label="shucked_weight <= 0.457\ngini = 0.499\nsamples = 227\nvalue = [108, 119]", fillcolor="#edf6fd"] ;
525 -> 526 ;
527 [label="viscera_weight <= 0.194\ngini = 0.397\nsamples = 22\nvalue = [16, 6]", fillcolor="#efb083"] ;
526 -> 527 ;
528 [label="shucked_weight <= 0.454\ngini = 0.444\nsamples = 6\nvalue = [2, 4]", fillcolor="#9ccef2"] ;
527 -> 528 ;
529 [label="gini = 0.0\nsamples = 4\nvalue = [0, 4]", fillcolor="#399de5"] ;
528 -> 529 ;
530 [label="gini = 0.0\nsamples = 2\nvalue = [2, 0]", fillcolor="#e58139"] ;
528 -> 530 ;
531 [label="viscera_weight <= 0.274\ngini = 0.219\nsamples = 16\nvalue = [14, 2]", fillcolor="#e99355"] ;
527 -> 531 ;
532 [label="gini = 0.0\nsamples = 13\nvalue = [13, 0]", fillcolor="#e58139"] ;
531 -> 532 ;
533 [label="length <= 0.61\ngini = 0.444\nsamples = 3\nvalue = [1, 2]", fillcolor="#9ccef2"] ;
531 -> 533 ;
534 [label="gini = 0.0\nsamples = 2\nvalue = [0, 2]", fillcolor="#399de5"] ;
533 -> 534 ;
535 [label="gini = 0.0\nsamples = 1\nvalue = [1, 0]", fillcolor="#e58139"] ;
533 -> 535 ;
536 [label="shucked_weight <= 0.476\ngini = 0.495\nsamples = 205\nvalue = [92, 113]", fillcolor="#daedfa"] ;
526 -> 536 ;
537 [label="diameter <= 0.463\ngini = 0.355\nsamples = 26\nvalue = [6, 20]", fillcolor="#74baed"] ;
536 -> 537 ;
538 [label="shell_weight <= 0.276\ngini = 0.496\nsamples = 11\nvalue = [5, 6]", fillcolor="#deeffb"] ;
537 -> 538 ;
539 [label="whole_weight <= 1.059\ngini = 0.278\nsamples = 6\nvalue = [5, 1]", fillcolor="#ea9a61"] ;
538 -> 539 ;
540 [label="gini = 0.0\nsamples = 5\nvalue = [5, 0]", fillcolor="#e58139"] ;
539 -> 540 ;
541 [label="gini = 0.0\nsamples = 1\nvalue = [0, 1]", fillcolor="#399de5"] ;
539 -> 541 ;
542 [label="gini = 0.0\nsamples = 5\nvalue = [0, 5]", fillcolor="#399de5"] ;
538 -> 542 ;
543 [label="length <= 0.627\ngini = 0.124\nsamples = 15\nvalue = [1, 14]", fillcolor="#47a4e7"] ;
537 -> 543 ;
544 [label="gini = 0.0\nsamples = 13\nvalue = [0, 13]", fillcolor="#399de5"] ;
543 -> 544 ;
545 [label="gender_F <= 0.5\ngini = 0.5\nsamples = 2\nvalue = [1, 1]", fillcolor="#ffffff"] ;
543 -> 545 ;
546 [label="gini = 0.0\nsamples = 1\nvalue = [1, 0]", fillcolor="#e58139"] ;
545 -> 546 ;
547 [label="gini = 0.0\nsamples = 1\nvalue = [0, 1]", fillcolor="#399de5"] ;
545 -> 547 ;
548 [label="shell_weight <= 0.255\ngini = 0.499\nsamples = 179\nvalue = [86, 93]", fillcolor="#f0f8fd"] ;
536 -> 548 ;
549 [label="height <= 0.155\ngini = 0.278\nsamples = 12\nvalue = [10, 2]", fillcolor="#ea9a61"] ;
548 -> 549 ;
550 [label="whole_weight <= 1.108\ngini = 0.165\nsamples = 11\nvalue = [10, 1]", fillcolor="#e88e4d"] ;
549 -> 550 ;
551 [label="gini = 0.0\nsamples = 8\nvalue = [8, 0]", fillcolor="#e58139"] ;
550 -> 551 ;
552 [label="shell_weight <= 0.25\ngini = 0.444\nsamples = 3\nvalue = [2, 1]", fillcolor="#f2c09c"] ;
550 -> 552 ;
553 [label="gini = 0.0\nsamples = 1\nvalue = [0, 1]", fillcolor="#399de5"] ;
552 -> 553 ;
554 [label="gini = 0.0\nsamples = 2\nvalue = [2, 0]", fillcolor="#e58139"] ;
552 -> 554 ;
555 [label="gini = 0.0\nsamples = 1\nvalue = [0, 1]", fillcolor="#399de5"] ;
549 -> 555 ;
556 [label="whole_weight <= 1.389\ngini = 0.496\nsamples = 167\nvalue = [76, 91]", fillcolor="#deeffb"] ;
548 -> 556 ;
557 [label="diameter <= 0.517\ngini = 0.498\nsamples = 161\nvalue = [76, 85]", fillcolor="#eaf5fc"] ;
556 -> 557 ;
558 [label="shucked_weight <= 0.477\ngini = 0.496\nsamples = 156\nvalue = [71, 85]", fillcolor="#deeffb"] ;
557 -> 558 ;
559 [label="gini = 0.0\nsamples = 3\nvalue = [3, 0]", fillcolor="#e58139"] ;
558 -> 559 ;
560 [label="shucked_weight <= 0.6\ngini = 0.494\nsamples = 153\nvalue = [68, 85]", fillcolor="#d7ebfa"] ;
558 -> 560 ;
561 [label="length <= 0.558\ngini = 0.485\nsamples = 131\nvalue = [54, 77]", fillcolor="#c4e2f7"] ;
560 -> 561 ;
562 [label="gini = 0.0\nsamples = 4\nvalue = [4, 0]", fillcolor="#e58139"] ;
561 -> 562 ;
563 [label="diameter <= 0.453\ngini = 0.477\nsamples = 127\nvalue = [50, 77]", fillcolor="#baddf6"] ;
561 -> 563 ;
564 [label="diameter <= 0.403\ngini = 0.26\nsamples = 13\nvalue = [2, 11]", fillcolor="#5dafea"] ;
563 -> 564 ;
565 [label="gini = 0.0\nsamples = 1\nvalue = [1, 0]", fillcolor="#e58139"] ;
564 -> 565 ;
566 [label="shucked_weight <= 0.557\ngini = 0.153\nsamples = 12\nvalue = [1, 11]", fillcolor="#4ba6e7"] ;
564 -> 566 ;
567 [label="gini = 0.0\nsamples = 10\nvalue = [0, 10]", fillcolor="#399de5"] ;
566 -> 567 ;
568 [label="shucked_weight <= 0.56\ngini = 0.5\nsamples = 2\nvalue = [1, 1]", fillcolor="#ffffff"] ;
566 -> 568 ;
569 [label="gini = 0.0\nsamples = 1\nvalue = [1, 0]", fillcolor="#e58139"] ;
568 -> 569 ;
570 [label="gini = 0.0\nsamples = 1\nvalue = [0, 1]", fillcolor="#399de5"] ;
568 -> 570 ;
571 [label="length <= 0.603\ngini = 0.488\nsamples = 114\nvalue = [48, 66]", fillcolor="#c9e4f8"] ;
563 -> 571 ;
572 [label="shucked_weight <= 0.56\ngini = 0.497\nsamples = 37\nvalue = [20, 17]", fillcolor="#fbece1"] ;
571 -> 572 ;
573 [label="shucked_weight <= 0.528\ngini = 0.478\nsamples = 33\nvalue = [20, 13]", fillcolor="#f6d3ba"] ;
572 -> 573 ;
574 [label="shell_weight <= 0.305\ngini = 0.5\nsamples = 24\nvalue = [12, 12]", fillcolor="#ffffff"] ;
573 -> 574 ;
575 [label="shucked_weight <= 0.505\ngini = 0.457\nsamples = 17\nvalue = [6, 11]", fillcolor="#a5d2f3"] ;
574 -> 575 ;
576 [label="shucked_weight <= 0.485\ngini = 0.48\nsamples = 10\nvalue = [6, 4]", fillcolor="#f6d5bd"] ;
575 -> 576 ;
577 [label="gini = 0.0\nsamples = 2\nvalue = [0, 2]", fillcolor="#399de5"] ;
576 -> 577 ;
578 [label="whole_weight <= 1.158\ngini = 0.375\nsamples = 8\nvalue = [6, 2]", fillcolor="#eeab7b"] ;
576 -> 578 ;
579 [label="viscera_weight <= 0.213\ngini = 0.245\nsamples = 7\nvalue = [6, 1]", fillcolor="#e9965a"] ;
578 -> 579 ;
580 [label="gini = 0.0\nsamples = 1\nvalue = [0, 1]", fillcolor="#399de5"] ;
579 -> 580 ;
581 [label="gini = 0.0\nsamples = 6\nvalue = [6, 0]", fillcolor="#e58139"] ;
579 -> 581 ;
582 [label="gini = 0.0\nsamples = 1\nvalue = [0, 1]", fillcolor="#399de5"] ;
578 -> 582 ;
583 [label="gini = 0.0\nsamples = 7\nvalue = [0, 7]", fillcolor="#399de5"] ;
575 -> 583 ;
584 [label="shucked_weight <= 0.495\ngini = 0.245\nsamples = 7\nvalue = [6, 1]", fillcolor="#e9965a"] ;
574 -> 584 ;
585 [label="shucked_weight <= 0.485\ngini = 0.5\nsamples = 2\nvalue = [1, 1]", fillcolor="#ffffff"] ;
584 -> 585 ;
586 [label="gini = 0.0\nsamples = 1\nvalue = [1, 0]", fillcolor="#e58139"] ;
585 -> 586 ;
587 [label="gini = 0.0\nsamples = 1\nvalue = [0, 1]", fillcolor="#399de5"] ;
585 -> 587 ;
588 [label="gini = 0.0\nsamples = 5\nvalue = [5, 0]", fillcolor="#e58139"] ;
584 -> 588 ;
589 [label="height <= 0.175\ngini = 0.198\nsamples = 9\nvalue = [8, 1]", fillcolor="#e89152"] ;
573 -> 589 ;
590 [label="gini = 0.0\nsamples = 8\nvalue = [8, 0]", fillcolor="#e58139"] ;
589 -> 590 ;
591 [label="gini = 0.0\nsamples = 1\nvalue = [0, 1]", fillcolor="#399de5"] ;
589 -> 591 ;
592 [label="gini = 0.0\nsamples = 4\nvalue = [0, 4]", fillcolor="#399de5"] ;
572 -> 592 ;
593 [label="length <= 0.618\ngini = 0.463\nsamples = 77\nvalue = [28, 49]", fillcolor="#aad5f4"] ;
571 -> 593 ;
594 [label="height <= 0.157\ngini = 0.278\nsamples = 30\nvalue = [5, 25]", fillcolor="#61b1ea"] ;
593 -> 594 ;
595 [label="whole_weight <= 1.15\ngini = 0.444\nsamples = 15\nvalue = [5, 10]", fillcolor="#9ccef2"] ;
594 -> 595 ;
596 [label="diameter <= 0.468\ngini = 0.5\nsamples = 10\nvalue = [5, 5]", fillcolor="#ffffff"] ;
595 -> 596 ;
597 [label="gini = 0.0\nsamples = 4\nvalue = [0, 4]", fillcolor="#399de5"] ;
596 -> 597 ;
598 [label="whole_weight <= 1.072\ngini = 0.278\nsamples = 6\nvalue = [5, 1]", fillcolor="#ea9a61"] ;
596 -> 598 ;
599 [label="gini = 0.0\nsamples = 1\nvalue = [0, 1]", fillcolor="#399de5"] ;
598 -> 599 ;
600 [label="gini = 0.0\nsamples = 5\nvalue = [5, 0]", fillcolor="#e58139"] ;
598 -> 600 ;
601 [label="gini = 0.0\nsamples = 5\nvalue = [0, 5]", fillcolor="#399de5"] ;
595 -> 601 ;
602 [label="gini = 0.0\nsamples = 15\nvalue = [0, 15]", fillcolor="#399de5"] ;
594 -> 602 ;
603 [label="length <= 0.632\ngini = 0.5\nsamples = 47\nvalue = [23, 24]", fillcolor="#f7fbfe"] ;
593 -> 603 ;
604 [label="shell_weight <= 0.302\ngini = 0.477\nsamples = 28\nvalue = [17, 11]", fillcolor="#f6d3b9"] ;
603 -> 604 ;
605 [label="viscera_weight <= 0.269\ngini = 0.355\nsamples = 13\nvalue = [10, 3]", fillcolor="#eda774"] ;
604 -> 605 ;
606 [label="height <= 0.168\ngini = 0.18\nsamples = 10\nvalue = [9, 1]", fillcolor="#e88f4f"] ;
605 -> 606 ;
607 [label="gini = 0.0\nsamples = 8\nvalue = [8, 0]", fillcolor="#e58139"] ;
606 -> 607 ;
608 [label="shell_weight <= 0.292\ngini = 0.5\nsamples = 2\nvalue = [1, 1]", fillcolor="#ffffff"] ;
606 -> 608 ;
609 [label="gini = 0.0\nsamples = 1\nvalue = [0, 1]", fillcolor="#399de5"] ;
608 -> 609 ;
610 [label="gini = 0.0\nsamples = 1\nvalue = [1, 0]", fillcolor="#e58139"] ;
608 -> 610 ;
611 [label="whole_weight <= 1.204\ngini = 0.444\nsamples = 3\nvalue = [1, 2]", fillcolor="#9ccef2"] ;
605 -> 611 ;
612 [label="gini = 0.0\nsamples = 2\nvalue = [0, 2]", fillcolor="#399de5"] ;
611 -> 612 ;
613 [label="gini = 0.0\nsamples = 1\nvalue = [1, 0]", fillcolor="#e58139"] ;
611 -> 613 ;
614 [label="shell_weight <= 0.308\ngini = 0.498\nsamples = 15\nvalue = [7, 8]", fillcolor="#e6f3fc"] ;
604 -> 614 ;
615 [label="gini = 0.0\nsamples = 3\nvalue = [0, 3]", fillcolor="#399de5"] ;
614 -> 615 ;
616 [label="viscera_weight <= 0.228\ngini = 0.486\nsamples = 12\nvalue = [7, 5]", fillcolor="#f8dbc6"] ;
614 -> 616 ;
617 [label="gini = 0.0\nsamples = 2\nvalue = [0, 2]", fillcolor="#399de5"] ;
616 -> 617 ;
618 [label="diameter <= 0.485\ngini = 0.42\nsamples = 10\nvalue = [7, 3]", fillcolor="#f0b78e"] ;
616 -> 618 ;
619 [label="shucked_weight <= 0.498\ngini = 0.48\nsamples = 5\nvalue = [2, 3]", fillcolor="#bddef6"] ;
618 -> 619 ;
620 [label="gini = 0.0\nsamples = 2\nvalue = [2, 0]", fillcolor="#e58139"] ;
619 -> 620 ;
621 [label="gini = 0.0\nsamples = 3\nvalue = [0, 3]", fillcolor="#399de5"] ;
619 -> 621 ;
622 [label="gini = 0.0\nsamples = 5\nvalue = [5, 0]", fillcolor="#e58139"] ;
618 -> 622 ;
623 [label="diameter <= 0.477\ngini = 0.432\nsamples = 19\nvalue = [6, 13]", fillcolor="#94caf1"] ;
603 -> 623 ;
624 [label="gini = 0.0\nsamples = 3\nvalue = [3, 0]", fillcolor="#e58139"] ;
623 -> 624 ;
625 [label="shucked_weight <= 0.503\ngini = 0.305\nsamples = 16\nvalue = [3, 13]", fillcolor="#67b4eb"] ;
623 -> 625 ;
626 [label="height <= 0.165\ngini = 0.444\nsamples = 3\nvalue = [2, 1]", fillcolor="#f2c09c"] ;
625 -> 626 ;
627 [label="gini = 0.0\nsamples = 2\nvalue = [2, 0]", fillcolor="#e58139"] ;
626 -> 627 ;
628 [label="gini = 0.0\nsamples = 1\nvalue = [0, 1]", fillcolor="#399de5"] ;
626 -> 628 ;
629 [label="shucked_weight <= 0.581\ngini = 0.142\nsamples = 13\nvalue = [1, 12]", fillcolor="#49a5e7"] ;
625 -> 629 ;
630 [label="gini = 0.0\nsamples = 11\nvalue = [0, 11]", fillcolor="#399de5"] ;
629 -> 630 ;
631 [label="whole_weight <= 1.303\ngini = 0.5\nsamples = 2\nvalue = [1, 1]", fillcolor="#ffffff"] ;
629 -> 631 ;
632 [label="gini = 0.0\nsamples = 1\nvalue = [1, 0]", fillcolor="#e58139"] ;
631 -> 632 ;
633 [label="gini = 0.0\nsamples = 1\nvalue = [0, 1]", fillcolor="#399de5"] ;
631 -> 633 ;
634 [label="length <= 0.587\ngini = 0.463\nsamples = 22\nvalue = [14, 8]", fillcolor="#f4c9aa"] ;
560 -> 634 ;
635 [label="gini = 0.0\nsamples = 3\nvalue = [0, 3]", fillcolor="#399de5"] ;
634 -> 635 ;
636 [label="gender_M <= 0.5\ngini = 0.388\nsamples = 19\nvalue = [14, 5]", fillcolor="#eeae80"] ;
634 -> 636 ;
637 [label="whole_weight <= 1.305\ngini = 0.444\nsamples = 6\nvalue = [2, 4]", fillcolor="#9ccef2"] ;
636 -> 637 ;
638 [label="shell_weight <= 0.305\ngini = 0.444\nsamples = 3\nvalue = [2, 1]", fillcolor="#f2c09c"] ;
637 -> 638 ;
639 [label="gini = 0.0\nsamples = 2\nvalue = [2, 0]", fillcolor="#e58139"] ;
638 -> 639 ;
640 [label="gini = 0.0\nsamples = 1\nvalue = [0, 1]", fillcolor="#399de5"] ;
638 -> 640 ;
641 [label="gini = 0.0\nsamples = 3\nvalue = [0, 3]", fillcolor="#399de5"] ;
637 -> 641 ;
642 [label="height <= 0.153\ngini = 0.142\nsamples = 13\nvalue = [12, 1]", fillcolor="#e78c49"] ;
636 -> 642 ;
643 [label="height <= 0.145\ngini = 0.5\nsamples = 2\nvalue = [1, 1]", fillcolor="#ffffff"] ;
642 -> 643 ;
644 [label="gini = 0.0\nsamples = 1\nvalue = [1, 0]", fillcolor="#e58139"] ;
643 -> 644 ;
645 [label="gini = 0.0\nsamples = 1\nvalue = [0, 1]", fillcolor="#399de5"] ;
643 -> 645 ;
646 [label="gini = 0.0\nsamples = 11\nvalue = [11, 0]", fillcolor="#e58139"] ;
642 -> 646 ;
647 [label="gini = 0.0\nsamples = 5\nvalue = [5, 0]", fillcolor="#e58139"] ;
557 -> 647 ;
648 [label="gini = 0.0\nsamples = 6\nvalue = [0, 6]", fillcolor="#399de5"] ;
556 -> 648 ;
649 [label="whole_weight <= 0.968\ngini = 0.117\nsamples = 16\nvalue = [1, 15]", fillcolor="#46a4e7"] ;
525 -> 649 ;
650 [label="gini = 0.0\nsamples = 1\nvalue = [1, 0]", fillcolor="#e58139"] ;
649 -> 650 ;
651 [label="gini = 0.0\nsamples = 15\nvalue = [0, 15]", fillcolor="#399de5"] ;
649 -> 651 ;
652 [label="shell_weight <= 0.403\ngini = 0.21\nsamples = 654\nvalue = [78, 576]", fillcolor="#54aae9"] ;
418 -> 652 ;
653 [label="shucked_weight <= 0.562\ngini = 0.292\nsamples = 355\nvalue = [63, 292]", fillcolor="#64b2eb"] ;
652 -> 653 ;
654 [label="height <= 0.133\ngini = 0.19\nsamples = 207\nvalue = [22, 185]", fillcolor="#51a9e8"] ;
653 -> 654 ;
655 [label="gini = 0.0\nsamples = 3\nvalue = [3, 0]", fillcolor="#e58139"] ;
654 -> 655 ;
656 [label="shucked_weight <= 0.247\ngini = 0.169\nsamples = 204\nvalue = [19, 185]", fillcolor="#4da7e8"] ;
654 -> 656 ;
657 [label="gini = 0.0\nsamples = 1\nvalue = [1, 0]", fillcolor="#e58139"] ;
656 -> 657 ;
658 [label="whole_weight <= 1.422\ngini = 0.162\nsamples = 203\nvalue = [18, 185]", fillcolor="#4ca7e8"] ;
656 -> 658 ;
659 [label="shucked_weight <= 0.416\ngini = 0.154\nsamples = 202\nvalue = [17, 185]", fillcolor="#4ba6e7"] ;
658 -> 659 ;
660 [label="gini = 0.0\nsamples = 56\nvalue = [0, 56]", fillcolor="#399de5"] ;
659 -> 660 ;
661 [label="viscera_weight <= 0.235\ngini = 0.206\nsamples = 146\nvalue = [17, 129]", fillcolor="#53aae8"] ;
659 -> 661 ;
662 [label="viscera_weight <= 0.232\ngini = 0.368\nsamples = 37\nvalue = [9, 28]", fillcolor="#79bced"] ;
661 -> 662 ;
663 [label="length <= 0.567\ngini = 0.291\nsamples = 34\nvalue = [6, 28]", fillcolor="#63b2eb"] ;
662 -> 663 ;
664 [label="gini = 0.0\nsamples = 1\nvalue = [1, 0]", fillcolor="#e58139"] ;
663 -> 664 ;
665 [label="viscera_weight <= 0.219\ngini = 0.257\nsamples = 33\nvalue = [5, 28]", fillcolor="#5caeea"] ;
663 -> 665 ;
666 [label="gini = 0.0\nsamples = 17\nvalue = [0, 17]", fillcolor="#399de5"] ;
665 -> 666 ;
667 [label="viscera_weight <= 0.223\ngini = 0.43\nsamples = 16\nvalue = [5, 11]", fillcolor="#93caf1"] ;
665 -> 667 ;
668 [label="whole_weight <= 1.112\ngini = 0.444\nsamples = 6\nvalue = [4, 2]", fillcolor="#f2c09c"] ;
667 -> 668 ;
669 [label="gini = 0.0\nsamples = 3\nvalue = [3, 0]", fillcolor="#e58139"] ;
668 -> 669 ;
670 [label="length <= 0.637\ngini = 0.444\nsamples = 3\nvalue = [1, 2]", fillcolor="#9ccef2"] ;
668 -> 670 ;
671 [label="gini = 0.0\nsamples = 2\nvalue = [0, 2]", fillcolor="#399de5"] ;
670 -> 671 ;
672 [label="gini = 0.0\nsamples = 1\nvalue = [1, 0]", fillcolor="#e58139"] ;
670 -> 672 ;
673 [label="whole_weight <= 1.163\ngini = 0.18\nsamples = 10\nvalue = [1, 9]", fillcolor="#4fa8e8"] ;
667 -> 673 ;
674 [label="gini = 0.0\nsamples = 9\nvalue = [0, 9]", fillcolor="#399de5"] ;
673 -> 674 ;
675 [label="gini = 0.0\nsamples = 1\nvalue = [1, 0]", fillcolor="#e58139"] ;
673 -> 675 ;
676 [label="gini = 0.0\nsamples = 3\nvalue = [3, 0]", fillcolor="#e58139"] ;
662 -> 676 ;
677 [label="shucked_weight <= 0.418\ngini = 0.136\nsamples = 109\nvalue = [8, 101]", fillcolor="#49a5e7"] ;
661 -> 677 ;
678 [label="gini = 0.0\nsamples = 1\nvalue = [1, 0]", fillcolor="#e58139"] ;
677 -> 678 ;
679 [label="viscera_weight <= 0.269\ngini = 0.121\nsamples = 108\nvalue = [7, 101]", fillcolor="#47a4e7"] ;
677 -> 679 ;
680 [label="gini = 0.0\nsamples = 43\nvalue = [0, 43]", fillcolor="#399de5"] ;
679 -> 680 ;
681 [label="whole_weight <= 1.196\ngini = 0.192\nsamples = 65\nvalue = [7, 58]", fillcolor="#51a9e8"] ;
679 -> 681 ;
682 [label="whole_weight <= 1.192\ngini = 0.415\nsamples = 17\nvalue = [5, 12]", fillcolor="#8bc6f0"] ;
681 -> 682 ;
683 [label="viscera_weight <= 0.304\ngini = 0.32\nsamples = 15\nvalue = [3, 12]", fillcolor="#6ab6ec"] ;
682 -> 683 ;
684 [label="shell_weight <= 0.369\ngini = 0.153\nsamples = 12\nvalue = [1, 11]", fillcolor="#4ba6e7"] ;
683 -> 684 ;
685 [label="gini = 0.0\nsamples = 11\nvalue = [0, 11]", fillcolor="#399de5"] ;
684 -> 685 ;
686 [label="gini = 0.0\nsamples = 1\nvalue = [1, 0]", fillcolor="#e58139"] ;
684 -> 686 ;
687 [label="diameter <= 0.485\ngini = 0.444\nsamples = 3\nvalue = [2, 1]", fillcolor="#f2c09c"] ;
683 -> 687 ;
688 [label="gini = 0.0\nsamples = 1\nvalue = [0, 1]", fillcolor="#399de5"] ;
687 -> 688 ;
689 [label="gini = 0.0\nsamples = 2\nvalue = [2, 0]", fillcolor="#e58139"] ;
687 -> 689 ;
690 [label="gini = 0.0\nsamples = 2\nvalue = [2, 0]", fillcolor="#e58139"] ;
682 -> 690 ;
691 [label="viscera_weight <= 0.27\ngini = 0.08\nsamples = 48\nvalue = [2, 46]", fillcolor="#42a1e6"] ;
681 -> 691 ;
692 [label="gini = 0.0\nsamples = 1\nvalue = [1, 0]", fillcolor="#e58139"] ;
691 -> 692 ;
693 [label="shucked_weight <= 0.543\ngini = 0.042\nsamples = 47\nvalue = [1, 46]", fillcolor="#3d9fe6"] ;
691 -> 693 ;
694 [label="gini = 0.0\nsamples = 36\nvalue = [0, 36]", fillcolor="#399de5"] ;
693 -> 694 ;
695 [label="shucked_weight <= 0.546\ngini = 0.165\nsamples = 11\nvalue = [1, 10]", fillcolor="#4da7e8"] ;
693 -> 695 ;
696 [label="height <= 0.18\ngini = 0.5\nsamples = 2\nvalue = [1, 1]", fillcolor="#ffffff"] ;
695 -> 696 ;
697 [label="gini = 0.0\nsamples = 1\nvalue = [0, 1]", fillcolor="#399de5"] ;
696 -> 697 ;
698 [label="gini = 0.0\nsamples = 1\nvalue = [1, 0]", fillcolor="#e58139"] ;
696 -> 698 ;
699 [label="gini = 0.0\nsamples = 9\nvalue = [0, 9]", fillcolor="#399de5"] ;
695 -> 699 ;
700 [label="gini = 0.0\nsamples = 1\nvalue = [1, 0]", fillcolor="#e58139"] ;
658 -> 700 ;
701 [label="whole_weight <= 1.324\ngini = 0.401\nsamples = 148\nvalue = [41, 107]", fillcolor="#85c3ef"] ;
653 -> 701 ;
702 [label="diameter <= 0.502\ngini = 0.488\nsamples = 45\nvalue = [19, 26]", fillcolor="#cae5f8"] ;
701 -> 702 ;
703 [label="viscera_weight <= 0.253\ngini = 0.477\nsamples = 28\nvalue = [17, 11]", fillcolor="#f6d3b9"] ;
702 -> 703 ;
704 [label="diameter <= 0.475\ngini = 0.408\nsamples = 7\nvalue = [2, 5]", fillcolor="#88c4ef"] ;
703 -> 704 ;
705 [label="gini = 0.0\nsamples = 1\nvalue = [1, 0]", fillcolor="#e58139"] ;
704 -> 705 ;
706 [label="whole_weight <= 1.213\ngini = 0.278\nsamples = 6\nvalue = [1, 5]", fillcolor="#61b1ea"] ;
704 -> 706 ;
707 [label="gini = 0.0\nsamples = 1\nvalue = [1, 0]", fillcolor="#e58139"] ;
706 -> 707 ;
708 [label="gini = 0.0\nsamples = 5\nvalue = [0, 5]", fillcolor="#399de5"] ;
706 -> 708 ;
709 [label="whole_weight <= 1.293\ngini = 0.408\nsamples = 21\nvalue = [15, 6]", fillcolor="#efb388"] ;
703 -> 709 ;
710 [label="viscera_weight <= 0.308\ngini = 0.49\nsamples = 14\nvalue = [8, 6]", fillcolor="#f8e0ce"] ;
709 -> 710 ;
711 [label="height <= 0.172\ngini = 0.397\nsamples = 11\nvalue = [8, 3]", fillcolor="#efb083"] ;
710 -> 711 ;
712 [label="gini = 0.0\nsamples = 6\nvalue = [6, 0]", fillcolor="#e58139"] ;
711 -> 712 ;
713 [label="whole_weight <= 1.271\ngini = 0.48\nsamples = 5\nvalue = [2, 3]", fillcolor="#bddef6"] ;
711 -> 713 ;
714 [label="gini = 0.0\nsamples = 2\nvalue = [0, 2]", fillcolor="#399de5"] ;
713 -> 714 ;
715 [label="shell_weight <= 0.38\ngini = 0.444\nsamples = 3\nvalue = [2, 1]", fillcolor="#f2c09c"] ;
713 -> 715 ;
716 [label="gini = 0.0\nsamples = 2\nvalue = [2, 0]", fillcolor="#e58139"] ;
715 -> 716 ;
717 [label="gini = 0.0\nsamples = 1\nvalue = [0, 1]", fillcolor="#399de5"] ;
715 -> 717 ;
718 [label="gini = 0.0\nsamples = 3\nvalue = [0, 3]", fillcolor="#399de5"] ;
710 -> 718 ;
719 [label="gini = 0.0\nsamples = 7\nvalue = [7, 0]", fillcolor="#e58139"] ;
709 -> 719 ;
720 [label="whole_weight <= 1.317\ngini = 0.208\nsamples = 17\nvalue = [2, 15]", fillcolor="#53aae8"] ;
702 -> 720 ;
721 [label="shell_weight <= 0.395\ngini = 0.117\nsamples = 16\nvalue = [1, 15]", fillcolor="#46a4e7"] ;
720 -> 721 ;
722 [label="gini = 0.0\nsamples = 15\nvalue = [0, 15]", fillcolor="#399de5"] ;
721 -> 722 ;
723 [label="gini = 0.0\nsamples = 1\nvalue = [1, 0]", fillcolor="#e58139"] ;
721 -> 723 ;
724 [label="gini = 0.0\nsamples = 1\nvalue = [1, 0]", fillcolor="#e58139"] ;
720 -> 724 ;
725 [label="shell_weight <= 0.4\ngini = 0.336\nsamples = 103\nvalue = [22, 81]", fillcolor="#6fb8ec"] ;
701 -> 725 ;
726 [label="shucked_weight <= 0.618\ngini = 0.318\nsamples = 101\nvalue = [20, 81]", fillcolor="#6ab5eb"] ;
725 -> 726 ;
727 [label="gini = 0.0\nsamples = 25\nvalue = [0, 25]", fillcolor="#399de5"] ;
726 -> 727 ;
728 [label="viscera_weight <= 0.376\ngini = 0.388\nsamples = 76\nvalue = [20, 56]", fillcolor="#80c0ee"] ;
726 -> 728 ;
729 [label="height <= 0.188\ngini = 0.433\nsamples = 63\nvalue = [20, 43]", fillcolor="#95cbf1"] ;
728 -> 729 ;
730 [label="length <= 0.637\ngini = 0.385\nsamples = 50\nvalue = [13, 37]", fillcolor="#7fbfee"] ;
729 -> 730 ;
731 [label="height <= 0.168\ngini = 0.188\nsamples = 19\nvalue = [2, 17]", fillcolor="#50a9e8"] ;
730 -> 731 ;
732 [label="shell_weight <= 0.347\ngini = 0.408\nsamples = 7\nvalue = [2, 5]", fillcolor="#88c4ef"] ;
731 -> 732 ;
733 [label="gini = 0.0\nsamples = 4\nvalue = [0, 4]", fillcolor="#399de5"] ;
732 -> 733 ;
734 [label="shucked_weight <= 0.71\ngini = 0.444\nsamples = 3\nvalue = [2, 1]", fillcolor="#f2c09c"] ;
732 -> 734 ;
735 [label="gini = 0.0\nsamples = 2\nvalue = [2, 0]", fillcolor="#e58139"] ;
734 -> 735 ;
736 [label="gini = 0.0\nsamples = 1\nvalue = [0, 1]", fillcolor="#399de5"] ;
734 -> 736 ;
737 [label="gini = 0.0\nsamples = 12\nvalue = [0, 12]", fillcolor="#399de5"] ;
731 -> 737 ;
738 [label="shucked_weight <= 0.647\ngini = 0.458\nsamples = 31\nvalue = [11, 20]", fillcolor="#a6d3f3"] ;
730 -> 738 ;
739 [label="shucked_weight <= 0.627\ngini = 0.408\nsamples = 7\nvalue = [5, 2]", fillcolor="#efb388"] ;
738 -> 739 ;
740 [label="whole_weight <= 1.385\ngini = 0.444\nsamples = 3\nvalue = [1, 2]", fillcolor="#9ccef2"] ;
739 -> 740 ;
741 [label="gini = 0.0\nsamples = 1\nvalue = [1, 0]", fillcolor="#e58139"] ;
740 -> 741 ;
742 [label="gini = 0.0\nsamples = 2\nvalue = [0, 2]", fillcolor="#399de5"] ;
740 -> 742 ;
743 [label="gini = 0.0\nsamples = 4\nvalue = [4, 0]", fillcolor="#e58139"] ;
739 -> 743 ;
744 [label="shucked_weight <= 0.708\ngini = 0.375\nsamples = 24\nvalue = [6, 18]", fillcolor="#7bbeee"] ;
738 -> 744 ;
745 [label="length <= 0.647\ngini = 0.142\nsamples = 13\nvalue = [1, 12]", fillcolor="#49a5e7"] ;
744 -> 745 ;
746 [label="whole_weight <= 1.426\ngini = 0.375\nsamples = 4\nvalue = [1, 3]", fillcolor="#7bbeee"] ;
745 -> 746 ;
747 [label="gini = 0.0\nsamples = 3\nvalue = [0, 3]", fillcolor="#399de5"] ;
746 -> 747 ;
748 [label="gini = 0.0\nsamples = 1\nvalue = [1, 0]", fillcolor="#e58139"] ;
746 -> 748 ;
749 [label="gini = 0.0\nsamples = 9\nvalue = [0, 9]", fillcolor="#399de5"] ;
745 -> 749 ;
750 [label="whole_weight <= 1.492\ngini = 0.496\nsamples = 11\nvalue = [5, 6]", fillcolor="#deeffb"] ;
744 -> 750 ;
751 [label="viscera_weight <= 0.294\ngini = 0.278\nsamples = 6\nvalue = [5, 1]", fillcolor="#ea9a61"] ;
750 -> 751 ;
752 [label="gini = 0.0\nsamples = 1\nvalue = [0, 1]", fillcolor="#399de5"] ;
751 -> 752 ;
753 [label="gini = 0.0\nsamples = 5\nvalue = [5, 0]", fillcolor="#e58139"] ;
751 -> 753 ;
754 [label="gini = 0.0\nsamples = 5\nvalue = [0, 5]", fillcolor="#399de5"] ;
750 -> 754 ;
755 [label="length <= 0.623\ngini = 0.497\nsamples = 13\nvalue = [7, 6]", fillcolor="#fbede3"] ;
729 -> 755 ;
756 [label="gini = 0.0\nsamples = 2\nvalue = [2, 0]", fillcolor="#e58139"] ;
755 -> 756 ;
757 [label="diameter <= 0.502\ngini = 0.496\nsamples = 11\nvalue = [5, 6]", fillcolor="#deeffb"] ;
755 -> 757 ;
758 [label="gini = 0.0\nsamples = 3\nvalue = [0, 3]", fillcolor="#399de5"] ;
757 -> 758 ;
759 [label="shucked_weight <= 0.745\ngini = 0.469\nsamples = 8\nvalue = [5, 3]", fillcolor="#f5cdb0"] ;
757 -> 759 ;
760 [label="gini = 0.0\nsamples = 3\nvalue = [3, 0]", fillcolor="#e58139"] ;
759 -> 760 ;
761 [label="length <= 0.668\ngini = 0.48\nsamples = 5\nvalue = [2, 3]", fillcolor="#bddef6"] ;
759 -> 761 ;
762 [label="gini = 0.0\nsamples = 3\nvalue = [0, 3]", fillcolor="#399de5"] ;
761 -> 762 ;
763 [label="gini = 0.0\nsamples = 2\nvalue = [2, 0]", fillcolor="#e58139"] ;
761 -> 763 ;
764 [label="gini = 0.0\nsamples = 13\nvalue = [0, 13]", fillcolor="#399de5"] ;
728 -> 764 ;
765 [label="gini = 0.0\nsamples = 2\nvalue = [2, 0]", fillcolor="#e58139"] ;
725 -> 765 ;
766 [label="diameter <= 0.458\ngini = 0.095\nsamples = 299\nvalue = [15, 284]", fillcolor="#43a2e6"] ;
652 -> 766 ;
767 [label="whole_weight <= 1.595\ngini = 0.444\nsamples = 6\nvalue = [2, 4]", fillcolor="#9ccef2"] ;
766 -> 767 ;
768 [label="gini = 0.0\nsamples = 4\nvalue = [0, 4]", fillcolor="#399de5"] ;
767 -> 768 ;
769 [label="gini = 0.0\nsamples = 2\nvalue = [2, 0]", fillcolor="#e58139"] ;
767 -> 769 ;
770 [label="shucked_weight <= 0.553\ngini = 0.085\nsamples = 293\nvalue = [13, 280]", fillcolor="#42a2e6"] ;
766 -> 770 ;
771 [label="gini = 0.0\nsamples = 70\nvalue = [0, 70]", fillcolor="#399de5"] ;
770 -> 771 ;
772 [label="shucked_weight <= 0.556\ngini = 0.11\nsamples = 223\nvalue = [13, 210]", fillcolor="#45a3e7"] ;
770 -> 772 ;
773 [label="length <= 0.668\ngini = 0.5\nsamples = 2\nvalue = [1, 1]", fillcolor="#ffffff"] ;
772 -> 773 ;
774 [label="gini = 0.0\nsamples = 1\nvalue = [1, 0]", fillcolor="#e58139"] ;
773 -> 774 ;
775 [label="gini = 0.0\nsamples = 1\nvalue = [0, 1]", fillcolor="#399de5"] ;
773 -> 775 ;
776 [label="diameter <= 0.553\ngini = 0.103\nsamples = 221\nvalue = [12, 209]", fillcolor="#44a3e6"] ;
772 -> 776 ;
777 [label="length <= 0.718\ngini = 0.152\nsamples = 133\nvalue = [11, 122]", fillcolor="#4ba6e7"] ;
776 -> 777 ;
778 [label="viscera_weight <= 0.414\ngini = 0.119\nsamples = 126\nvalue = [8, 118]", fillcolor="#46a4e7"] ;
777 -> 778 ;
779 [label="shell_weight <= 0.44\ngini = 0.098\nsamples = 116\nvalue = [6, 110]", fillcolor="#44a2e6"] ;
778 -> 779 ;
780 [label="length <= 0.668\ngini = 0.183\nsamples = 49\nvalue = [5, 44]", fillcolor="#50a8e8"] ;
779 -> 780 ;
781 [label="gini = 0.0\nsamples = 30\nvalue = [0, 30]", fillcolor="#399de5"] ;
780 -> 781 ;
782 [label="shucked_weight <= 0.643\ngini = 0.388\nsamples = 19\nvalue = [5, 14]", fillcolor="#80c0ee"] ;
780 -> 782 ;
783 [label="gini = 0.0\nsamples = 5\nvalue = [0, 5]", fillcolor="#399de5"] ;
782 -> 783 ;
784 [label="shucked_weight <= 0.66\ngini = 0.459\nsamples = 14\nvalue = [5, 9]", fillcolor="#a7d3f3"] ;
782 -> 784 ;
785 [label="gini = 0.0\nsamples = 2\nvalue = [2, 0]", fillcolor="#e58139"] ;
784 -> 785 ;
786 [label="height <= 0.188\ngini = 0.375\nsamples = 12\nvalue = [3, 9]", fillcolor="#7bbeee"] ;
784 -> 786 ;
787 [label="diameter <= 0.538\ngini = 0.48\nsamples = 5\nvalue = [3, 2]", fillcolor="#f6d5bd"] ;
786 -> 787 ;
788 [label="gender_M <= 0.5\ngini = 0.444\nsamples = 3\nvalue = [1, 2]", fillcolor="#9ccef2"] ;
787 -> 788 ;
789 [label="gini = 0.0\nsamples = 1\nvalue = [1, 0]", fillcolor="#e58139"] ;
788 -> 789 ;
790 [label="gini = 0.0\nsamples = 2\nvalue = [0, 2]", fillcolor="#399de5"] ;
788 -> 790 ;
791 [label="gini = 0.0\nsamples = 2\nvalue = [2, 0]", fillcolor="#e58139"] ;
787 -> 791 ;
792 [label="gini = 0.0\nsamples = 7\nvalue = [0, 7]", fillcolor="#399de5"] ;
786 -> 792 ;
793 [label="length <= 0.647\ngini = 0.029\nsamples = 67\nvalue = [1, 66]", fillcolor="#3c9ee5"] ;
779 -> 793 ;
794 [label="viscera_weight <= 0.339\ngini = 0.245\nsamples = 7\nvalue = [1, 6]", fillcolor="#5aade9"] ;
793 -> 794 ;
795 [label="gini = 0.0\nsamples = 4\nvalue = [0, 4]", fillcolor="#399de5"] ;
794 -> 795 ;
796 [label="whole_weight <= 1.494\ngini = 0.444\nsamples = 3\nvalue = [1, 2]", fillcolor="#9ccef2"] ;
794 -> 796 ;
797 [label="gini = 0.0\nsamples = 1\nvalue = [1, 0]", fillcolor="#e58139"] ;
796 -> 797 ;
798 [label="gini = 0.0\nsamples = 2\nvalue = [0, 2]", fillcolor="#399de5"] ;
796 -> 798 ;
799 [label="gini = 0.0\nsamples = 60\nvalue = [0, 60]", fillcolor="#399de5"] ;
793 -> 799 ;
800 [label="viscera_weight <= 0.418\ngini = 0.32\nsamples = 10\nvalue = [2, 8]", fillcolor="#6ab6ec"] ;
778 -> 800 ;
801 [label="gini = 0.0\nsamples = 2\nvalue = [2, 0]", fillcolor="#e58139"] ;
800 -> 801 ;
802 [label="gini = 0.0\nsamples = 8\nvalue = [0, 8]", fillcolor="#399de5"] ;
800 -> 802 ;
803 [label="shucked_weight <= 0.847\ngini = 0.49\nsamples = 7\nvalue = [3, 4]", fillcolor="#cee6f8"] ;
777 -> 803 ;
804 [label="shucked_weight <= 0.634\ngini = 0.32\nsamples = 5\nvalue = [1, 4]", fillcolor="#6ab6ec"] ;
803 -> 804 ;
805 [label="gini = 0.0\nsamples = 1\nvalue = [1, 0]", fillcolor="#e58139"] ;
804 -> 805 ;
806 [label="gini = 0.0\nsamples = 4\nvalue = [0, 4]", fillcolor="#399de5"] ;
804 -> 806 ;
807 [label="gini = 0.0\nsamples = 2\nvalue = [2, 0]", fillcolor="#e58139"] ;
803 -> 807 ;
808 [label="viscera_weight <= 0.356\ngini = 0.022\nsamples = 88\nvalue = [1, 87]", fillcolor="#3b9ee5"] ;
776 -> 808 ;
809 [label="viscera_weight <= 0.348\ngini = 0.142\nsamples = 13\nvalue = [1, 12]", fillcolor="#49a5e7"] ;
808 -> 809 ;
810 [label="gini = 0.0\nsamples = 12\nvalue = [0, 12]", fillcolor="#399de5"] ;
809 -> 810 ;
811 [label="gini = 0.0\nsamples = 1\nvalue = [1, 0]", fillcolor="#e58139"] ;
809 -> 811 ;
812 [label="gini = 0.0\nsamples = 75\nvalue = [0, 75]", fillcolor="#399de5"] ;
808 -> 812 ;
}